//Numpy array shape [64]
//Min -0.016663538292
//Max 0.016221901402
//Number of zeros 0

#ifndef B26_H_
#define B26_H_

#ifndef __SYNTHESIS__
conv2d_54_bias_t b26[64];
#else
conv2d_54_bias_t b26[64] = {0.0124105206, -0.0087224729, -0.0027173941, 0.0129945055, -0.0023431310, -0.0154900169, 0.0003827085, 0.0067384220, 0.0108666141, -0.0048376611, 0.0034766106, -0.0139411092, 0.0008734761, -0.0128582055, 0.0148694701, -0.0161689613, -0.0008074626, -0.0102963969, 0.0130658150, 0.0125693651, -0.0061220932, -0.0155002475, -0.0081029460, -0.0138364322, 0.0101650916, 0.0037636377, 0.0018379701, 0.0138358828, -0.0128759667, -0.0092253322, -0.0092438450, -0.0153763266, -0.0134239765, -0.0154876467, 0.0042565740, -0.0043739276, -0.0085345162, 0.0151560353, 0.0147423372, -0.0087820934, 0.0105987499, 0.0154880425, -0.0166635383, 0.0052383728, 0.0114364568, -0.0110600861, 0.0091623524, 0.0082470225, 0.0093469508, 0.0145747969, 0.0128300413, -0.0135364244, 0.0125128413, 0.0129547948, -0.0118011665, 0.0162219014, -0.0003115615, -0.0142807961, -0.0130603369, 0.0158232488, 0.0149210049, -0.0064758616, -0.0139878709, -0.0061575384};
#endif

#endif
