//Numpy array shape [64]
//Min -1.315978884697
//Max 1.123452067375
//Number of zeros 0

#ifndef B28_H_
#define B28_H_

#ifndef __SYNTHESIS__
batch_normalization_213_bias_t b28[64];
#else
batch_normalization_213_bias_t b28[64] = {0.9238049984, -0.8912605643, 0.5577347279, 0.0250939764, -0.9672994614, 0.3094095290, -0.7420100570, -0.2011847645, -0.6475491524, -0.5263547897, -1.0229195356, -0.6866402626, -0.3067398369, 0.8372616768, 0.2201992571, -0.0981122553, 0.9262312651, 0.0857428834, -0.6659477353, 0.5790416598, -0.1749017984, 0.6436709762, -0.9748601913, -0.4945286512, -0.6002030969, 0.5774182677, 0.0550550111, 0.2466145158, 0.7089714408, 0.6451865435, -0.8534942269, 0.4760303795, 0.1992393732, -0.4550006986, 0.5488431454, 0.1329614520, -0.2420007139, 0.8269548416, -0.5687941313, 0.4357658923, -0.0805784613, -0.7263929844, -0.5425494909, 0.0978564173, -0.5170555711, -0.5289193392, 0.2523613870, 0.2454967648, 0.2153429985, -0.4628757834, -0.3383745551, -0.2413552999, 1.1234520674, -1.3159788847, -0.0106585016, 0.5939300656, 0.1349296719, 0.9061999321, 0.1695079058, 0.3698960543, -0.9751655459, -0.8778483272, -0.7469095588, -0.6219753027};
#endif

#endif
