//Numpy array shape [64]
//Min -0.017128536478
//Max 0.017200933769
//Number of zeros 0

#ifndef B30_H_
#define B30_H_

#ifndef __SYNTHESIS__
conv2d_55_bias_t b30[64];
#else
conv2d_55_bias_t b30[64] = {0.0095506245, -0.0041477177, 0.0127919950, -0.0070353202, 0.0069843093, -0.0145233730, 0.0139774438, 0.0139568187, -0.0148077784, -0.0118600326, 0.0094511937, -0.0084227808, 0.0001934169, 0.0055485289, -0.0139252711, 0.0041543515, 0.0084936609, -0.0027288008, -0.0100111710, -0.0171285365, 0.0077301478, 0.0126079507, -0.0011429507, -0.0123850303, -0.0130185038, 0.0172009338, -0.0139189018, -0.0109074702, 0.0088068219, 0.0040569245, -0.0135434233, 0.0061984304, 0.0148654301, -0.0160404146, -0.0142648788, 0.0029938545, -0.0067425449, 0.0142526226, -0.0165211335, -0.0095771309, 0.0148397181, -0.0124462144, -0.0060238042, 0.0114447847, 0.0104061347, 0.0022870069, 0.0133908819, -0.0075097810, -0.0086166095, -0.0158928782, -0.0129247997, -0.0026409111, -0.0103507135, 0.0169735923, 0.0128171407, -0.0103165042, -0.0006518371, -0.0096239671, -0.0151580777, 0.0142785963, 0.0054005329, 0.0085112136, 0.0159054920, 0.0109877912};
#endif

#endif
