//Numpy array shape [3, 3, 16, 16]
//Min -0.267252326012
//Max 0.269519597292
//Number of zeros 0

#ifndef W10_H_
#define W10_H_

#ifndef __SYNTHESIS__
conv2d_50_weight_t w10[2304];
#else
conv2d_50_weight_t w10[2304] = {-0.0958221555, 0.1487534195, -0.0434875377, -0.0346989371, 0.0972813591, 0.0311946422, 0.0899215639, 0.0029121640, 0.0405490473, 0.1507539302, 0.0111660045, 0.2183578759, 0.0900897086, -0.1002081409, -0.0974248573, 0.0924738646, -0.1127276570, 0.1380925477, -0.0923719779, 0.0545937866, 0.0607036203, -0.0154562434, 0.0079881931, -0.0223986842, 0.0006711449, -0.0011665375, 0.0240885336, 0.0180457197, -0.1086003557, 0.1733077317, -0.0866999924, -0.1669986397, 0.1390180737, 0.0860753059, -0.0431912430, 0.0080330120, -0.0271086134, 0.0000000000, -0.0588363633, -0.0958716571, -0.0147624416, -0.0862941220, -0.0148001462, 0.0589855351, -0.0856724009, -0.0886712596, -0.0108389389, -0.0707348287, 0.0071926462, -0.0033690729, -0.0323082358, -0.2193885148, 0.0213112030, 0.1444862038, -0.1055530086, 0.0634535328, -0.1580383629, 0.0938260332, 0.0388832204, -0.1393070519, -0.0401841626, -0.0142511111, -0.0102345636, -0.1388287693, 0.0469021089, -0.0376165919, -0.0994255841, 0.0095108915, 0.0446535274, 0.0125967711, 0.2695195973, 0.0672961622, -0.0189955011, 0.0846579671, 0.1740924269, 0.0646077469, 0.1191195995, 0.0280522425, 0.0725028813, 0.0044860221, -0.0980909690, 0.0434801839, -0.0928039774, 0.0970549136, -0.0630576909, -0.1400822699, -0.0187862776, 0.0335220769, -0.0148493890, 0.2093579918, 0.0257189870, 0.2233013958, -0.0328444242, 0.0162638407, 0.0191460270, -0.0848122463, 0.1835944504, 0.2133805752, -0.0280899964, -0.0910554975, -0.1833579242, -0.0803952068, 0.0190993678, 0.0727015585, 0.1970129758, 0.0148560023, -0.0817637667, -0.0399098955, 0.0573023930, 0.0088094892, -0.0000000182, -0.2164939344, 0.0570541918, -0.0916545391, 0.0308251288, 0.1613939553, -0.0077730799, 0.0171711352, -0.1730131507, -0.1547927856, -0.0282690227, -0.0069488320, -0.1589463055, 0.0904131755, 0.0892645046, -0.0375597589, -0.1027877629, -0.0049839774, -0.0921402201, 0.0860460326, -0.0002612351, -0.1883968562, 0.1609379649, -0.0000000000, -0.0595955066, 0.0053742821, -0.0718279183, -0.0913857222, -0.0962923989, 0.1534751952, -0.0060649063, 0.0282981358, 0.0011096040, 0.0492601842, 0.0761580020, -0.0095358612, 0.1995798349, -0.0796641856, 0.0326289311, 0.0000309085, 0.1009937376, -0.0152534153, -0.0932924151, 0.0566468015, 0.0715668350, 0.0109494217, -0.1180730537, -0.0308049936, -0.0071643158, 0.0367898792, -0.1515996009, -0.0281604901, 0.0653070956, 0.0507023968, 0.2138742507, 0.0513993464, 0.0000000003, 0.0620756112, -0.0216506310, -0.0216002800, 0.0414181016, 0.1527099758, 0.0836172402, -0.0682869628, -0.0000391073, 0.1553497165, -0.0037975868, -0.0769204050, 0.0785120428, -0.0303041395, 0.1084965393, 0.0406226814, -0.0279529132, -0.0688907653, -0.2131086737, -0.0314218029, -0.0028629738, -0.0941691548, -0.0225498881, 0.0271798354, 0.0937317908, 0.0391395651, -0.0034981035, -0.0345396399, -0.0628783777, -0.0917799324, 0.0004050888, 0.0959822983, 0.1688919365, 0.0812057182, -0.1856741160, -0.0184239503, -0.0112576541, 0.0000000000, -0.0747608691, 0.0131901791, 0.0345326662, -0.1325393915, -0.1692676991, 0.0539481901, 0.0179023910, 0.0198148638, -0.0637417361, 0.0434223823, -0.0338241905, 0.1039800048, 0.1398338228, -0.0472210199, 0.1884882450, -0.0298965182, 0.0382460766, -0.0556246340, -0.1232607216, -0.1956033260, -0.0241685305, -0.0709967464, 0.0010644181, 0.0233879909, -0.0314276367, 0.0279856250, 0.0669395402, 0.1128322929, 0.1171285510, 0.0925112516, 0.0128526436, 0.2110681981, -0.0758668631, 0.0027487134, 0.0011245485, -0.0524679981, -0.0008234070, -0.0426146686, -0.0276764780, 0.2169031203, 0.2362732440, 0.0321433246, 0.0726784766, 0.0065715136, 0.0659377798, -0.0491350293, -0.1457212269, 0.1621103436, 0.0451449640, -0.0510523319, -0.0045581944, -0.0052655805, -0.1630846858, 0.1098173931, -0.0454784371, -0.0674210489, 0.0012584570, -0.0394863524, -0.0135961864, -0.0150774485, -0.0147652272, 0.0239279307, -0.0410368331, -0.0565499701, 0.0215855502, 0.1422871053, 0.0716721937, -0.0595050678, -0.0000000109, 0.0554447286, -0.0823510811, 0.2272563428, -0.0613036267, 0.0020729308, -0.0120343324, 0.2335965335, 0.0277203936, 0.0036255708, -0.0127607519, -0.0197832491, 0.0815566108, -0.0329634063, 0.0053370842, -0.1008208469, -0.0241642501, 0.0325523913, -0.0262364410, 0.0603428632, -0.0495289192, -0.1508272737, 0.2061061114, -0.0288203005, -0.0084581720, -0.0740701929, -0.2672523260, 0.0792250484, 0.1795703769, -0.1484426707, -0.0399161093, 0.0993524343, 0.0409663729, -0.0119023779, 0.1094498634, 0.0543988943, 0.1124830991, -0.0797090754, 0.0562831499, 0.0407615565, -0.0247314312, 0.0380605944, -0.0022595800, 0.0897499397, 0.0721867010, 0.1021592095, -0.1146547943, -0.1715370268, 0.0677117929, 0.0978010744, -0.0655350983, 0.0547060445, 0.1098246574, 0.0264659766, 0.0529710241, 0.0033101621, 0.0440993756, -0.1234186441, 0.0574801862, -0.0902652219, 0.1116598397, 0.1000277698, -0.0110223433, -0.0433583781, -0.1519330442, 0.0332516991, 0.0648455620, -0.0295245349, 0.0684827939, 0.0540046543, 0.0643565208, -0.0022780236, -0.0442011841, 0.1445472836, 0.0127371559, -0.0946014225, 0.0030361568, 0.0040982547, -0.0735678449, -0.0336373709, -0.1145427302, 0.0259402078, -0.0604376383, 0.0240231417, -0.1362076700, -0.0771159530, -0.0098887701, 0.1130975261, 0.1336925030, 0.0927098393, -0.1085492447, 0.0414718576, 0.1086390465, 0.2004710585, -0.0120462477, 0.0207817461, -0.0838797465, 0.1729061007, 0.0277863014, 0.1455422342, -0.1453838348, 0.2080076933, 0.0804408789, -0.0000000000, -0.0170954484, 0.0748419315, 0.0737419873, -0.1742399484, -0.0754927099, -0.2204844505, 0.1842860729, -0.0493091829, -0.2060882598, -0.0864441693, 0.1047422066, 0.0948927850, -0.1241721958, -0.0031074688, 0.0350113213, -0.0302462243, 0.2070567608, -0.0117758652, -0.0117056994, 0.0106534231, 0.0940353796, 0.0465260483, -0.0628506616, 0.0716713890, 0.0673108548, 0.2398722023, -0.1281942725, -0.0052987640, 0.0192092489, 0.0231638923, -0.1012023240, -0.1389640719, -0.0179710090, -0.0307835992, 0.0334865488, -0.1964120120, -0.0467182957, -0.0268255565, -0.0301152337, -0.0090648700, 0.1370628476, -0.0962281972, -0.1044566780, -0.0023969703, 0.1523670256, 0.0228396486, 0.0024566893, -0.0360157043, -0.0686989725, 0.1462985873, 0.0708965659, 0.0867153555, -0.1124943495, -0.0006681522, -0.1130970865, -0.0482682586, -0.2049265951, 0.0172789339, 0.1102771610, -0.1919431388, -0.2377378792, 0.0357060917, -0.0676497519, 0.0496581234, 0.0885901824, -0.1451466382, -0.0383954160, -0.0318077579, -0.0110487137, -0.0147706997, 0.0183166005, -0.0513171107, -0.0077591976, 0.0138583612, -0.0264524668, 0.0435239300, 0.0147054009, -0.0687966496, -0.1746986210, 0.0063431533, -0.0657086596, -0.0338272415, -0.1887348443, -0.0274210125, 0.0088372556, -0.0565824471, 0.2315196246, 0.0784159228, 0.0077170241, -0.0470384844, 0.1111368164, 0.0206388980, -0.0065753600, 0.0821712390, -0.0021798741, 0.2406741828, 0.1361711919, 0.1056553125, 0.0297832675, 0.0649434626, 0.1412579119, -0.0144995190, 0.0283076037, -0.2007559985, 0.1533956677, 0.0607855432, -0.0866509080, 0.1292136759, -0.0951753482, 0.1389725059, -0.1047652885, -0.0154194143, 0.1834049821, -0.1753623188, 0.0360410176, 0.0797013417, -0.0000297869, -0.1386546791, 0.0893492922, 0.1427992880, 0.1013761684, -0.0593027696, -0.1331712604, 0.0394635536, 0.2180912346, -0.1510269344, 0.2132861763, -0.0274054930, 0.0076232357, 0.0014193183, 0.0901722535, -0.1086739004, -0.0789841488, -0.1185381487, 0.0024646351, 0.0108118597, 0.0525931381, 0.1160259545, 0.0058679320, -0.0924550593, -0.2251251042, 0.0234319046, -0.0501002520, -0.0161795691, 0.2519544959, 0.1482673734, -0.1494215429, -0.0654766485, 0.1152745783, 0.0162830148, 0.0706858933, -0.1858810782, -0.2418718338, 0.0169950686, -0.0157740768, -0.0668955892, 0.2267290354, -0.0421048626, -0.0259985197, -0.0313920975, -0.0716172084, -0.0036778809, 0.0269127693, 0.0747967958, -0.1352134943, 0.1131196022, 0.0226219241, -0.0270817727, 0.0730261877, 0.0270573888, 0.1270982474, -0.0558146909, -0.0794684738, -0.0325665139, 0.1807653904, -0.1971969008, -0.2066270262, 0.0135684777, 0.0576288775, 0.1539384872, -0.0690419897, 0.0003501467, -0.0766746029, 0.1334586442, 0.2210540622, 0.1152410582, 0.0428566188, -0.1285696477, 0.0964213759, -0.0155031830, -0.1585302502, 0.0415842123, 0.0334017575, 0.0526308864, -0.0112605654, -0.0853757560, 0.1273777932, -0.0079875709, -0.0283505861, -0.0849485621, 0.0225938503, -0.0008963720, 0.1675253510, 0.0883430243, 0.2045392543, -0.1337546110, -0.0545671396, -0.0779299662, -0.0503511056, -0.1796794981, 0.0648598224, -0.0530390032, 0.0594553575, -0.0414979085, -0.0729391500, -0.0378401652, -0.1771212071, -0.0264019798, -0.0439478010, 0.1017606631, 0.1024837792, -0.0035521823, -0.0383315831, 0.0832979679, -0.0677923411, -0.0047296393, -0.1778207421, -0.1775684506, -0.0056184670, 0.0825033560, -0.0215117186, 0.2608163357, -0.1093225405, 0.1798236519, -0.0012299308, 0.1076811701, 0.0471371189, 0.2430199087, 0.0037731568, 0.1680588573, 0.0091735143, -0.0025953790, -0.0685905740, -0.0157402959, 0.0218120553, -0.1175915673, -0.0218920745, 0.0877678320, -0.0006792900, -0.0390991271, 0.0955445692, -0.0737869516, -0.0333109945, 0.1134490967, -0.0629983917, -0.0970952362, -0.1172266081, -0.0582661144, 0.1414949596, 0.1171522662, 0.0197548997, 0.1028761789, -0.0717569068, -0.0005826520, 0.0899140090, -0.0324848741, 0.2456031740, 0.2171875536, 0.0948206633, -0.1336995214, -0.0079392521, -0.0399664007, 0.0039340891, 0.0438531674, -0.1022991762, 0.0342933387, -0.1753787398, -0.1626082361, -0.0209590029, -0.0190717429, 0.0818626061, -0.0359607078, 0.1147742942, 0.1126192212, 0.1077827290, 0.0030785212, 0.0133299166, -0.0666514635, -0.1495782882, -0.1247452646, -0.0044916412, 0.0779515579, 0.1700986326, 0.1286590546, 0.0526014566, -0.1193170249, -0.0698125660, 0.1095785201, -0.0526223071, 0.0973331705, -0.0720280781, -0.0028171472, -0.0446390621, 0.0285020601, -0.0438174158, -0.1409368068, 0.0256289560, -0.0579064339, 0.0883059949, -0.1639134586, -0.0002676012, -0.0409220867, -0.0783175454, -0.0267683994, 0.1435077339, -0.1663579345, -0.0758082792, 0.0536206365, 0.0895016566, -0.0466001444, -0.1655958146, -0.0576878116, 0.1277138591, 0.0334879905, -0.0961052403, 0.0055213114, -0.0554107577, -0.0248302929, 0.0545326509, -0.1380809098, 0.0639470592, -0.1293328553, -0.1160828769, -0.0356474593, 0.0550286844, 0.0068059722, -0.0437269211, 0.1258914173, -0.1570943445, 0.0155831082, -0.1820025891, -0.1043620482, -0.0811076388, 0.0355790928, 0.0378885195, -0.0382435583, -0.0821884945, 0.0001573004, 0.0058277687, -0.1175466478, 0.0499789342, -0.0711675435, 0.1926626712, 0.0366907381, -0.0517252125, -0.0801204592, 0.0112338290, -0.0009532671, 0.0762254596, 0.1738751829, -0.0176019296, -0.0038716940, -0.1060837880, -0.0988439694, -0.0424773879, -0.0510472246, -0.1186472476, -0.0479595847, 0.0440242402, 0.0032483409, 0.1231596619, -0.0009900584, -0.0000002714, 0.1208463758, -0.0355108902, -0.0324975029, -0.0493125580, -0.1094878912, -0.0310146194, -0.1405222267, 0.1152652726, 0.0364811569, 0.0448766686, 0.1206487641, 0.0188179724, 0.0012185812, -0.0000002061, 0.0518025160, -0.1056581363, 0.0156463329, 0.0025437716, -0.1448695660, 0.2029966712, 0.0310985595, -0.0581522286, -0.0082350606, -0.1587927043, 0.0073291026, -0.1709496677, 0.0358612053, -0.0448749438, 0.0275948532, 0.1236603707, 0.0852937996, -0.0422546603, 0.0173418764, -0.0554921180, 0.1799232364, -0.0149005400, 0.1783084124, -0.0293018632, 0.1916602403, -0.0386228971, -0.1498012543, 0.0873301327, 0.0335164554, -0.0253905170, 0.1350936741, 0.0337652154, 0.0604315139, -0.0227000322, -0.0674931854, 0.0323158987, 0.0531112663, -0.0401770212, -0.0898863599, 0.0295502525, 0.0654096082, 0.1418387890, -0.1408938318, 0.0560474992, 0.0148380855, -0.0348093063, -0.1020003408, 0.0624453761, 0.0971195474, -0.0301828291, 0.1806572229, -0.0705123171, -0.0401191041, -0.0497108027, -0.0264962781, -0.1347023845, 0.1523953974, 0.0814797878, -0.1463839561, 0.0289838277, 0.1415272355, 0.2356165051, -0.0000000000, -0.0517485999, 0.1308455020, -0.0166915990, -0.0579177327, 0.0458346717, 0.1297623515, 0.0266416557, -0.0056177289, 0.0148215210, 0.1386436969, -0.0828206018, -0.0314737856, -0.0878318325, -0.1491185278, -0.0896189734, 0.0500347167, -0.0278644748, 0.0879193917, 0.1964820325, -0.1455059946, 0.0903248787, -0.0399322622, -0.1259710044, 0.0001544250, -0.0316471346, 0.1076799110, 0.1987709850, 0.0209930558, -0.1738399714, 0.0602464043, 0.0482437126, 0.0337786674, -0.1218607202, 0.1241410673, 0.0109674213, -0.0392279215, -0.1201421842, 0.2130990326, -0.1105606034, -0.0744344965, 0.1732390076, -0.1144000366, -0.0414615422, 0.1547833085, 0.0310248137, 0.0947291479, 0.1976383477, -0.2272856832, -0.0297977198, -0.0430298708, -0.1048088148, -0.1211197674, 0.0531109571, 0.1305241436, 0.1003741473, 0.0015490103, 0.1808624864, -0.0254098326, -0.0725329667, -0.1679698527, 0.1437119991, 0.0398688056, 0.0394107811, -0.0627513751, -0.1987208575, -0.1155685708, 0.0379629470, -0.0531441607, -0.1470480859, 0.0449239090, -0.0503498130, 0.0355025530, -0.0966018140, -0.0134590194, -0.1129612327, 0.1290167570, 0.0972167701, -0.0997489691, 0.0371341892, -0.1268688738, 0.1779253930, -0.1336927712, -0.0314415321, 0.1742455065, -0.0468703955, 0.0481597520, -0.1024428159, 0.1311286837, -0.0679417327, -0.0198608488, -0.0003618707, 0.1549575925, -0.1021117046, -0.0586239472, 0.0946587250, 0.0069451742, 0.0000000000, 0.1330592483, 0.0932367519, 0.0155083267, 0.0226058662, 0.0336948931, -0.1418017149, -0.0420373753, -0.1415185183, 0.1151205599, 0.1662460864, 0.2009132206, 0.0024047282, 0.0443931334, -0.0457424372, -0.0549410097, -0.0890799537, 0.0047276886, 0.1786545217, -0.1700203568, -0.1058322489, 0.0925812051, -0.0446396843, 0.0623143762, -0.0375439487, 0.0033379167, 0.0400528014, 0.0767185912, -0.2496512830, -0.0676898435, -0.1122144312, 0.0056025423, 0.0088639548, 0.0989577845, -0.0236466043, -0.0258518271, 0.0856034905, 0.0000000000, -0.1606061757, 0.0188947413, 0.1489047408, 0.0734034851, -0.0808934718, -0.0005683436, -0.0029095153, -0.1868131012, 0.1623760611, 0.0013242012, -0.0299881306, 0.0394133665, 0.0515362993, 0.0091869161, -0.0838149935, -0.0128221670, -0.0836924165, 0.1461996436, 0.0950527117, -0.0134602319, -0.0727973506, -0.0549301170, -0.0107014691, 0.1747126430, 0.0242009535, 0.0743579939, -0.0218091756, -0.1565065384, 0.1032906920, -0.0354130603, 0.1253265589, 0.1459429711, 0.0122350622, -0.0957015827, -0.1276091486, -0.1429664195, 0.0001886085, -0.0020180403, 0.0446533561, 0.0276343059, 0.0049534151, 0.0070281643, 0.0968098193, 0.1715192795, -0.0121907694, 0.0807546973, -0.0190454349, -0.0735558569, 0.1541592479, 0.1374892294, 0.0203433558, -0.0149009991, 0.0000067373, -0.0548316985, -0.0970977172, -0.0433131494, -0.2457481623, -0.1166216135, 0.0033077097, -0.0183531698, -0.0923532248, -0.0076197223, -0.0321076065, 0.0245788340, 0.2125851214, 0.0000001576, 0.0580215231, 0.0000000000, -0.0518784225, 0.0050325971, 0.1183726713, 0.0003220634, -0.0304235257, 0.1314924210, 0.0000000396, 0.1397076547, -0.1476346105, -0.0336594470, 0.0504711978, -0.0189401191, -0.0590270907, 0.0259402487, 0.0727548823, 0.0835014954, 0.0315227471, 0.2121101022, -0.0024276311, -0.0301267132, 0.0287131015, 0.0355805904, -0.1566857696, -0.2009524554, 0.0279963966, -0.0722748265, -0.0849759728, 0.1258173138, 0.1132672504, -0.0826861113, 0.0746997073, -0.0967898369, 0.0199891869, -0.0546726026, -0.0676939338, 0.0003278486, -0.1911490709, -0.1039085090, 0.1015832797, 0.0177590400, 0.0088691292, 0.2149966061, 0.1290651113, -0.0110415444, 0.1045180783, 0.0012563633, 0.1780543327, 0.1336777806, 0.0998675525, -0.0301147103, 0.1852188408, -0.0433427170, -0.1388880014, -0.0504561700, 0.1206508502, 0.0075375363, -0.0005751749, 0.1315964907, -0.0004869377, -0.0563950576, -0.0474140979, -0.0212272480, -0.0174066350, 0.1848687083, 0.1341709495, 0.0825846121, -0.0852283835, -0.1478786618, 0.1158909053, -0.0023361226, -0.2652068436, 0.1719296426, 0.0779211223, -0.1163100824, -0.0405614525, 0.0181680135, -0.0790972188, -0.0089186886, -0.0697773322, 0.0003255716, 0.0642055348, -0.0052900948, -0.0554779954, -0.0879508406, 0.0061613023, 0.1091828868, -0.1181162074, 0.0732966363, 0.0744109601, -0.0002484231, -0.0444538891, -0.0880067199, -0.0856183022, 0.0156383514, -0.2128262520, 0.0919345766, -0.1656928957, 0.1817202270, -0.0338458642, 0.1100654379, 0.1188746467, -0.0307689812, 0.2173046768, -0.0000411092, -0.0950849503, -0.1030888781, 0.0779303089, 0.2170610577, 0.1250501126, -0.0000000853, 0.1130399406, -0.2513372302, 0.0530258380, -0.0082955975, -0.0318917930, -0.0159747638, -0.0810103938, 0.0255589914, -0.0185389947, -0.1159523129, -0.0231449883, 0.2676534951, -0.0763048306, -0.0370421559, 0.0496128462, 0.0532514229, -0.0290179178, 0.1847764850, -0.0958255231, -0.0380472802, -0.0832222924, -0.0212134849, -0.0733725876, -0.1306519508, -0.2040349096, -0.1177761257, 0.0459256917, 0.1630563289, -0.1179541275, 0.0992811099, 0.0736958459, 0.0071906708, -0.0819375515, -0.0194306094, -0.0689481273, 0.0996007621, -0.0299610049, 0.0877984762, 0.0308485646, 0.0586030781, -0.0065776156, 0.0699679032, -0.0905450732, -0.1206520051, -0.1146727428, -0.0346380658, -0.0038020669, -0.0883914456, 0.1374171525, -0.0113317603, -0.0272557568, 0.0549919158, -0.0073847692, -0.1025536880, 0.1108829826, 0.0086453799, 0.0572237447, 0.0761447176, -0.0545942485, 0.0768089965, 0.0176338442, -0.0477055945, -0.0401557684, 0.1413474828, -0.0045652767, 0.0423736870, 0.1324550658, -0.0462311655, 0.1079151034, 0.0148597835, 0.0480387360, 0.0232874639, -0.0861792117, -0.0753381029, 0.1016032323, -0.0136026619, 0.0360645354, 0.0078488532, -0.1132502705, 0.0787777230, -0.0464484170, 0.0037158248, -0.0058742627, 0.0366048366, 0.1537580341, -0.0275899656, 0.2492580265, 0.1926771998, -0.1574846059, 0.0020998796, 0.1592857391, 0.0641400591, 0.0784995779, 0.0026223341, 0.1505240053, 0.2215780616, 0.0200733282, -0.0199481212, 0.0478994288, 0.0020172114, -0.1265262812, 0.1781885475, 0.0572854951, 0.0926752537, -0.1051729545, 0.0410059616, -0.0046379170, 0.0052141733, 0.0377275199, -0.0857930779, -0.1027139574, -0.0421785191, 0.1206027940, 0.0311042592, 0.2106295675, 0.0000184673, -0.0301494226, 0.0754598975, 0.0612230487, -0.0828778148, -0.1600718647, -0.0163732693, 0.2015353590, -0.0453739651, 0.0193641745, 0.1178504080, -0.0639142022, 0.0793697461, 0.0405507497, 0.1172416508, -0.2272866219, -0.0687268227, 0.2050291300, -0.0556918792, -0.0069676172, 0.0110204369, -0.0311859548, -0.0544747151, 0.0782783329, -0.0607642084, 0.1199399754, 0.0003386027, 0.0101237455, -0.0902120024, -0.0240253974, 0.0402237326, 0.1925017387, -0.0220138468, 0.0968711898, -0.0032852511, -0.0889499784, -0.0520909391, -0.0540485121, -0.0754988864, -0.0533710122, -0.0496683903, -0.1021033004, -0.0220605470, -0.2025970370, -0.1498416215, -0.1252213717, 0.0226300992, 0.0279459152, 0.0474521406, -0.0461185724, 0.0890621990, -0.1956688166, -0.0028802447, -0.0122863678, 0.0127020655, -0.0937099978, -0.0313159339, -0.0661327690, -0.2350790650, -0.0326347686, -0.0944199860, 0.1804645658, 0.1715679318, 0.1347215921, 0.0803724453, -0.1119709834, -0.1106472760, -0.0419395454, 0.0016276340, 0.0528248101, -0.1037128940, -0.0136486674, -0.1166418269, 0.0516740605, 0.0773277730, 0.0459834374, 0.0794653296, -0.0065433914, 0.0091899177, 0.0251476411, -0.0448808819, 0.0434478745, 0.0894688219, 0.1726693064, -0.0012406943, -0.1319859326, -0.0752479658, 0.2033415735, 0.2268730104, -0.0108925672, 0.0061338916, 0.2190016955, -0.0054500243, 0.1789430082, -0.0063653709, 0.0314109921, -0.0014566127, -0.0176921096, -0.0694240704, 0.0088109840, -0.0610460006, 0.0949704200, 0.0641974881, 0.0194920357, 0.0347306766, -0.0660605207, -0.0216812305, -0.0149187054, 0.0394247174, -0.0768036544, 0.0092827715, 0.2141020298, -0.0595431700, -0.1822401136, 0.0918075293, 0.0518199243, 0.0555959344, 0.0196140520, -0.1032132730, 0.1043685228, 0.0025089458, -0.0203046072, -0.0471776649, 0.0149702793, 0.1119150221, 0.0835201964, 0.0644803196, 0.0693971887, 0.0006123940, 0.0213234741, -0.0264186375, 0.0526224338, -0.1211904213, -0.1733777225, 0.0178361386, 0.0974463001, 0.0523980744, -0.0538751967, 0.1495168358, -0.1292101592, -0.0002118959, -0.0675717890, -0.0259142593, -0.0241305325, 0.0348970741, -0.0193783306, 0.0146420673, -0.1363075525, -0.1611358076, -0.0252228826, 0.0304406136, -0.0845641941, 0.1825253218, 0.0716582909, -0.0840090588, -0.1748811752, 0.1228243262, 0.1047374308, 0.0596305206, -0.0245272461, -0.0168832745, 0.0417919941, 0.1121324226, 0.0051981732, 0.0297289696, -0.0397757590, 0.1140947118, -0.0314326249, 0.0065966398, -0.0244770590, -0.0270829014, -0.0998164415, -0.0989157483, -0.0391200259, 0.1153147146, 0.0222715214, 0.0151598854, 0.1161794439, -0.0524619967, 0.1919890791, 0.0868247002, 0.0407742299, 0.1581516117, -0.1157836467, -0.0380704179, 0.0238337126, 0.0357247926, 0.0025450231, -0.0026165922, -0.2070015669, 0.0853028968, 0.1213008165, 0.0203114282, 0.0694628730, -0.1063865870, 0.0380086377, -0.0282595679, -0.0458308794, -0.0004324029, -0.0649334267, 0.1380929351, 0.0770012364, -0.1146294549, -0.1996728629, 0.0660760626, 0.0439186953, -0.0691219494, -0.0386833921, 0.0291821007, -0.0209599473, -0.0544547401, 0.0014282115, 0.0443566553, -0.1778974086, 0.0215473101, -0.0509696566, 0.1780216247, -0.1519669592, -0.0144356685, -0.0928378925, -0.0086636208, 0.0125498464, -0.0453203134, -0.1229070723, -0.0133108255, 0.1453729421, 0.0865486264, -0.0306062233, 0.1522067338, -0.0897278190, -0.1164040267, 0.0449107215, -0.1089368090, 0.0462681353, 0.0338970311, 0.1134107709, 0.1417969167, -0.0041987924, 0.1017286032, 0.0841016024, 0.1442188025, -0.1163309067, -0.0653328598, -0.1934966147, -0.0269558430, -0.0574684814, -0.1149716228, -0.0199051220, -0.1404107213, -0.1432754993, 0.1828215718, -0.0453986749, 0.0080329813, 0.0674688667, -0.0219812281, 0.0820651948, 0.0351334251, -0.0505121835, -0.2005653679, -0.0568242222, -0.1125598475, -0.0345712006, -0.1193564683, 0.0398101360, -0.1962821335, 0.0156262815, -0.0095110144, 0.1457539797, 0.0428455733, -0.0499826707, 0.0693400428, -0.0719184056, 0.0224733148, -0.0055111540, 0.0152559150, -0.0244465023, 0.0143379737, 0.0688602775, 0.0042568292, -0.0514976792, -0.1382294446, -0.0240405351, -0.0952123702, -0.0942535549, -0.0097945705, -0.1077342555, 0.0364784226, 0.0732280686, -0.0000564876, 0.2038423121, -0.0323681720, 0.0808556005, 0.1420290470, 0.0690373555, 0.0256248415, -0.0881413445, 0.0966050252, 0.0478768237, -0.0629705414, 0.1072890908, -0.1517205685, 0.0252898280, -0.2534901500, 0.1175650582, -0.0039531784, 0.0784422904, 0.0789601952, 0.0744470805, -0.0468317196, 0.0852567405, 0.0827802047, -0.1843270510, 0.1967321187, 0.1446213275, 0.1515382975, 0.0776605457, 0.0458589196, 0.0089107445, -0.0746641681, -0.0564373173, -0.0000033195, -0.0689903647, -0.0419243798, -0.0734643340, 0.0575311817, 0.0423484258, 0.0091747968, -0.0682575107, 0.0283446889, -0.0491927862, 0.0321117155, -0.0176178310, 0.0879805833, -0.0186037440, -0.0229272991, 0.0650870129, 0.0409011804, -0.2023119777, -0.0550853461, 0.0192727614, 0.0111482358, -0.1065232977, -0.0010172675, -0.1134643629, 0.0300845057, -0.0736072361, 0.0295679457, -0.0026234593, -0.1070317477, 0.1153893992, 0.1497416943, -0.0081454674, 0.0019065752, 0.0576687939, -0.0006684199, -0.0514366962, 0.0939552709, 0.0324587412, -0.0475145727, 0.1973749399, 0.0777487904, -0.0705851540, 0.1565547436, 0.1914643198, 0.0128312269, 0.1206676960, 0.0261878986, -0.0683336258, -0.0169934388, 0.2188244611, -0.0986235812, 0.1334691942, 0.0154185258, 0.1093263105, -0.0246383734, 0.0037631032, 0.0435562432, 0.0690828860, 0.1013299078, 0.0943401679, -0.1818689555, -0.0751706958, -0.0837362558, 0.0972778797, -0.0833737552, -0.1023848429, -0.0490172580, -0.1361576468, -0.0950611085, -0.1411256492, 0.0194333550, 0.0003032921, 0.0602209605, -0.0179636534, 0.1296847165, -0.1990173310, -0.0493122712, 0.0247069206, -0.0856050700, 0.1093696132, -0.1639315784, 0.0001040199, -0.0445147678, -0.0873541236, 0.0325612836, -0.1773364991, 0.0054358887, 0.0993604213, -0.1071560234, -0.1320363134, -0.0673021302, -0.0126523953, 0.0052835504, 0.0475568399, 0.0679932162, 0.0182319656, -0.0032598828, -0.0076613319, -0.0371842831, 0.0799998716, 0.0684373379, -0.0167271234, -0.0482054874, -0.0553688817, 0.0822004676, 0.0265599433, 0.0699565485, 0.0634459257, -0.1130974814, -0.0137881031, 0.0257318206, -0.0386744067, 0.0845170468, 0.0642700419, -0.0797768608, -0.1365908533, -0.0431319587, -0.0998849571, 0.0422256552, 0.2076633424, 0.0469367169, -0.1641269624, 0.0245308429, -0.0007875414, 0.0797908679, 0.1593804061, -0.1374047101, 0.0228064004, 0.1505772620, -0.0040788623, 0.0340496674, -0.0558593087, -0.1386023611, -0.0679650381, 0.1500747800, -0.0982840061, -0.0674279854, -0.1224126667, -0.1177903041, 0.0154251875, 0.0441713370, -0.0207114778, 0.0693182945, -0.2228164673, -0.0173664335, -0.0429675691, -0.0520483814, -0.0941995084, -0.1870665252, -0.0997950658, -0.1975591034, 0.1298418343, 0.1752438694, -0.0729989111, -0.1207440197, -0.0276614875, 0.0372870639, -0.0528852157, -0.0616901815, -0.1317975670, -0.0311948005, 0.0062513505, 0.1389283389, -0.0354579911, 0.1523913741, 0.0594133623, 0.1615021378, -0.0470691249, 0.0366515294, 0.0560030229, 0.1325254142, -0.0504627898, 0.0318719149, -0.1717463434, -0.0230644550, -0.2179717720, 0.0547214523, 0.0147486925, 0.0160211958, -0.1357184649, -0.0090872552, -0.0458514057, -0.0627360344, 0.0264552739, -0.1527535617, 0.0310606938, 0.0933363140, -0.0535986088, 0.0453687981, 0.1624258161, -0.1375204474, -0.0871051475, -0.0158370174, 0.1268592626, -0.0261162762, 0.0001850887, 0.0370316729, 0.0401855521, 0.0555166677, 0.0614634864, -0.0830434710, 0.1340356767, 0.0586926155, 0.0566424318, -0.0046658996, -0.1084528118, 0.0061551584, 0.0096524749, -0.0389953367, -0.0345411785, 0.0317070186, 0.1925718039, 0.1195476353, -0.1304314882, 0.0012093730, -0.0388034843, 0.0557350442, -0.0185903348, -0.0027450547, 0.1010614932, -0.0017701176, -0.1070185229, 0.0966953412, -0.0572049394, -0.0007876473, -0.0875261202, -0.0147657739, -0.0074201170, 0.0697832927, 0.0050989613, -0.0698581338, 0.0979337692, -0.0088141747, -0.0605081469, 0.1171220094, 0.0601437725, 0.0866117477, -0.0467714965, 0.0052654501, -0.1664687842, 0.0081412150, -0.0795145482, -0.1102079898, 0.0508610047, 0.0205217116, 0.0609842911, -0.1063499600, -0.0719140470, -0.0030199345, 0.1375117153, -0.0725692883, 0.1442707777, 0.1088149846, 0.0833090842, 0.1721973121, -0.0199977569, -0.1057309806, 0.1123113707, 0.0198848508, -0.0773082376, -0.0036210208, 0.1967521310, -0.0844552889, -0.1495435536, 0.2608068287, 0.1517397612, -0.0348702744, 0.0655110702, -0.0246923547, -0.0537061170, -0.0230272040, 0.0691814795, 0.0546005145, -0.0637189597, 0.0783263370, 0.1909986138, 0.0706494600, -0.1272060722, 0.0975983590, 0.0798830613, 0.0989623591, 0.2326245308, 0.1959630698, 0.0016039369, -0.1564690918, -0.0083921915, -0.2133214474, -0.2068820149, 0.1797549874, -0.0002473124, -0.0576452985, 0.0519498996, 0.1310659945, 0.0558811016, 0.0933000669, -0.0106994463, 0.0438551791, -0.1282420754, 0.1594948173, -0.2135758400, -0.0155712906, -0.1482905149, 0.0967856497, 0.0189066622, 0.0964618325, 0.0748014972, 0.0057926341, -0.0443572477, 0.0337509215, -0.0431141295, 0.0964507610, 0.0806545988, -0.0221516620, -0.0691589639, 0.0499629602, 0.0608746707, -0.0048472327, 0.1060761660, -0.2062961161, -0.0990082398, -0.0119435787, 0.0920358896, -0.0314001217, 0.0832274705, -0.0571570471, 0.0487010255, 0.0444093272, 0.0052266773, 0.2164511830, -0.1374354213, 0.1405858546, -0.0079573756, 0.0159119666, 0.0946671516, 0.0043778382, -0.0256702825, 0.0897352099, -0.0164709650, 0.0127367163, 0.1405550241, 0.0067697079, -0.0305219702, -0.0944405422, -0.0810483545, -0.1434877962, 0.0790936798, 0.1594368070, -0.1453965753, 0.0022548253, 0.0222457461, 0.0426381677, 0.0467637777, 0.0490445048, -0.1183731928, 0.1366004497, 0.0533679351, -0.0015505385, 0.0544956066, 0.1467755884, 0.0517316535, 0.1080108732, 0.0504897237, -0.0270593297, 0.0270096157, 0.0751422793, 0.0530747436, -0.0453365333, -0.1134325564, 0.0024473560, -0.0831565708, -0.0104198037, -0.1177297607, 0.0151894623, -0.1314792484, -0.0153534366, -0.0064433203, 0.0999538973, 0.0000000000, -0.0923547223, 0.1554524899, -0.0673274100, 0.0989007056, -0.0112408875, 0.0132386284, -0.0381860957, -0.1222989559, 0.2177561373, 0.0199481454, 0.1289160550, -0.1313881427, 0.0927333683, 0.0853974596, 0.0472380258, 0.0370456353, 0.0476775281, 0.1039341912, -0.1183163524, 0.0005008378, -0.0893313363, -0.0777385384, -0.0957676470, 0.1809401065, -0.0062963436, 0.0254745334, 0.0948423967, 0.0370267667, -0.1405574828, -0.1960311532, -0.0624151267, -0.0448482558, 0.1044794321, 0.2141724974, 0.1020626575, 0.1059280485, 0.0787782893, 0.0493030548, 0.1747480035, 0.0278834943, -0.0477757528, -0.0585609153, 0.0426891968, 0.1616492867, 0.0861407295, 0.0630735531, -0.0127253141, 0.0855350867, 0.1352114379, 0.0113140279, 0.0032943403, 0.0527875833, -0.2067989707, -0.0872117430, 0.1349677891, 0.1188531071, 0.0889501795, 0.1473812312, 0.1211232021, -0.0192605481, -0.1450946182, 0.1855471432, -0.1921111643, -0.0034700381, -0.0635277852, -0.2041070014, 0.1647212058, -0.0200794134, 0.0606355108, 0.0075712968, 0.1024969891, 0.0062578334, 0.0599529892, 0.0366099179, -0.0633429959, -0.0162733085, 0.2331283689, -0.1614704877, -0.1141703427, 0.0762572214, -0.1234384030, 0.1553836614, 0.1100314483, 0.1178398579, -0.1276863217, 0.1158573031, -0.0675031692, 0.1906244606, -0.0200232416, 0.0784076080, -0.0450114682, 0.0838308632, -0.0602507964, -0.0336886868, -0.0861825347, 0.0127566839, 0.0603394844, 0.0334599353, 0.0937577635, -0.1119261459, 0.1738935262, 0.0585618727, -0.0157712512, -0.0857974961, 0.0942554995, -0.0317240357, 0.1352216452, -0.0858433172, -0.0551123656, -0.0583340526, -0.0123067824, 0.0809975564, 0.0424996056, -0.1770529449, -0.1179054081, 0.1943479776, 0.0863703638, -0.1047207490, 0.0334334858, 0.0415997915, -0.1921473444, 0.1543335319, 0.1630831659, 0.1897842437, 0.0459708311, -0.1140424088, 0.0232381001, -0.0726167709, -0.0170706604, -0.0275738630, -0.1254482716, 0.2406725585, 0.0906439051, 0.1644108891, -0.0058106300, 0.0247989595, 0.0900637135, -0.1219578981, 0.0076730265, -0.2240202725, -0.0626862571, -0.0427000597, -0.0061313123, 0.1176100001, -0.0335513689, 0.0738213658, -0.0424231589, 0.0571673214, 0.1293531507, -0.0376830138, -0.2405593991, -0.1036567017, 0.0767658502, -0.1513556540, -0.0528276712, 0.1007254198, -0.0154503956, -0.0435978100, -0.1438747793, -0.1204718426, -0.0685952827, -0.0810838118, -0.0929995999, 0.0268604141, -0.0964863077, -0.1880330145, 0.0331983455, 0.0202840827, 0.1565956175, -0.1219052449, 0.0334580615, -0.1396384239, -0.0677066818, 0.0325676352, 0.0245908592, -0.0067475992, 0.0743803009, 0.1522689909, 0.1621599346, -0.1694107205, -0.1997122169, -0.0406851657, 0.0970778540, -0.1399399489, 0.0000047678, 0.1113546789, -0.0641368777, -0.0612127259, 0.1259975284, -0.1260709763, -0.0000000000, 0.0024316234, -0.1409352571, 0.2372652143, -0.0447643027, 0.0122697512, -0.0574620664, -0.0384289548, 0.1277776361, 0.2003472745, -0.0035842466, 0.0267819297, 0.0133126993, -0.1011462361, -0.0821611509, 0.0002367260, 0.0246289074, 0.1053730249, -0.0931781754, -0.0691710860, 0.0400633849, 0.1321392953, 0.0546277873, -0.0648621917, 0.1133848205, 0.0849718451, -0.0627522394, -0.1697023809, 0.1227012351, 0.1231818721, -0.0201741830, -0.1536444426, 0.2367423326, -0.0037391644, 0.1123411804, -0.0874360576, 0.1902437806, -0.1018660814, 0.1559967101, 0.0892180353, -0.0051296954, -0.0796399787, 0.0169221051, 0.1536851674, -0.0321641937, -0.0856579468, -0.0537816025, 0.0400586464, 0.1798910648, 0.0561038293, -0.1790921539, 0.0923231319, 0.0698661655, 0.0229614470, -0.0528221019, -0.0324508026, -0.0000000000, -0.1363648921, -0.0002066377, -0.0111998329, -0.0303216428, -0.1746543646, 0.0301516932, 0.0387576148, -0.1152464449, -0.0030597851, -0.0979049057, -0.0176359527, 0.0911699682, 0.0786973238, -0.0452370010, -0.1580672115, 0.0665228143, 0.1836947203, -0.0357762091, -0.0521729849, 0.0608294792, -0.2304541171, 0.0190078393, -0.0000967548, -0.1594437659, 0.1082431599, -0.1337843984, 0.1185470670, 0.0854542702, -0.0119437436, -0.0948815346, -0.1690915227, -0.0034595917, -0.0560185462, 0.1281333119, -0.1270714253, -0.1336446255, -0.0092542339, -0.1519640982, 0.0968807489, 0.0941444412, 0.0357352123, -0.1230005696, -0.0299063176, -0.0024033722, -0.0526412316, -0.1257801205, -0.0259368606, 0.0323917158, 0.1973227561, -0.0135134347, -0.0112484451, -0.1052922234, 0.1836368591, 0.0181127153, 0.0171459392, 0.0089430790, -0.0286105536, 0.0048387176, 0.1140897572, 0.0415248014, 0.0302781276, -0.1308130473, -0.0087592490, -0.0583321825, 0.0030239830, 0.0222917162, 0.0305395033, 0.0629741102, 0.1808170974, -0.0699327886, 0.0647714213, -0.0121808248, -0.0116108898, -0.0041958899, 0.0833120048, 0.1189868301, -0.2158341408, 0.0294729006, -0.0758331642, 0.0824132785, 0.1239436343, -0.1011040881, 0.0370430872, 0.0231417511, 0.0049605155, 0.1637145281, 0.1225393713, -0.0763374791, -0.1785128713, 0.0431598686, -0.1184589490, -0.0649574772, 0.0359097570, 0.1174625233, -0.0102201970, -0.1747891456, 0.1215184033, 0.1086909547, -0.0916468203, 0.0028068926, 0.0497363359, -0.1484425664, -0.2029538751, -0.1627631336, -0.0927538350, -0.0439110100};
#endif

#endif
