//Numpy array shape [3, 3, 32, 32]
//Min -0.187745437026
//Max 0.196620851755
//Number of zeros 0

#ifndef W19_H_
#define W19_H_

#ifndef __SYNTHESIS__
conv2d_52_weight_t w19[9216];
#else
conv2d_52_weight_t w19[9216] = {0.0610811375, 0.0144310305, -0.0018387979, 0.0055222493, -0.0614896119, -0.0424424522, 0.0000000000, -0.0919460356, 0.0501685143, 0.0739176795, -0.0370406136, -0.0376865901, -0.1124006361, -0.0049098679, 0.1147592589, -0.0007657330, -0.0348865911, 0.1332712173, -0.0153648248, 0.0385551415, 0.0628308356, 0.0394259393, -0.0095555959, 0.0286770295, 0.0237770528, -0.0753326491, -0.0085409302, 0.1054691970, 0.0852222592, 0.0201636106, -0.0057755453, 0.0179625209, -0.0366633423, -0.0409479477, -0.0106210364, -0.0255262218, -0.1542354673, -0.0671808049, -0.0188779719, -0.0980308056, 0.0046385941, -0.0134495869, -0.0403043106, -0.0000003213, -0.0245827399, -0.0073480485, 0.0033539913, -0.0114358608, 0.1123229563, 0.0639260858, -0.0807961375, -0.0201129988, 0.0663147867, -0.0496672653, -0.0000002733, 0.0364716537, 0.0502595492, -0.0556414835, 0.0766503140, 0.0741279721, 0.0297675170, 0.0004603301, -0.0044151037, 0.0000000002, 0.0074276701, 0.0043247323, 0.0410891548, 0.0074003912, -0.0037358394, 0.0679661036, -0.0055680042, 0.0000000005, 0.0408433564, 0.0117923496, -0.0202205349, -0.0711672977, -0.0093949102, -0.0130910007, 0.0370794199, -0.0039626411, -0.0532758422, -0.0381620564, -0.0200115778, -0.0086036464, -0.0476459563, -0.1056785360, -0.0049823355, 0.0000026035, 0.0646019131, -0.0743683428, -0.0236963816, -0.0000346432, 0.0696253031, -0.0668317154, 0.0413106047, 0.0082533080, -0.0272459127, -0.0044036913, -0.0405427888, -0.0153275505, 0.0689849630, -0.0886810943, 0.0707218796, -0.0004905679, -0.0182541907, -0.0000601504, -0.0423617959, 0.0049157352, 0.0140831312, -0.0868293941, 0.0413910896, -0.0053595360, -0.0380476639, 0.0540477671, 0.0538445711, 0.0527291112, -0.0150273861, -0.0931165218, -0.0416975878, 0.0714297369, 0.1081900820, 0.1245536953, 0.0074510383, -0.0215734132, 0.0751094893, -0.0453677773, 0.0245420095, 0.0074099847, -0.0621905923, -0.0005220774, -0.0000265812, -0.0000000000, -0.0026844568, -0.0222379323, 0.0058322838, -0.0217755251, 0.0001691382, 0.0035557081, 0.0030051013, -0.0974371508, -0.0886088610, 0.0646644086, -0.0005076046, 0.0345718861, 0.0001189352, 0.0282945912, 0.0004941147, 0.0743108615, -0.0383349918, -0.0184765123, 0.0047144163, 0.0070662647, -0.0000001791, -0.0031981820, 0.0435246639, -0.0349550135, -0.0071296818, -0.0260748249, 0.0574731082, 0.0094694598, 0.0013573345, -0.1388396323, 0.0220156219, 0.0428852662, 0.0015282069, 0.0243802387, -0.0000000019, 0.0419288129, 0.0638246611, -0.0816334933, 0.0852899626, -0.0918171480, -0.1024746597, -0.0149670476, 0.0541524775, -0.0012279343, -0.0191715918, 0.0369674489, 0.0004091467, -0.0851290971, 0.0530207641, 0.1272270679, 0.0011550772, 0.0195625722, -0.1390738487, 0.0189341884, 0.1118082404, -0.0198914651, -0.0039596488, 0.0028045271, 0.0330150723, -0.0019238350, -0.0076471083, -0.0552989095, -0.0190663934, -0.0516231395, -0.0320320800, -0.1269197613, 0.0010113467, -0.0109203262, 0.0681300014, -0.0252242535, 0.1284996271, 0.0843513608, -0.0243511740, 0.0955556631, 0.0183069929, -0.0099981818, -0.0059100301, -0.0030133072, -0.0171012282, -0.1328932643, 0.1105209962, 0.0806634575, 0.0634384006, -0.0151286423, -0.0157211330, -0.0471978299, -0.0075608762, 0.0239825491, -0.0811222270, -0.0002225277, 0.0045166104, -0.0294704977, 0.0640101135, -0.0862127393, -0.0459260158, 0.0041691097, -0.0451773889, 0.0908949375, -0.0535645932, -0.0556785166, 0.0130263465, 0.0242143087, 0.0193996318, 0.0527019016, 0.0038863374, -0.0080016144, -0.0462272316, -0.0680738688, 0.0506996326, 0.0055092853, 0.0256955605, 0.0371034667, -0.0217890181, 0.0571492761, -0.0004099247, -0.0065071443, 0.0115449373, -0.0343792327, 0.0488806292, 0.0440616198, 0.1238922253, 0.0561717376, 0.0086525371, 0.0002101066, 0.0006093984, 0.0651605725, -0.0203185305, -0.0101797860, -0.0082626771, -0.1074807346, -0.0182325207, -0.0801179260, 0.1375978738, -0.0134005761, 0.0046656835, -0.0756625831, -0.0206257626, -0.0869712979, -0.0009336429, -0.0101839239, -0.0005913895, 0.0176498834, 0.0023967498, -0.0109029002, -0.0006001841, -0.0517193340, -0.0000000465, -0.0005107257, -0.0455825962, 0.0056833131, -0.1191287637, 0.0196694899, 0.0134950690, -0.0002586196, 0.0410520770, 0.0047021052, -0.0000673071, -0.0287210681, 0.0168437976, -0.1027906612, 0.0941102803, 0.0016040483, -0.0200980045, -0.0189549346, -0.0791616738, -0.0035960695, 0.0906430408, 0.0654252619, 0.0382912830, 0.0002100685, 0.0333102532, -0.0001429527, 0.0091368146, 0.0695652440, -0.0300110318, 0.1275026649, -0.0758706406, 0.0000000000, -0.0159584116, 0.0003984153, 0.0484005921, 0.0794387609, -0.0080993623, -0.0447698161, -0.0426723436, 0.0246265009, -0.0079292292, -0.0007342475, 0.0055170413, 0.0533196405, 0.0000000000, -0.0643364415, 0.0525582209, 0.0058455574, -0.0019863441, -0.1065904349, -0.0018038540, -0.0623125508, -0.0885764435, 0.0042495304, -0.0012851947, -0.0339341238, 0.0001056734, -0.0261543691, 0.0783943608, 0.0269198921, 0.0584882759, 0.0946697667, -0.0004559386, 0.0782793537, -0.0013445852, 0.0131663792, 0.1315641254, 0.0098514389, 0.0842040628, 0.0018682107, 0.0657288209, -0.1012506634, 0.0091203405, 0.0219887979, -0.0545318760, 0.0067163906, -0.0008900073, -0.0141711663, 0.0847077593, -0.0416725986, -0.0322536901, 0.0177506525, -0.0221399888, -0.1073349640, -0.0288306717, 0.0370916761, -0.0232323371, -0.0567290708, -0.0468297638, 0.0091692833, -0.1056511626, 0.0002890094, -0.0000813158, 0.0415498726, 0.0011482444, -0.0070208530, -0.0101893684, 0.0084050810, -0.0009201312, 0.0250255540, 0.0175795704, 0.1662304848, 0.0472255833, 0.0235687662, -0.0283008125, -0.0125546735, 0.1092684716, 0.0206909887, -0.0245733708, 0.0685461685, 0.0604733340, -0.1167153120, 0.0016082538, 0.0036502320, 0.0204870123, 0.1031457335, -0.0331165195, 0.0000001467, -0.0932512432, -0.0070405588, 0.0571734197, -0.0186374877, 0.0625585914, 0.0192188043, 0.0357575268, 0.1540343016, -0.0139868790, 0.0681023747, 0.0189757794, 0.0188262220, 0.0018420339, 0.0232639350, 0.0287112333, 0.0934287831, -0.0649541169, 0.0714048371, -0.0183582604, 0.0000000001, -0.0288494173, -0.0083455406, -0.0142098460, -0.1471893787, -0.1191349104, 0.0449389070, 0.0840632841, -0.1276079714, -0.0511986762, 0.1090574116, -0.1094070077, 0.0045250589, -0.1059114859, -0.0300655365, -0.0038769760, -0.0007043906, 0.0713520348, 0.0528442562, -0.0618022420, 0.1156863347, 0.0687728524, -0.0383411571, 0.0010779724, 0.0077292607, 0.0439782664, 0.0326566771, -0.0916044340, -0.0028283512, 0.0165506676, -0.0000000421, -0.0548968203, -0.0000054289, -0.0087579293, -0.0271557793, -0.0278303754, -0.0024599496, -0.0739932656, 0.0050213109, 0.0442066975, 0.0168667845, -0.0309642237, 0.0000017449, 0.1153150499, -0.0310952663, 0.0037640932, -0.0716082677, -0.0254722610, 0.0365586542, 0.0208415873, -0.0300496817, -0.0245520920, 0.0000002060, -0.0436109006, -0.0004587306, 0.0164316799, 0.0001227168, 0.0005802590, 0.0026579674, -0.0101279868, -0.0816144198, -0.0513960868, -0.0532380864, 0.0030077419, -0.0620020293, -0.0557497442, 0.0932190567, -0.0457889140, -0.0547508560, -0.1012346521, 0.0001144574, -0.0134613728, -0.0637737960, 0.1336423606, 0.0188877936, 0.0055583613, -0.0152940415, 0.0132992305, -0.0019479374, -0.0308132172, -0.0319350660, -0.0000024714, -0.0000571828, 0.0030464602, -0.0447849706, -0.0370868705, -0.0559174083, 0.0000962924, -0.0730611160, 0.0195735488, 0.1323899478, -0.0159389544, -0.0508431084, 0.0220701266, 0.0000000495, 0.0522659011, -0.0074772141, -0.0039363643, -0.0035016045, 0.0304262862, -0.0000000193, 0.0335126817, 0.0383083113, 0.0021914016, 0.0000000248, 0.0003930501, 0.0000034349, 0.0595539622, 0.0058379937, -0.0535702780, -0.0634380803, 0.0621268041, 0.0381747670, 0.0598049983, 0.0361603051, 0.0331914909, 0.0168135241, -0.0000217790, -0.0676499978, -0.0000000007, -0.0100313202, -0.0240495335, 0.0164811853, 0.0057695261, 0.0434229784, 0.0186464526, 0.0406206660, -0.0422168300, -0.0000000000, -0.0000000041, -0.0022153517, -0.0142118121, 0.0114273764, -0.0778071508, -0.0162752960, 0.1140757576, -0.0005460636, -0.0011905420, 0.0000007273, -0.0001128682, 0.0221382752, 0.0061317696, -0.0208732728, 0.0011607527, 0.0066176606, -0.0380414389, -0.0150186252, 0.0162740890, -0.0000051483, -0.0000000000, -0.0618567653, -0.0000501106, -0.0013145268, 0.1289286017, -0.0385861881, -0.0739453733, 0.0593709238, 0.0189706832, 0.0334252901, -0.0272586159, -0.0011676440, -0.0000184325, 0.0172072090, -0.0958993137, -0.0763989836, -0.0472544692, 0.0070404233, -0.0443538092, -0.0899599716, 0.0289709885, 0.0368423052, 0.0397695042, 0.0067704408, 0.0400947817, -0.1174795181, -0.0724686682, 0.0000737416, 0.0333207548, 0.1597618610, 0.0204552151, -0.0745616332, -0.0330565684, 0.0096690990, -0.0309329331, -0.0392036401, -0.0995240882, -0.0772304833, -0.0147430394, 0.0501056388, 0.0494285934, 0.0275739376, -0.0304971337, -0.0422822423, 0.0119991126, 0.0179087259, -0.0371272080, -0.0620855018, -0.0639262795, -0.0001882191, 0.0086882785, -0.0439041257, 0.0172911771, 0.0145700881, -0.0127106356, -0.0645966530, -0.0583291836, 0.0339487195, 0.0229224153, -0.0120553579, -0.0240342338, -0.0006574037, 0.0028836541, -0.0044036126, 0.0612489730, -0.0397045948, -0.0460260436, 0.0758713782, 0.0290919207, -0.0091112992, 0.0355508290, 0.0324679129, 0.0404912643, -0.0088270642, -0.0190535635, 0.0263518579, 0.0203150157, -0.0002370117, -0.0778814703, 0.0188263189, 0.1101911888, 0.0484924354, 0.0286338143, 0.0024258262, -0.0705759898, 0.0686102584, 0.0154705467, -0.0035781616, -0.0765866861, 0.0415274054, 0.0982974991, 0.0002383215, 0.0372560285, 0.1537543237, -0.0091779092, 0.0165182389, -0.0013927141, -0.0476515442, 0.0000000002, -0.0319396295, -0.0485467799, -0.0072827600, 0.0409827083, -0.0824581906, -0.0901229233, -0.0186651964, 0.0002660611, 0.0341588371, -0.1114036292, 0.0282620881, -0.0521815307, 0.1105588153, -0.0676598176, -0.0227143522, 0.0456969365, 0.0234550424, 0.0483305939, -0.0547645241, 0.1472491771, -0.0277995169, -0.0045223045, 0.1004848927, -0.0397382602, 0.0062237494, 0.0799290985, -0.0412614755, 0.0763281137, 0.0191416722, -0.1232493594, 0.0012290338, -0.0406609438, -0.0030677533, -0.0447397456, -0.0583305098, 0.0208238550, 0.0369726866, -0.0316873230, -0.0224652532, -0.0534760393, 0.0211851764, 0.0004913270, 0.1314212233, -0.0569419190, 0.0944453627, -0.0026227173, 0.0036462541, 0.0825076029, 0.0694578737, 0.0447394177, -0.0416119806, 0.0633264259, 0.0119952485, 0.0190143269, 0.0086968318, 0.0047581312, -0.0774608776, 0.0620509461, -0.0209992956, -0.0185973924, -0.0717561319, -0.0011634438, -0.0506403223, -0.0397078283, -0.0470253602, -0.0192412846, -0.0324998014, 0.0985678285, -0.0686045215, 0.0918277577, 0.0495217331, 0.0043890234, 0.0000000000, -0.0423533320, 0.0136088254, -0.0606756397, -0.0726534203, -0.0243945867, -0.0491254702, 0.0130804544, 0.0347420536, -0.0628311634, -0.0663701668, -0.1408412457, 0.0898258463, 0.0836010724, 0.0086577544, -0.0265577286, -0.0402314775, -0.0040874486, 0.0358554870, -0.0982680023, 0.0569490306, 0.0168449990, 0.0259138830, -0.0239186063, -0.0000009795, 0.0861012861, 0.0016985468, 0.0841658041, 0.0262796991, -0.0606422164, 0.0226664767, -0.0651979372, 0.0012375832, 0.0477195568, -0.0569536090, -0.0362157300, 0.0179293752, -0.0077250837, 0.0416613035, -0.0040463181, -0.0000304337, -0.0133833969, -0.1209382266, -0.0717205331, 0.0821826607, 0.1136518419, 0.0311956350, -0.0272275209, -0.0068688323, -0.0116270054, -0.0134187080, -0.0134228272, -0.0483853407, 0.0536005311, -0.0940624326, 0.0069323448, 0.0357658193, 0.0042635975, -0.0000000000, -0.0100837629, 0.0084734913, -0.0256130416, 0.0111460816, 0.0176762193, -0.0062201475, 0.0104483329, -0.0347095057, -0.0212876927, -0.0000000000, 0.0541548319, 0.0513337664, 0.0200447720, 0.0238707494, -0.1057125479, 0.0211411659, 0.0993063673, 0.0272299498, 0.1075389087, 0.0447015278, -0.0082541620, 0.0729839057, 0.0214289296, 0.0209101494, 0.0427314863, 0.0451539233, 0.0008517713, 0.0449834727, -0.0027797241, 0.0292841904, 0.0008625151, 0.0163533948, 0.0829271004, 0.0023449450, -0.0954846367, -0.0312220324, 0.0363896266, -0.0008759885, 0.0328868814, -0.0074611949, 0.0062692449, -0.0225519370, -0.0128879044, 0.0931782424, -0.0117280083, -0.0051126387, -0.0664567798, 0.0113250455, -0.0131075531, -0.0000057109, -0.0082723834, -0.0979401842, -0.0211583488, -0.0000000000, -0.0032888711, 0.0049976106, 0.0035178170, -0.0031746002, -0.0608149506, 0.1562842578, 0.0421139188, 0.0053427625, -0.0727842301, -0.0387025513, 0.0185660124, -0.0503691435, 0.0003689101, 0.1384193003, -0.0095766662, 0.0126069756, 0.0731524602, -0.0479822904, 0.0139868399, 0.0014545138, 0.0222638361, -0.0197500456, -0.0092208572, -0.0043964079, -0.0849172771, 0.0641619191, 0.0229756422, 0.0000000000, 0.0037608356, 0.0164441075, -0.0372814834, -0.0634441450, -0.0794809982, 0.0000126885, -0.0000013880, -0.0103852777, 0.0034981114, 0.0038397377, -0.0111374520, -0.0290692430, -0.0192896053, 0.1098104045, -0.0386953130, -0.0002023635, -0.0035295263, -0.0344097205, -0.0117666163, -0.0016585928, -0.0069421814, 0.0503625646, 0.0398633480, -0.0128902337, -0.0199879464, 0.0709995851, -0.0140447598, 0.0007321004, 0.0295023303, -0.0448386818, -0.1502420455, 0.0444828346, -0.0602142327, -0.0647547394, -0.0382131748, -0.1095975190, 0.0058455989, -0.0038504715, 0.0145300012, -0.0768690035, 0.0250031482, 0.1421199143, -0.0000001049, 0.0004462289, -0.1092780232, -0.0023073049, -0.0059415377, 0.0152606666, 0.0195404403, 0.0145404730, 0.0208865646, -0.0003798229, 0.1039530411, -0.0652064532, -0.0700980723, -0.0224675909, -0.1046918333, 0.0869520977, -0.0243088268, -0.0159136988, -0.0056566224, 0.0984740183, -0.0910910517, -0.0480452962, -0.0301388670, 0.0421389192, -0.0049736304, 0.1102100313, 0.0280038044, 0.0449972115, -0.0452039540, -0.0665456057, -0.0289559551, 0.0568921641, -0.0092418054, 0.0090357419, -0.0649074018, -0.0000000000, -0.0321206897, 0.0333876759, -0.0368917920, 0.0311704539, -0.0063264226, 0.0154690873, 0.0128534194, -0.0760378465, -0.0297334846, 0.0558580942, 0.0517989211, 0.0119921276, -0.0330214836, 0.0151170865, 0.0000005384, -0.0336575732, -0.0798778310, 0.1197027117, 0.0052599325, -0.0692524165, -0.0815461874, -0.0026828926, -0.0315720662, 0.0902128071, -0.0453830697, 0.1264001578, 0.0532477871, 0.0777559429, 0.0085687824, 0.0154003790, 0.0773058087, 0.0416762605, 0.0494642332, 0.0224392954, 0.1194780096, 0.0007506312, -0.0022571112, -0.0301429611, -0.0298920665, -0.1075484976, -0.0341493748, 0.0279802922, -0.0792500228, -0.0662270114, -0.0154341888, -0.0094999559, 0.0458861180, -0.0707233697, -0.0578283109, 0.0436979271, 0.0167533346, -0.0304535273, 0.0208680499, 0.0042156340, 0.0338219665, -0.0297323093, -0.0063155596, -0.0096593527, 0.0490297973, -0.0523358025, -0.0764736980, 0.0000125505, -0.0242517553, -0.0915056542, -0.0337090380, -0.0025759549, 0.0311296061, -0.0233446769, -0.0160937347, 0.0170463081, -0.0052076662, -0.1453668028, 0.1052523553, 0.0685048327, 0.0508212931, -0.0689956024, 0.0028753211, 0.0410010256, -0.1267936081, 0.1436713040, 0.0999767184, 0.0431116261, 0.0527143329, -0.0811639801, 0.0335750245, -0.0462531596, -0.0156900026, -0.0263442714, 0.0363253281, -0.0444662794, -0.0405405462, 0.0230890177, 0.0274945367, -0.0247395299, 0.0665996745, 0.0875748396, 0.0973714888, -0.0938673690, 0.0148187866, 0.0224305447, -0.1095397770, 0.0179132484, 0.0272487737, 0.0226938911, -0.0000000000, -0.0012593439, 0.0710415617, 0.0361007191, -0.0196003783, 0.0291654896, -0.0498066247, 0.0448572747, 0.0819567740, 0.0393201187, -0.0411555693, 0.1000319794, -0.0293597113, -0.0067948233, -0.0800934210, -0.0199616775, 0.1011456251, -0.0367353596, 0.0379745774, 0.1317049265, -0.0171322990, -0.0004352083, 0.0802246556, 0.0450851917, -0.0702549890, 0.0858503431, -0.0003037403, 0.0536758117, 0.0515080541, -0.0000000000, -0.0089877294, -0.0167277697, 0.0499843322, -0.0144806076, 0.0036104533, 0.0214402694, 0.0000000000, -0.0091394279, -0.0330014452, -0.0802506655, 0.0357716344, 0.0415685438, 0.0337622277, -0.0000000000, -0.0514641963, 0.0882373601, 0.0515264310, -0.0261262581, 0.0014287274, -0.0064139371, 0.0388531275, -0.0263562910, -0.0000000104, -0.0002838871, 0.0753083825, -0.0189844612, 0.0188937038, -0.0608001538, -0.0160780735, 0.0540859513, -0.0018652141, 0.0342172906, -0.0128401704, -0.0062242430, 0.0005102920, -0.0192212909, -0.0934472531, -0.0534239449, 0.0568930767, -0.0115902750, 0.1056396291, 0.1171433702, 0.0042093019, -0.0171715170, -0.0045939144, 0.0228566974, 0.0027330236, -0.0866392031, 0.0174655840, 0.0663330033, 0.0248461645, 0.1439091563, 0.1845794916, -0.0000425055, 0.0594617315, -0.0661181659, -0.0124678239, 0.0210363530, -0.0955316573, -0.0085713649, -0.0049491506, -0.0345436260, -0.0000000000, -0.0006634030, 0.0035295584, 0.0077978252, -0.0165994428, -0.0071231434, -0.0363279656, -0.0189777073, 0.0349773541, -0.0299845356, -0.0080925813, -0.0018508066, -0.0021897163, -0.0467100739, -0.0921150967, -0.0632357895, -0.0000000008, 0.0001301117, 0.0191830322, 0.0165770408, 0.0055547524, 0.0027435876, -0.0089993253, 0.0578009151, -0.0047938493, -0.0092902137, 0.0532248095, 0.0015799991, -0.1035115644, 0.0423613004, -0.0090043265, -0.0395935886, 0.0662960932, 0.0057753483, -0.0749466717, 0.0032369376, -0.0073418650, -0.1481582820, 0.0232913215, 0.0113618374, 0.0001925952, 0.0650213808, 0.0475100428, -0.0656360090, -0.0363159478, 0.0560341552, -0.1494933665, -0.0515805408, 0.0271135159, 0.0204351414, 0.0630650520, 0.0847647414, -0.0522405915, 0.1395690143, -0.0186827090, 0.0315399505, 0.0608010925, 0.0065038158, -0.0338748805, -0.0234930608, 0.0250922311, 0.0044334112, 0.0005208072, 0.0349461399, 0.0040017040, -0.0000005653, -0.0149935363, -0.0265024360, -0.0553069040, -0.0860498026, -0.0296342727, -0.0014810230, -0.0292880200, -0.0130337179, 0.0365201384, -0.0190440062, 0.0152940061, -0.0135169448, -0.0755169988, -0.0541503653, -0.0636830851, 0.0618216135, -0.0118124047, 0.0482538454, 0.0531738140, -0.1067553386, -0.0822476745, 0.0648879558, 0.0791692212, 0.0738082081, 0.0049172458, -0.0040327422, -0.1172568500, 0.0135851372, 0.0000209896, 0.0319391116, 0.0389123634, -0.0000038708, -0.1046973392, 0.0663641542, -0.0250164364, 0.0637934729, 0.1118582785, 0.0110635487, -0.0083196703, 0.0218019802, 0.0773680881, -0.0264572967, -0.1046655402, -0.0492664129, -0.0000000000, -0.0254645329, -0.0169797298, 0.0000847623, 0.0284055434, -0.0465885028, 0.0036231156, 0.0113714589, -0.0042767045, 0.1363866180, 0.1477622986, -0.0395368449, 0.0961011425, 0.0984280929, 0.0926214829, -0.0573648363, 0.0168617852, 0.0008820974, 0.0751491040, 0.0137580149, 0.0000000099, -0.0754922703, 0.0064732088, -0.0622739047, 0.0295538027, 0.0135576576, -0.0154390410, 0.0281426683, 0.0324047059, -0.0305195041, 0.1537766606, 0.0005231103, 0.0455261692, -0.0626910329, 0.0000000000, -0.0335688740, 0.0762137249, -0.1436337829, -0.0626492351, 0.1209476739, -0.0244457889, 0.0531693585, -0.0010378938, 0.0582976528, -0.0129594877, 0.0132982023, -0.0197992697, -0.0137891658, 0.0355385430, -0.0006010490, 0.0419793651, 0.0019730013, -0.0309660994, 0.0112215756, -0.0335254334, -0.0734638423, 0.0067058369, -0.0330908373, 0.0862196907, 0.0943970159, 0.0414394364, 0.0031571421, 0.0973233432, 0.0661387667, -0.0010016614, -0.0274413899, 0.0000745949, 0.0771585256, -0.0538036674, 0.0648458973, -0.0100353621, 0.1523254365, -0.0019836223, -0.0001002354, 0.0656742156, 0.0114454161, 0.0190365184, 0.0926403329, 0.0692793578, -0.0173106994, 0.1497966647, -0.0319566391, 0.0190237015, 0.0255380366, -0.0674113259, -0.1020475626, 0.1221016422, -0.0000179667, -0.0505584888, -0.1374185979, -0.0035567409, 0.0118028186, 0.0097894482, 0.0349346995, -0.0641024411, 0.0125449421, -0.0907418802, -0.0934880301, -0.0358317122, -0.0833278745, -0.0000000000, 0.0877180696, 0.0360906981, 0.0310450755, -0.0121744033, -0.0871322006, 0.0242863316, -0.0066068023, 0.1634384245, -0.1254907697, 0.0315880887, -0.0676233172, 0.1061108783, 0.1134114712, -0.0396329686, -0.0031247321, 0.0510654747, -0.0053205853, 0.0116470745, -0.0087598115, -0.1272992939, -0.0900860801, 0.0840710625, -0.0203688163, 0.0016993743, 0.0498508662, -0.0568752177, -0.0410264470, -0.0426062942, 0.0732331052, -0.0299773682, 0.0940534845, 0.0801130459, -0.0604258180, -0.0161130074, -0.0297384858, 0.0983441621, 0.0084375106, 0.1182172075, 0.0510608368, 0.0476919375, -0.0594978370, 0.0028039329, -0.0609874092, -0.0214427114, 0.0519830249, 0.0439588316, -0.0040540765, 0.0105952155, -0.0295462999, -0.0425092913, -0.0048879995, 0.0972150788, -0.1599740088, 0.0327391550, 0.0592582896, 0.0593682006, -0.0374309942, 0.0049667880, 0.0000384176, -0.0529819429, 0.0709495023, -0.0276111215, -0.0091924882, 0.0159073062, -0.1007040143, 0.0537813753, -0.0086763324, -0.0829787701, 0.0024147604, 0.0096065970, 0.0398627371, 0.0048941909, 0.0180043988, 0.0205582213, 0.0039700437, 0.1352973580, -0.0508993492, 0.0650763810, 0.0000000554, 0.0054277615, -0.0122664804, -0.1003753617, -0.0324442089, 0.0151074193, -0.1179515496, -0.0669204071, 0.0235487372, -0.0131404931, 0.0414491333, 0.0033423009, -0.0198716205, 0.1150401235, -0.0495294966, -0.0426655747, 0.0036567352, -0.0328910165, -0.0485465266, -0.0627370924, 0.0960194394, -0.0626261979, 0.0474366881, -0.0454678759, -0.0016530950, 0.0716404170, 0.0002103010, 0.0231076553, 0.0100971246, -0.0769081116, 0.0004056646, 0.1322670430, 0.0078538628, 0.0121727558, -0.0075415070, 0.0546614639, 0.0070092413, -0.0564787909, 0.0000692553, 0.1102100313, 0.0000000000, -0.0776553079, -0.0112987421, -0.0532748699, -0.0634525567, 0.0580019951, -0.0610341616, 0.0647442415, 0.0405108929, -0.0000000692, 0.0747550577, -0.0676451549, -0.0682530403, -0.0311479438, 0.0327482298, -0.0263731834, 0.0366217867, -0.1050417423, -0.0859141350, -0.0374919064, 0.0573838614, 0.0415048487, -0.1338424832, -0.0603067428, 0.0119987270, 0.0338647291, 0.0329176299, 0.0339347757, 0.1178598925, -0.0146125918, 0.0169325266, 0.0165452715, -0.0292405393, -0.0135116000, 0.0078026839, -0.0432923138, -0.0769856125, -0.0118696885, -0.0000000000, 0.0015699064, 0.0008852102, -0.0427223742, 0.0000007117, 0.0237724651, 0.0838635042, -0.1200049967, -0.0005553641, 0.0140699046, -0.0138094472, -0.0154868206, 0.1072813570, 0.0638766438, 0.0831519812, 0.0632722005, 0.0001051748, -0.0020965100, -0.0000000190, 0.0041863639, 0.0417611226, -0.0093195587, -0.0004382083, 0.0378592536, -0.0843386427, 0.0918529481, 0.0025529980, -0.0210321657, 0.0382206365, 0.0999670699, 0.0036066673, -0.1027706489, -0.0490907989, 0.0370995030, 0.0133009218, 0.0408854447, -0.0290428847, -0.0504353940, -0.0328910984, -0.0000000044, -0.0057742619, -0.0656969026, 0.0120951533, 0.0025105050, -0.0004422605, 0.0000229121, 0.0871693268, -0.0287027191, -0.0083198287, 0.0141412383, 0.0000018925, -0.0000181589, -0.0066924556, -0.0003153794, -0.0118173771, -0.0429713055, 0.0540884845, 0.0482614376, 0.0000004139, 0.0041309553, 0.0028475835, 0.0146066202, 0.0014544296, -0.0628781915, -0.0170448404, 0.0017152413, -0.0038627025, -0.0973256007, 0.0000000000, -0.0332582183, 0.0548529513, -0.0570746697, 0.0200294554, -0.0069816629, -0.0346788354, 0.0418695845, -0.0852350369, 0.0063025719, 0.0146679617, 0.0153888604, -0.1123755574, 0.0036037667, -0.0000018196, -0.0344904885, 0.0043335548, -0.0380906984, -0.0499525703, 0.0047502606, 0.0000104054, -0.0026731021, -0.0118455347, 0.0731095076, -0.0590267740, -0.0987909064, 0.0083578005, -0.0026095770, -0.0464801155, 0.0252474174, -0.0781155825, -0.0714523196, -0.0232036076, 0.0025800564, 0.0932603404, -0.0264879856, -0.0835389122, -0.0015249208, -0.0093967514, -0.1713102907, 0.0391832739, 0.0985225961, -0.0013325748, 0.0076268450, 0.0136825377, 0.0612750687, -0.0039114123, 0.0006353891, -0.0399481729, -0.0187622160, -0.0902708396, -0.0749324635, -0.0090098921, -0.0112356497, -0.0554588065, 0.0506697521, -0.0226079579, 0.0034803795, -0.0338872336, 0.0742052794, 0.0132598598, 0.0541760959, -0.0206005350, -0.0001027209, 0.0336475857, -0.0301724151, 0.0402783975, -0.0649632439, -0.0368159190, -0.0003651981, -0.0275626518, -0.0971419588, 0.0182324667, -0.0510228202, 0.0089456839, 0.0431323647, 0.0075347973, 0.0134034511, -0.0121306013, -0.1427326798, -0.0001466609, -0.0098220548, -0.0213409197, -0.0099015627, 0.0131484950, -0.0000000008, -0.0795143843, 0.1178052798, -0.0124454955, 0.1288133562, 0.0178402513, -0.1290277392, -0.0506886356, -0.1202605814, -0.0173408315, -0.0149492221, 0.0768524408, -0.0544700399, 0.0092382235, -0.0625506267, 0.0187055953, 0.0504919142, 0.0154716205, -0.0967611000, -0.1038967371, 0.1019079462, 0.0122967707, -0.0246258676, -0.0056261085, 0.0000000000, -0.0230351798, 0.0291718952, 0.0030136986, 0.0024200119, -0.0235880986, -0.0069106705, -0.0995560288, -0.0115892012, 0.1108631268, -0.0341038667, 0.1209099665, -0.0155628556, -0.0627652034, 0.0609394014, 0.0538996719, 0.0004950182, -0.1097871363, -0.0258899257, 0.0192513000, -0.0060338038, 0.0497044474, -0.0225673188, -0.0475955531, 0.0790035203, -0.0013974387, 0.0060077249, -0.0367920958, 0.0514943972, 0.0394550599, -0.0086722448, 0.1385001987, 0.0685676038, 0.0015806665, 0.0076666931, 0.0094044218, -0.0386835374, 0.0131709343, -0.1129178926, 0.0137982043, 0.0405368768, 0.0000004662, 0.0629489645, 0.0025557966, 0.1144385487, 0.0399589278, -0.0034174754, 0.0737723783, -0.0034031416, -0.0638186634, -0.0792382583, 0.0873879790, -0.0932786912, -0.0969874039, 0.0560545959, -0.0031223553, -0.0863122642, -0.0789522901, 0.0413819663, -0.0930186734, 0.1477831602, 0.1070033386, 0.0391189307, 0.0696688816, 0.0896588340, -0.0000279231, -0.0076961648, -0.1179532036, -0.0383958742, 0.0116200922, 0.0473719053, -0.0398711823, -0.0698581859, 0.0017007601, -0.0835418627, -0.1437205970, -0.1286626458, 0.0009253518, -0.0134652425, -0.0764364898, 0.0108780600, -0.0370367467, 0.0444024876, -0.0787110329, 0.0135389613, -0.0340871215, -0.0465073511, 0.0273027327, 0.0757390186, 0.0005168761, -0.0013906260, -0.0922147930, 0.0549588986, 0.0619628280, -0.0000835855, 0.0115379607, -0.0227354448, -0.0201360080, -0.0009984559, -0.0292936843, -0.0276534874, -0.0055326866, -0.0314161703, 0.0156282820, -0.0013967115, 0.0078786546, -0.0307057239, 0.0098579274, 0.0402894132, -0.0083428239, 0.0914883614, 0.0892237052, -0.0557887070, -0.0048058201, -0.0030825539, -0.0258690417, -0.0000005041, -0.0309001915, 0.0515782051, -0.0040974114, 0.0000000079, -0.0558791682, 0.0006905737, -0.0413471684, 0.0826678053, 0.0329700820, -0.1411264986, -0.0000000000, 0.0545525402, 0.0040703029, 0.0268054996, -0.0412144363, -0.0283400007, 0.0076024309, -0.0391362458, 0.0363597088, 0.0205079019, 0.0846615508, 0.0622789450, -0.0371499062, 0.0524698570, -0.0972584710, 0.0946795046, -0.0368954800, 0.0231717713, -0.0034817019, 0.0265286211, 0.0797763690, -0.0774852782, 0.1246823221, 0.0219952539, -0.0000321237, -0.0042594606, 0.0080720522, -0.0370986871, 0.0424498282, 0.0017049438, -0.0159021914, 0.0002441206, -0.0083310334, -0.0609971918, -0.0129402075, 0.0747392997, -0.0063290633, -0.0111618517, -0.0178268850, 0.0420383550, -0.0972468555, -0.0388639309, -0.0091833705, -0.0191271473, 0.1187886968, 0.0451325029, 0.0612496473, -0.0275837928, -0.0646472797, -0.0208039321, -0.0905923843, -0.0997129977, -0.1473924816, 0.1287274510, 0.1462618411, 0.0226708092, -0.0039496240, 0.0000076863, 0.0951578394, -0.0685216635, 0.0000482115, 0.0090063279, 0.0607786365, -0.0637825355, 0.0274529196, 0.0024787888, -0.0315481685, 0.0598035492, 0.0104811303, -0.0284801815, 0.0038151459, 0.0000000001, 0.0229777414, -0.0007805279, -0.0164904799, -0.0285292380, 0.0486436076, 0.1474895924, -0.0000024490, 0.0776446536, -0.0039748130, 0.0131188380, -0.0054971348, -0.0040314845, -0.0348801650, 0.0171636865, 0.0315986797, 0.0196017660, -0.0718941167, -0.0061135348, 0.0127644632, -0.0279568788, 0.0012886215, -0.0369248576, -0.0000113761, -0.0840115547, 0.0000004807, -0.0195863303, -0.0009371811, 0.0008996588, 0.0873057246, 0.0006659643, 0.0001603764, 0.0948609188, -0.0015761699, -0.0157735124, -0.0631741732, -0.1329609305, -0.0230666921, 0.0629614070, 0.0936258584, 0.0259626079, 0.0095005399, -0.0297382455, -0.0768157542, 0.0519721620, 0.0109089613, -0.0141015602, 0.1011275053, -0.0004966357, 0.0282075293, -0.0031884846, -0.0212988667, -0.0651491657, 0.0111921653, 0.0256278720, 0.0347565822, 0.0235530883, -0.0648951605, -0.0229899362, -0.0045349463, -0.0993601754, 0.0108295949, -0.1028454080, 0.0000000000, 0.0674888790, -0.0658749565, 0.0189513024, -0.0057074651, 0.0230448283, 0.0847692937, 0.0787924901, 0.0113791311, -0.0038428872, 0.0070267306, 0.0361720771, -0.0078428360, -0.0183088277, 0.0118054999, -0.0543238297, 0.0392087735, -0.0423429236, 0.0744878054, 0.0739181489, 0.0133353630, -0.0038367517, 0.0481367856, 0.0741124973, 0.0225824211, -0.0357947573, -0.0291264504, -0.0271721464, -0.0205885600, -0.0035796887, -0.0266952794, 0.0000525636, -0.0006035588, 0.0225585923, -0.1233214214, -0.0201062635, 0.0451672114, 0.0054285550, -0.0356598422, 0.0523735993, 0.1402078569, -0.0281549655, -0.1322259605, -0.0000347833, -0.0283503365, -0.0967093185, -0.0076444363, -0.1193876714, -0.0064735888, -0.1035283506, 0.0653956980, -0.0092378547, 0.0002451561, -0.1662487686, -0.0130675714, -0.0477521680, -0.1207903326, -0.0480457135, 0.0529798418, 0.0363130160, 0.0000136464, -0.0419697091, -0.0717984512, 0.0012049198, -0.0000000052, 0.0551585332, -0.0576444417, -0.0052959290, -0.0000000000, 0.0643426478, 0.1441995054, -0.0047919704, 0.0036299820, 0.0034727128, 0.1132992581, -0.0274119619, 0.0256104246, -0.0097813569, 0.0761074200, -0.1052114218, 0.0698572472, 0.0114134084, -0.0579111800, -0.0400739238, -0.0066107670, 0.0782871097, -0.0599008501, 0.0802143440, -0.0884241238, -0.0021154445, 0.0054028425, 0.0000000000, 0.0591683537, -0.0000000000, 0.1212519258, -0.0276351664, -0.0761917830, -0.1398707628, 0.0527835116, 0.0165327210, -0.0053970902, -0.0735284314, 0.0213243049, -0.0623653829, -0.0655756593, 0.0325940847, 0.0407798663, 0.0042507709, -0.0554497279, 0.0007415819, -0.1542638987, -0.1348951012, 0.0519940108, 0.0651608631, -0.0259611551, -0.0880594701, -0.0476147234, -0.0010952227, 0.0567569509, 0.0568171665, 0.0567819215, 0.0008168354, 0.0083685489, 0.0056337616, -0.0002111168, 0.0512755997, -0.0236978363, -0.0116026057, -0.0002768566, 0.0552032962, 0.0129329646, 0.0081108008, -0.0242007598, -0.0103151193, 0.0629112199, 0.1433487386, 0.0118414629, -0.1507637203, 0.0446225740, 0.0437994972, 0.0573495924, -0.1342996806, 0.0233971346, -0.0340411104, -0.0915806442, 0.0204001330, -0.0251916144, -0.0071446211, 0.0000011593, -0.0296649132, 0.0011476061, 0.0978278592, -0.0559364781, -0.0020444223, -0.0442965478, -0.0005044027, 0.0126495231, 0.0496197306, 0.0180108212, -0.0554909334, 0.0146398507, -0.0257795975, -0.0382121168, 0.0180466343, 0.0034700998, 0.1006305218, 0.0195470303, -0.0001042216, 0.0507050566, -0.0483129248, 0.0127217704, -0.0205067694, -0.0000000028, -0.0070944717, -0.0756249055, -0.0716893226, -0.0173743889, 0.0481797308, -0.0543769896, -0.0639034733, -0.0029549289, 0.1375091225, 0.0031137122, 0.0584398061, 0.0014917530, 0.0224879365, 0.0377252623, 0.0918813273, -0.0484250151, 0.0065014637, 0.0112844426, -0.0103688827, -0.0336519890, 0.0839073807, -0.0257441923, 0.0179224070, 0.0579977892, 0.1021559909, 0.0055850004, 0.1610479951, -0.0003019622, 0.0495574623, 0.0527075380, -0.0229513235, 0.0454475395, -0.0089066746, 0.0635625944, 0.0056668492, 0.0370214991, -0.1339185983, 0.0785568506, 0.0611510351, -0.0609185882, -0.0041171340, -0.0312649272, 0.0084492583, -0.0906689912, -0.0274424516, 0.1042752787, -0.0261321198, -0.0312154312, 0.0123407412, 0.0158578902, 0.0003585927, -0.0709520429, -0.0002385947, -0.0375118069, 0.0190689135, -0.0016206389, 0.0705373883, 0.0157022849, -0.0448579565, 0.0291809179, -0.0886109695, -0.0220107753, -0.0065144473, 0.0484869592, -0.0007365822, 0.0152578121, 0.0002975376, 0.0300281364, 0.0301760845, -0.0058015478, 0.0722920075, 0.0000048525, 0.0265048500, -0.0096684583, 0.0000000011, 0.0812070966, -0.0013136572, 0.0397620164, 0.0899920538, -0.0048388657, -0.0140183177, -0.0459969714, -0.0059401901, -0.0285164416, 0.0243054144, -0.0281671342, 0.0759948269, -0.0607458204, -0.0333464108, 0.0225499086, 0.0095246714, -0.1528124958, -0.0891980603, -0.0645749122, 0.0249540620, 0.0107864086, -0.0008634226, 0.0358139239, -0.0000066746, -0.0622098856, 0.0384787992, -0.0224703103, 0.1616386622, 0.0019619104, 0.1028752029, 0.0187890064, 0.1008467004, 0.0038160160, -0.0264899228, 0.1337836236, 0.0640606955, -0.0163845606, 0.0278834309, -0.1070731357, 0.0183573179, -0.0448683091, -0.1080266237, -0.0637251735, 0.0202311072, -0.0355055593, -0.1019966006, 0.0497603267, -0.0780994818, 0.0060751252, -0.1646899432, 0.0270250663, 0.0584692545, -0.0006341346, -0.0065827835, -0.0233047921, -0.0176799390, 0.0442135446, -0.0168611016, -0.1455604434, -0.0208150484, -0.0119972378, 0.0753074512, 0.0383734033, -0.0074004042, -0.0080278665, -0.0289060734, 0.0813846290, -0.0007689016, -0.0581530780, -0.0387069844, -0.0139552383, -0.0012430145, -0.0011220659, 0.1229710504, -0.0007299286, -0.0058283713, 0.0987385437, 0.0812444836, 0.0091000339, -0.0020453567, -0.0238925703, 0.0864412040, 0.0144394925, 0.0315691866, 0.0576774254, 0.0618160218, -0.0672626570, 0.0179881342, -0.0983396620, -0.0793798268, -0.1404119283, 0.0327251703, 0.0026518148, -0.0369418859, 0.0244661700, 0.0218824614, 0.0107536810, 0.0810656399, -0.0093069039, 0.0070352107, 0.0030775110, 0.0148859490, 0.0282530487, 0.0571188889, 0.0112277335, -0.0848644599, 0.0349149816, 0.0515729375, -0.0015728364, 0.1629067659, 0.0340198278, 0.0786531270, -0.0163265560, -0.1468324810, -0.1018535718, -0.0654869974, -0.0002028595, -0.0116546908, 0.0022799054, 0.0357920192, -0.0023428688, 0.0933974609, 0.0294231828, -0.0648365915, 0.0403859988, -0.0778268576, 0.1857353002, 0.0572279692, 0.0122447396, -0.0280833058, -0.0478031375, 0.0479010828, 0.0235163625, -0.1035117283, 0.0213823076, 0.0129318442, -0.0345570482, 0.0218069628, 0.1098321378, -0.0054809586, -0.0310022589, -0.0933603942, -0.0296654813, 0.0349955074, 0.0092810094, -0.0352269784, 0.0056374907, -0.0962136239, 0.0070648226, -0.0567407608, 0.0196814481, -0.0431213528, 0.1319734603, -0.0140358014, -0.1078872830, 0.0495704338, 0.1120005846, 0.0992199555, 0.0994493738, 0.0862981603, 0.0428611897, -0.0834373012, -0.0451053306, 0.0000726080, 0.0357173458, -0.0115200356, -0.0344466008, 0.0108052883, -0.0016474267, -0.0001940078, -0.0721136555, 0.0173801724, 0.0396961793, -0.0029652594, -0.0512361377, -0.0079334592, 0.0365682654, 0.1248316988, -0.0123191560, 0.0000092166, 0.1263682544, -0.0323585458, 0.0156101938, -0.0011580663, 0.0539135411, 0.0000021983, 0.1628578007, 0.0288769063, -0.0180242155, 0.0815691352, -0.0048020883, 0.1091383398, 0.0105981212, -0.0103009082, 0.0309113842, -0.0041578542, -0.0572092868, -0.0000000000, -0.0066459849, 0.0950663239, -0.0710673854, -0.0477700271, 0.0105967121, -0.0593598224, -0.0201115422, 0.0720824227, 0.0028673483, -0.0602688678, 0.0966573954, -0.0883239210, -0.0280612018, 0.0004593745, 0.0137986746, 0.0281851366, 0.0813262835, 0.0064920327, -0.0469374768, -0.0728787556, -0.0140973264, 0.0016871990, 0.0106718540, -0.0007883915, 0.0105840815, 0.0355709568, -0.0044709258, -0.0577569269, -0.0799473226, 0.0681184754, -0.0027848668, 0.0789656341, -0.0134338597, 0.0324570425, -0.0046859416, -0.0229648724, 0.0637361407, 0.0200245511, 0.0947684199, 0.1354729086, 0.1878056079, 0.0763783827, 0.0057774018, -0.0219874121, -0.0226777866, -0.0237776171, 0.0115403058, 0.0000036040, 0.0138677740, -0.0164338388, -0.0571017526, 0.0861719474, 0.0583627820, 0.0421034619, 0.0694333911, -0.1053971723, -0.0259277429, -0.1515948623, -0.0371448882, -0.0458606593, 0.0127884625, -0.0270133521, 0.0000000000, -0.0399519205, 0.0722360834, -0.0486057512, -0.0032324528, -0.0401118286, 0.0907973275, 0.0064628855, -0.0053960993, 0.0363959968, 0.0846779868, -0.0913030282, -0.0768026412, -0.0500527918, 0.0225390196, -0.0014006317, -0.0215354692, -0.0497789308, 0.0411612242, -0.1106019691, -0.0418710411, -0.0418585129, 0.0002458541, 0.0323006734, 0.0001213029, -0.0108089596, -0.0025300565, 0.1470049322, -0.0014130898, -0.0379424915, -0.0132574840, 0.0140869245, 0.0000033091, -0.0567165837, -0.1079713479, 0.0167604182, 0.0153894043, 0.0967401788, 0.0310258139, 0.0217592977, 0.0128114177, 0.0288028847, 0.0280489828, 0.0990143046, 0.1033973321, -0.0797532648, 0.0009831258, 0.0672412440, -0.0232893061, 0.0701806322, -0.0355271921, 0.0000005580, 0.0162917692, -0.0000000063, -0.0000000000, -0.0328712240, -0.0020961878, -0.1315815896, -0.0040642931, -0.0227773562, 0.0105790049, 0.1039989516, 0.0016676370, 0.0013030506, 0.0261474866, 0.0002129229, -0.0161348749, 0.0507482029, -0.0466474704, -0.0225303657, 0.0130235450, 0.0013825489, -0.0228297655, -0.0201487578, 0.0623998456, -0.0713915527, 0.0693185404, -0.0000000000, 0.0410407335, -0.0104538696, -0.0004631176, -0.0337207317, -0.0282460600, 0.0288226511, 0.0533466823, -0.0383495465, 0.0014429452, -0.0004107533, 0.0581843629, 0.0115680294, 0.0932413414, -0.0033684720, 0.0961149186, -0.0467638150, 0.0126357572, 0.0661825985, -0.0000000083, -0.0010615311, 0.0399905518, 0.0030926652, -0.0169898756, 0.0053369435, 0.0376700908, 0.0007846620, -0.0059832507, -0.0523957200, -0.0382330120, -0.1056564599, -0.0030542752, -0.0301393159, -0.0300442018, 0.0152049512, 0.0058518415, -0.0405263565, 0.0002714141, 0.0010849749, 0.0208380055, -0.0019645775, -0.0246655326, -0.0347707383, 0.0008170698, 0.0044700992, -0.0002797049, -0.0000056621, -0.0995722860, -0.0164086055, 0.0703652054, 0.0011353224, 0.0018112778, 0.0057001240, -0.0063832919, -0.0001375660, 0.0044816444, -0.0972864181, 0.0197600592, -0.0002582163, 0.0002217793, -0.0129410084, -0.0263457093, -0.0044506863, -0.0099526159, -0.0577158071, 0.0335387215, 0.0168209877, -0.0082181580, 0.0191479065, 0.0000000035, -0.0566521473, 0.0223209765, 0.0000103026, -0.0422163308, -0.1028952450, -0.0091346912, 0.0198792852, 0.0000045001, 0.0115799336, 0.0325872041, -0.0296826717, -0.0290898886, 0.0097884489, 0.0166853052, -0.0691422001, 0.0108702546, 0.0100297900, -0.0611833818, -0.0067880293, -0.0365249105, 0.0447082184, -0.0226238128, -0.0291088466, 0.0827769190, 0.1070860401, -0.0873185843, -0.0598737411, 0.0665265098, -0.0198349785, -0.0042301761, 0.0227257423, -0.0116222613, -0.1000792310, 0.0180058368, 0.0273355953, -0.0968383029, -0.0453905836, 0.0310568735, -0.0167104192, 0.0264313370, -0.0367517695, 0.0378940552, 0.0546982959, 0.0313130952, 0.0503510945, -0.0000906521, -0.0164201800, -0.0863191113, -0.0021032344, -0.0658905506, 0.0709280819, -0.0008003499, -0.0694417506, -0.0206841640, 0.0742063150, 0.0137152551, 0.0766240284, -0.0586700775, 0.0069516860, -0.0198108777, -0.0004694517, -0.0155728199, 0.0205238909, -0.0253088456, 0.0032406845, 0.0564389415, -0.0525260270, -0.0020840252, -0.0236209109, 0.0825620368, -0.0848096237, -0.0532423854, -0.0324013792, 0.1008396745, -0.0992628261, 0.0377872624, -0.0205326080, -0.0421842635, 0.0957159698, -0.0283182338, -0.0103337951, -0.0181681290, -0.0401320048, 0.0826078951, 0.0214253105, 0.0278563537, 0.0552904084, -0.0061812382, -0.0631523207, -0.0910346359, 0.0179589596, 0.0066541457, -0.0196016375, 0.0784240514, 0.0031185756, 0.0022205843, 0.1478788257, 0.1172859222, 0.0504983291, -0.1357244849, -0.0169312321, 0.0437588580, -0.0717953146, -0.0145659558, 0.0814286694, 0.1455834210, 0.0774749890, 0.0198671222, -0.0170462541, -0.0179896634, -0.0435854569, -0.0197063033, -0.0273253266, -0.0244544372, 0.0360929929, 0.0430561416, 0.0259012878, -0.0884046629, -0.0562033243, -0.0585893728, -0.0108498251, -0.0037545799, 0.0905482024, 0.0861513242, -0.0015823138, 0.0000169706, 0.0348074101, -0.0000000000, 0.0158923753, 0.1097507030, -0.0609717518, 0.0999306887, 0.1799887568, 0.0160834864, 0.1031796858, -0.0899905339, -0.0546507575, -0.0036814914, -0.0600241572, -0.0377747789, -0.0494391881, -0.0085634524, -0.0081546456, -0.0256022979, 0.0224868432, 0.0646756068, -0.1092997268, -0.1339863688, -0.0136348065, -0.1010350436, 0.1055794433, 0.0521519631, 0.0019224230, -0.0359762162, -0.1118114665, 0.1044455916, 0.0018902507, -0.0001542574, -0.0008695379, -0.1185826585, 0.0141264154, -0.0040986785, 0.0998886302, 0.0148271648, -0.0308195259, -0.0015866596, 0.0282557420, -0.0113069071, 0.0639474615, 0.0574028604, 0.0136630628, -0.0470785089, -0.0689123794, -0.0678721890, 0.0515531674, -0.1338616312, -0.0305346008, 0.0073829726, 0.0745730773, 0.1110018864, 0.0000000000, 0.0346948653, -0.0465406589, -0.0350701436, 0.1423534155, 0.0210921746, -0.0268793702, 0.0129075237, 0.0032763958, -0.0026688033, -0.0627720729, 0.0471933968, -0.0132678337, 0.1462118477, 0.0570996441, -0.0321801305, -0.0302936211, -0.0000000119, -0.0013829104, -0.0192843918, -0.0784005299, -0.0059043784, -0.0302805305, -0.0386359505, -0.0216682646, -0.0416817740, 0.0268587917, 0.0485419221, -0.0581397787, 0.0063775014, 0.0673161596, 0.1087503135, -0.0227008332, -0.0000000000, 0.0001966380, -0.0129025495, -0.0103698913, -0.0001581361, 0.0305768177, -0.0004099900, -0.0266847555, -0.0251089148, -0.0000692431, 0.0002399909, 0.0020048756, -0.0212410428, 0.0650883317, 0.0388093628, 0.0736435428, 0.0780230090, 0.1340396553, -0.0213581566, 0.0093234191, 0.0009567270, -0.0646234080, -0.0457052067, -0.0222799685, -0.0000639175, -0.1067058295, 0.0649958625, 0.1322407722, 0.0119513916, 0.0298622716, 0.0231095944, -0.0287708789, 0.0276376866, -0.0884950832, 0.0414098650, 0.0266973451, 0.0468437709, -0.0916226953, 0.0234700944, -0.0012484358, 0.0000142793, -0.0681451634, -0.0994437113, 0.0556043535, -0.0017550562, -0.0145923551, 0.1145379096, -0.0583979189, 0.0458041914, 0.0035183674, -0.0920552760, -0.0314583145, 0.0700557157, -0.0005495966, -0.0760858059, 0.1358905882, -0.0001302453, 0.0108274044, -0.0553447902, -0.0095582446, -0.0011740295, 0.0223827679, 0.0462993272, 0.1174551398, -0.0100691644, 0.0311051663, -0.0615943223, 0.0616677739, 0.0016889770, -0.0250416156, -0.0416478440, 0.1019105837, -0.0001240548, -0.0262340438, -0.0604493022, -0.1353010535, 0.0995903164, -0.1032076180, -0.0099652382, -0.0290283989, 0.0271811504, 0.0264326800, 0.0649221018, -0.0569224916, -0.0586493090, 0.0119999303, 0.1070555225, 0.0822047293, 0.0556286871, -0.0015421911, -0.0287813749, 0.0175429936, -0.0140947010, 0.0076944656, 0.0304200407, -0.0049804901, -0.0000536507, 0.0093171159, -0.0722045377, -0.0420277566, -0.0000002027, -0.0339880101, -0.0677953809, -0.0188788939, -0.0351974182, -0.0008549209, 0.0178231560, 0.0033451335, 0.0286537111, 0.0005223237, -0.0076818699, -0.0187797472, 0.0164280925, -0.1324720383, -0.0536840782, 0.0674144253, 0.0088112056, 0.0691290125, -0.0301721282, 0.0086297961, -0.0518457554, -0.0005476353, 0.0414076112, -0.0955266804, -0.0001233958, -0.0189742912, 0.0456938446, 0.0000000019, 0.0231457371, -0.0695930719, 0.0039527402, 0.0467713177, 0.0429897271, 0.0232258569, 0.0219630878, -0.0373120159, -0.0417595617, 0.1045763269, -0.0196475703, -0.0249366816, -0.0370356031, -0.0171892010, -0.0722777918, -0.0348939374, -0.0000018361, -0.0387233943, -0.0270571522, -0.0273274444, -0.0118686575, 0.0050459229, 0.0039675273, 0.0601038672, 0.0017000511, -0.0340667628, -0.0473697260, -0.0041754744, -0.0000635422, -0.0616698451, -0.0352041721, -0.0003307312, -0.0258161966, 0.0297496561, 0.0738390386, -0.1265949160, 0.0866148472, 0.1448858231, -0.0319738649, -0.0061928933, -0.0647425056, -0.0011683310, 0.0000123468, 0.0347757973, 0.0079850508, -0.0025658847, -0.0215830263, 0.0218247101, 0.0029935620, 0.0048874719, 0.0055834195, 0.0151973711, -0.0006718827, -0.0092249196, 0.0452449583, -0.0047560884, -0.0440335833, -0.0957861245, -0.0071546510, -0.0178077612, 0.0129701886, -0.0091034090, 0.0601300113, 0.0882681981, -0.0107969502, 0.0920351073, 0.0007753678, 0.0042439178, -0.0455760956, 0.0180213470, -0.0051992508, -0.1398923844, -0.0198138151, -0.0188154764, -0.0000613154, -0.0525617003, -0.1239118949, 0.0215365719, -0.0736453906, 0.0844402313, -0.0042911517, 0.0628729165, 0.0468227528, 0.0535822213, -0.0746329948, 0.0856281891, 0.0492228195, 0.0418204069, -0.0016947571, -0.0249786787, -0.0344592221, 0.0498564281, -0.0036316416, -0.0169256888, -0.0106310677, -0.0146306166, -0.0798811093, 0.1110760048, 0.0269663744, 0.1277844012, -0.0741407126, 0.0109335054, 0.0935858935, 0.0000000000, -0.0000000002, 0.0926220119, 0.0320950449, -0.0068158503, 0.0911147892, 0.0515728295, 0.1133639663, 0.0263754483, -0.0364304967, 0.0038398330, 0.0307616610, 0.0416200943, -0.0304458626, -0.0095653757, -0.0417226106, -0.0879379883, 0.0804346055, -0.0811361820, -0.0101689501, -0.0247539151, -0.0013203395, 0.0322083123, -0.0239095576, -0.0701285303, 0.0710492134, 0.0215313919, -0.0805325732, 0.0648456067, -0.0066799754, 0.0180815887, 0.0309879016, -0.0484371409, 0.0015880850, -0.0264251959, 0.1018843874, 0.0007988012, 0.0004467969, -0.0116980560, -0.0204033274, 0.0246565901, 0.0189863089, -0.0832364038, 0.0391752794, -0.0793316215, -0.0230473056, -0.0808954909, -0.0175035466, -0.1490423083, -0.0042814719, 0.0000865531, -0.0073210937, -0.0050522280, -0.0464372784, -0.0269504040, -0.0080265235, -0.0000802697, 0.0025118140, 0.0043545133, -0.0275476631, -0.0205480438, 0.0000000000, 0.0232424326, 0.0049539823, 0.0272987913, 0.0157913901, 0.0262487903, 0.0077738171, 0.0666185245, 0.0519381985, 0.0000000015, 0.0107653951, 0.0537896343, 0.0202401932, -0.0921234339, -0.0146233272, -0.0100419838, 0.0011233382, -0.0979694873, 0.0002248287, -0.0227959659, 0.0047301026, -0.0139478687, -0.0408782326, 0.0704016760, -0.0179003887, -0.0283874553, 0.0036551608, -0.0108798118, -0.0275700893, -0.0962255970, -0.0437814519, -0.0178976506, -0.0028633892, 0.0826761723, 0.0138725871, -0.0311631560, 0.0443061441, 0.0597642586, -0.0450249128, 0.0543560162, 0.0305808838, -0.0281611700, 0.0766782537, 0.0052676988, 0.0024755727, -0.0203495976, -0.0174819659, -0.0100140702, 0.0519539304, 0.1194930524, 0.0286142491, -0.0000100208, -0.0076779560, -0.0314689800, -0.0255737361, -0.0044379602, -0.0330796614, 0.0191226192, 0.0311475527, 0.0076798508, -0.0551995300, -0.0816422403, -0.0051067993, 0.0692347363, 0.0553227402, 0.0844469294, -0.0002864401, -0.0131631922, 0.0047587696, 0.0201785918, -0.0502658151, 0.0384337567, -0.0674783364, 0.0065551735, -0.0746946111, 0.0352912471, -0.0639173910, -0.1202895865, 0.0310873967, -0.0181291047, -0.0770653337, 0.0205569714, -0.0029390417, 0.0809027106, -0.0014746059, 0.0462477207, -0.0137879914, 0.0000000000, -0.0025352165, -0.0032023310, -0.0775251612, 0.0369649082, -0.0069714929, 0.0007785039, -0.0060519674, -0.0047181807, -0.0500349961, -0.0592786260, 0.0036033632, 0.0372067615, 0.0115118548, 0.0088363858, 0.0346246213, 0.0053039980, -0.0848882273, 0.0443798080, 0.0000016416, -0.0075975312, -0.0052328906, -0.0159105733, 0.0239039343, -0.0537187122, -0.0799122080, -0.0779115707, -0.1074269488, 0.0766555369, 0.0000906906, 0.0063651656, -0.0531416722, 0.0707460642, 0.0185420569, -0.0886557251, -0.0735991299, -0.0281059127, -0.0848360136, 0.0071181026, 0.0766445324, 0.0556077994, -0.0880010873, 0.0554790497, -0.0648946092, 0.1174624860, -0.0196978748, -0.0794219971, -0.0025733523, 0.0402105227, 0.0974308103, -0.0164286904, -0.0135343010, 0.0000000000, 0.0651804581, -0.1350043565, -0.0292898025, -0.0384934284, -0.1621661037, 0.0009759194, -0.0073186317, 0.0286790170, -0.0000000048, 0.0320211723, 0.0236715674, 0.0009452417, -0.0422967114, 0.0271366797, -0.1229823008, 0.0000636500, 0.0381572507, 0.0140278209, 0.0731902197, 0.0019812258, 0.0249050856, -0.0733715147, 0.0173894446, 0.0439563915, -0.0289379023, 0.0000771293, -0.0001143078, 0.0159766097, 0.0684203207, -0.1075645089, 0.0001033515, 0.0480119027, 0.0410565063, -0.0633693859, -0.0365699604, -0.0410085544, 0.0793573111, 0.0710766613, 0.0368160754, 0.0436680801, -0.0149675813, -0.1517259181, -0.0638170838, -0.0128042242, -0.1110419780, 0.0617466196, 0.0726673380, 0.0479136743, -0.0001096011, -0.0871523023, 0.0688524395, -0.0926311165, -0.0770618916, -0.0060921675, 0.0236950424, -0.0218261722, 0.0740920976, -0.0922472775, 0.0400592051, -0.0627947226, 0.0475199595, 0.0650752932, 0.0121822320, -0.0249600522, 0.0675425977, -0.0062573794, -0.0729995072, -0.0315491445, -0.0587533116, -0.0889300853, 0.0140535347, -0.0170269962, 0.0677393749, 0.0536556430, -0.0598943532, 0.0132534932, -0.0709350035, 0.0365632251, -0.0573849715, 0.0013448574, -0.0018480653, 0.0212623943, -0.0902779326, -0.0433387533, -0.0188917443, 0.0747387782, -0.0766700357, -0.0137396259, -0.0053414060, -0.0000407582, 0.0121436361, 0.0204560328, -0.0173682421, -0.0272755958, 0.0585640408, 0.0087708160, -0.0568501763, 0.0014183214, 0.0000000000, -0.0281204637, -0.0301199462, -0.0459445417, -0.0002780199, -0.0949916542, 0.0005106513, -0.0393686667, -0.0449650846, 0.0052522374, -0.0376593098, 0.0215179436, -0.0710392073, 0.0187894497, -0.0080722868, -0.0221677441, -0.0473611429, 0.0079799816, -0.1607415080, 0.0269630589, -0.0503390059, 0.1115009710, -0.0646343753, -0.0000015662, 0.0882166997, 0.0578869358, -0.0017074107, 0.0893647820, -0.1100944355, 0.0021150413, -0.0000065959, -0.0193221532, 0.0701312348, 0.0011350726, -0.1138864756, 0.0122493291, -0.0076227542, -0.0519879349, -0.0042773527, 0.0333605036, -0.0716758892, -0.0238272566, 0.1129535511, 0.0240681544, 0.0554433241, 0.1139715314, 0.0318794847, 0.0013224143, 0.0514242239, 0.1047162637, -0.0001305330, -0.0080839125, -0.0108188977, -0.1018239707, -0.0015736345, 0.1256394684, -0.0877891481, -0.0029598954, 0.0143323429, -0.0288527273, 0.0650386587, -0.0741660222, 0.0410303622, 0.0614476390, -0.0121895475, -0.1048786268, 0.0855959505, -0.1412620842, -0.0668424815, -0.0531830490, -0.0032443341, 0.0160412658, 0.0354464240, -0.0129983928, 0.0150840916, -0.1402201504, 0.0426952466, -0.0006132111, 0.0021600306, -0.0080035981, -0.1526279449, 0.0082509918, 0.0719146505, 0.0361767039, -0.1056889296, -0.0329929963, 0.0001834567, -0.0451996140, 0.0570220947, -0.0272062775, -0.0484134294, 0.1084139794, -0.0222266987, 0.0039843731, -0.0034691878, 0.0432022586, 0.0006084556, -0.0338546149, -0.0587766394, 0.0085364999, 0.0243542660, -0.0198415853, 0.0029585683, -0.0154100256, 0.0222230889, -0.1278050095, -0.0971016288, 0.0301709250, 0.0018336136, 0.0145601220, -0.0129005965, 0.0321452990, -0.0460940003, 0.0277387034, 0.0000000000, 0.0208817087, 0.0232652072, 0.0862333253, -0.0052124574, -0.0255676024, -0.0623815656, -0.0785205737, -0.0264580213, 0.0882614255, -0.0570654906, 0.0230964236, -0.0848512053, 0.0349427424, 0.0676878616, 0.0150521984, -0.0105507569, 0.0336740538, -0.0088659329, -0.0407169797, -0.0223180912, -0.0003985175, 0.0644169673, 0.0003057739, -0.0571746528, 0.0882057846, 0.1400613934, -0.0262615867, -0.1040439904, -0.0484070145, -0.0223029442, -0.0165985189, -0.0538999662, 0.0274306331, -0.0038955391, 0.0677726120, -0.0977834687, 0.0005613716, 0.1017764881, 0.1055589616, -0.0207829606, -0.0861897171, 0.0553214140, 0.0090280203, 0.0061595254, 0.1208417341, -0.0042677647, -0.0081630759, 0.0770402849, 0.0011376586, -0.0301047824, 0.0595811978, 0.0000000000, -0.0467097349, 0.0072260825, 0.0497878864, 0.0358218700, -0.0128205540, 0.0261792690, -0.0427865274, -0.0564982779, -0.0180143118, 0.0704239383, -0.0611555576, 0.0000000000, -0.0012645157, 0.0963760167, 0.0462518744, -0.0828342736, -0.0196507275, -0.0046752011, 0.0522957072, -0.0139962174, -0.0019591504, 0.0272730645, 0.0197795592, -0.0654977411, 0.0113647431, 0.0167267174, 0.0298891012, -0.0390331298, -0.0932053924, -0.0245346595, -0.0000008343, 0.0041184616, -0.0638042912, -0.0356104523, 0.0058215032, -0.0004468283, 0.0067085689, 0.0303176343, -0.0664110184, -0.0310907830, -0.0020020960, -0.0924432650, 0.0179410316, 0.0145473126, -0.1388888210, -0.0314428844, 0.0732513741, 0.0437421091, 0.0008147113, -0.0000000000, 0.0021845137, -0.1215211004, 0.0059331870, 0.0000000000, 0.0001753741, 0.0000000115, 0.1173825115, -0.0780726448, -0.0825706348, -0.0217107628, -0.0571786240, 0.0035386006, 0.1392219514, 0.0010091881, 0.0206014011, 0.0000000000, 0.0176605750, 0.0042666709, -0.0091637159, 0.0133938249, 0.0276623033, -0.0000962166, -0.0024750216, -0.0347203612, -0.1336978376, 0.0092883315, 0.0711314455, 0.0201453846, -0.0079162251, 0.0001379405, 0.0004504839, -0.0161025878, 0.0033580153, -0.0044854758, 0.0218222849, -0.0275061913, 0.0035371345, -0.0059119714, 0.0772749335, -0.0222271048, -0.0042117313, 0.0503734238, 0.0517771803, -0.0299615599, -0.0256052297, 0.0004140534, -0.0063759121, -0.0024006469, 0.0004837259, -0.0052065039, 0.0040654750, -0.0037506036, 0.1298698634, -0.0070180963, -0.0412940122, -0.0090416931, 0.0140495067, 0.0312918164, 0.0531623885, -0.0263487287, -0.0423123576, -0.0627180934, 0.0334616490, -0.0452121906, 0.0692576766, -0.0021814904, -0.0447687022, 0.0246768296, 0.0039119208, -0.0185960960, 0.0250897761, 0.0000000001, -0.0226550624, 0.0484550297, 0.0272186007, 0.0849259198, -0.0391938835, -0.0022704599, -0.0986585543, 0.0915630534, -0.0371003598, 0.0030320310, 0.0415332913, 0.0671199560, 0.0249461215, 0.0063607190, 0.0462622344, 0.0126119154, 0.0355434269, -0.0861563534, 0.0376821719, -0.0140598295, -0.0702983588, 0.0141331973, -0.1030941755, 0.0792101696, 0.0268041417, -0.0649063438, -0.0195756294, -0.1064172983, 0.0561733805, -0.0009691678, -0.0963715538, -0.0009505185, 0.0625742674, 0.0508327633, 0.0886549205, 0.0243427828, 0.0781802163, -0.0411884189, -0.0043886951, 0.0296539683, -0.0612248965, 0.0002708350, -0.0111020003, 0.0436558351, 0.0064777159, 0.0217453185, 0.0790339336, 0.0057594790, 0.0043290602, -0.0333209820, -0.0357783251, -0.0882745832, 0.0778861642, -0.0627886653, -0.0065174885, -0.0143088251, 0.0083650844, 0.0066339243, -0.0212010797, -0.0002842469, 0.0027727929, -0.0000000011, -0.0161048863, -0.0458959378, 0.0343718268, -0.0185859744, -0.0343289040, -0.0014420351, -0.0226579849, 0.0085248379, 0.0541304797, 0.0032173621, -0.0000000000, 0.0270727016, -0.1231105849, 0.0688215941, -0.0007994235, -0.0860457495, -0.0151475305, 0.0552746691, 0.0160182547, -0.0759992301, -0.1087453142, -0.0408131033, 0.1100326478, -0.0293672290, 0.0799057186, 0.0732029900, 0.0519864634, -0.0475129858, 0.1486775726, -0.0974354893, 0.0192136671, -0.0087098461, -0.0224647429, 0.0260206293, 0.0220583323, 0.0166538153, 0.0059068794, 0.0188899245, -0.0185730699, -0.0000041867, 0.0301883854, -0.0007210206, 0.0443699062, 0.1050070450, 0.0889181495, 0.0211058706, 0.0582094267, -0.1567453146, 0.0333436392, 0.0119474474, -0.0583214834, -0.0000444992, 0.0344031937, -0.0346981063, 0.1022879556, 0.0713534653, 0.0260653254, 0.0250464976, 0.1072244570, 0.0549927987, 0.0420735665, -0.0099388827, 0.0183880422, 0.0199777652, 0.0322066322, 0.0348012410, 0.0133739626, -0.0527973846, -0.1041214168, 0.0000018486, 0.1194335669, 0.0108294357, -0.0014080374, 0.1116137952, -0.0065207682, -0.0334698223, -0.0917187631, 0.0053289933, 0.0109362733, -0.0239079781, 0.0393913500, -0.0420832373, 0.0323914550, 0.0339355581, 0.0721097291, 0.0405194089, 0.0008812080, 0.1121276617, -0.1520504057, -0.0680904016, 0.0181851741, 0.0938197821, 0.0112973312, -0.0238337629, 0.0491182208, -0.0117062069, -0.0459877886, -0.0362972766, 0.0136933988, -0.0666578487, -0.0650472492, -0.0006866851, 0.0584077425, -0.0031547502, -0.0249544028, 0.0828798935, 0.0714709088, 0.0310695320, -0.0850154087, 0.1031441465, -0.0897691399, -0.0192970093, 0.0440830551, -0.0198476464, 0.0391186327, -0.0544870123, -0.0193506107, 0.0047440738, 0.0067427461, -0.0051272782, 0.0577880144, -0.0192001127, -0.0349924304, -0.1359273940, -0.0945808217, 0.0448194817, -0.0005292427, -0.0297862943, -0.0123886345, 0.0050677573, 0.0886899754, 0.0566920228, -0.0859085843, 0.0254246593, -0.0481174104, 0.0029983486, -0.0188600514, -0.0010082094, -0.0898500830, -0.0003370716, -0.0323971435, -0.0698420182, -0.0666543543, -0.0134890061, -0.0116583547, -0.0157762747, -0.0487540029, -0.0137790944, -0.1003051102, -0.0176294968, -0.0013200992, 0.0517341532, -0.0018143615, 0.0045095305, -0.0308509227, -0.0241803266, -0.0006622738, 0.0426602177, 0.0007982699, 0.0069137393, 0.0364104547, -0.0475110747, 0.0922134221, 0.0002025295, -0.0634350479, 0.0018885814, 0.0000847639, -0.0080054132, -0.0265821312, 0.1364886016, -0.0590006188, -0.0334254317, -0.0051821861, -0.0100321034, -0.0489274710, 0.0298440307, -0.0002076827, -0.0891895965, 0.1006612033, 0.0000207431, 0.0212507807, -0.0236798935, -0.0120171448, 0.0088999867, -0.0197826270, 0.0299839620, -0.0036904605, -0.0827121884, -0.0058384351, 0.0483933128, 0.0132196778, 0.1012080461, 0.0155788502, -0.0578441136, 0.0116137741, 0.0379662104, 0.0314547308, -0.0011631909, -0.0028032602, -0.0123518957, 0.0000012246, -0.1236562282, 0.0479512811, 0.0751067698, -0.0361506268, 0.0074137202, 0.0961018056, 0.0212098043, 0.0313245766, -0.0273233447, -0.0028092535, -0.0614007413, 0.0684385225, -0.0113456370, -0.0005715816, 0.0187711436, -0.0007519127, 0.0019374542, 0.0027212808, 0.0683023930, 0.0731002241, 0.0037563716, 0.0165929329, 0.0200198349, 0.0266249012, 0.0122152995, 0.1357497126, -0.0305872206, -0.0369901992, 0.0000241482, 0.0165415462, -0.0000316532, -0.0139397141, -0.0031999415, -0.0116230017, -0.0255287718, -0.0511633120, 0.1078151911, -0.0521086343, 0.0231277347, -0.1266501993, 0.0394884497, 0.0222374815, 0.0222181585, -0.0687404871, 0.1119639203, -0.0002118577, -0.0345464312, -0.0170139521, -0.0774741694, -0.0000008463, -0.0342757739, 0.0028442808, -0.0389209650, -0.0040824753, -0.0051529822, 0.0083762510, 0.0154656693, -0.0781949237, 0.0829754770, -0.0245433412, -0.0011631589, -0.0000005058, 0.0002742767, -0.0433036536, 0.0179261249, 0.0699248835, -0.0074221850, 0.0316660888, 0.0247009099, -0.0212937910, 0.0530957021, -0.0027425641, 0.0132181067, -0.0198159721, -0.0023714993, 0.0727079958, -0.0530062914, 0.0349985957, 0.0036618896, -0.0000000000, -0.0894125849, 0.0855072141, 0.0534243956, -0.0168643352, 0.0091602197, -0.0010018381, -0.0159053057, 0.0693352818, 0.0621989369, -0.0754901022, 0.0069493884, 0.1415624171, 0.0498114564, 0.0578059480, 0.0044666273, 0.0423899740, 0.0452322215, -0.0167866237, -0.0213425402, 0.0305826217, -0.0444935150, -0.0036719749, -0.0115067884, -0.0514889099, 0.1085451469, 0.0369712897, -0.0194481295, 0.0210967436, 0.0000363578, 0.0132086407, -0.0220616329, -0.0024758466, 0.0173185077, 0.0041504195, -0.0548450686, -0.0006774170, -0.1668597311, -0.0006299707, -0.0074497573, 0.0450305976, 0.0006218390, 0.0812475011, -0.0267658755, 0.0182147361, -0.0426581092, -0.0000000000, 0.0158656090, 0.0361319035, 0.0250339434, -0.0017581851, -0.0756645426, 0.0094062444, -0.0298014153, 0.1222067475, -0.0100085773, -0.1089022607, -0.0236917362, 0.0599086843, -0.0118734501, -0.0050342721, -0.0002930852, 0.0000000071, -0.0850971490, -0.0003139577, 0.1489467174, -0.0123437922, -0.0044201761, -0.0887727812, -0.0057302327, -0.0731609613, 0.0458927527, -0.0271425340, 0.0374157615, 0.0102054253, -0.0006345859, 0.0925309956, 0.0328228623, -0.0002810716, -0.0000460394, 0.0000000002, -0.0192738604, 0.0557206236, -0.0061638937, 0.0255033877, -0.0165148377, -0.1254556924, -0.0483236201, 0.0945013538, 0.0275825206, -0.0355989188, -0.0564858243, 0.0222751778, 0.0687146559, 0.0010001004, 0.0101387594, 0.1223648265, 0.0072727068, 0.0011055312, 0.0313576534, 0.0130899251, -0.0401511118, 0.0122908242, 0.0837176442, -0.0450415760, -0.0927037001, 0.0423228666, -0.0197891481, -0.0365861729, -0.0000027916, -0.0449059494, -0.0003839877, -0.0000000004, -0.1076606140, -0.0583399981, 0.0000000000, -0.0708258301, -0.0084937885, 0.0553225689, -0.0000606874, 0.0044275764, -0.0726873279, 0.0737394094, 0.0194107816, -0.0114890393, -0.0159608610, -0.0633210987, -0.0619779639, -0.0458560251, -0.0467106700, 0.0087391250, -0.0514888428, 0.0038300243, 0.0813009515, 0.0392698646, -0.0007104608, 0.1036140770, 0.0175965000, -0.0237847827, 0.0659750178, 0.0298049450, -0.0002839509, -0.1305522472, 0.0030128302, -0.0203607585, -0.0323517211, -0.0169395693, -0.0004620971, -0.0740543231, -0.0950347483, -0.0197910741, 0.0071474528, -0.0295480341, 0.0000724454, 0.0368862078, 0.0563515909, 0.0579436943, 0.0018085743, -0.0004184942, -0.0177834909, 0.0601585619, 0.0056509357, -0.0759302974, 0.0833498836, 0.0917991400, 0.0196065698, 0.1050555184, -0.0347532965, 0.0195576064, -0.0331658721, 0.0800742581, 0.0820294470, -0.0566742048, -0.0729938745, -0.1199455038, 0.0004874782, 0.0204577111, -0.0430286303, 0.0734562799, -0.0012162421, -0.0573008247, 0.0324868970, 0.0111040398, 0.0601467863, -0.0014704095, -0.0014934429, 0.0068367226, 0.0320848450, -0.0110900048, -0.0590741225, 0.0469398089, 0.0784473866, 0.0129751638, 0.0041904887, 0.0060122069, -0.0895476788, 0.1261189729, 0.0014485223, -0.0000022092, -0.0034810514, -0.0131875314, -0.0403680913, -0.0046628527, -0.0115235755, 0.1123270839, -0.0526647568, -0.0760827363, -0.0015211818, -0.0942749977, -0.0451774560, 0.0011895634, 0.0000000021, -0.0281676091, 0.0771186650, 0.0749367252, 0.0729116648, -0.1275384873, 0.1261830330, 0.1568757892, -0.0272542574, -0.0706365183, -0.0672404319, 0.0447522327, -0.0026060001, 0.0534240566, 0.0754661188, -0.0000058850, -0.0347177722, -0.0318224281, 0.0823848024, 0.0171054024, -0.0869731456, 0.0998547822, -0.1429073811, -0.0066965213, -0.0303749405, -0.0161628257, 0.0330759212, -0.0360687338, 0.0007863126, 0.0615725927, -0.0494734496, 0.0000011028, 0.0017875291, -0.0276926775, -0.0404342823, 0.0060273297, 0.0008683231, -0.0146762878, 0.0034927570, 0.0228914637, -0.0532460175, -0.0037444641, -0.0132511370, -0.0054853670, -0.0043070540, -0.0881389380, 0.0309139229, 0.0025677886, 0.0866560712, -0.0217195340, 0.0129334750, -0.0148556400, -0.0479724556, -0.0639985129, 0.0000000000, 0.0027992595, 0.0105476109, 0.0000001404, 0.0163516179, 0.0762522146, -0.0013473721, 0.0621756576, -0.0392915830, -0.0770898759, -0.0542798191, 0.1070232466, 0.0421494208, 0.0576699860, 0.0276096053, 0.0290743709, 0.0363751911, -0.0272403024, -0.0393380485, 0.0577144176, 0.0367474817, 0.0463040769, -0.0802823007, -0.0313081071, 0.0478689633, 0.1000493988, 0.0149110174, -0.0236956831, -0.0728149116, 0.0751880705, 0.0023122728, 0.0415799916, -0.0497477539, -0.0235814955, 0.0165636037, 0.1052178890, -0.0000000018, 0.1553006023, -0.0001579949, 0.0336886719, 0.0696297511, -0.0672241077, -0.0013430536, -0.0612006523, 0.0261637550, 0.0371575728, -0.0005905313, -0.0096651418, 0.0198535156, 0.0437282696, -0.0575195514, 0.0351384208, -0.0979353860, -0.0091810506, -0.0036847617, 0.0585052334, -0.0871397331, 0.0685990229, 0.0103351688, -0.0420187153, -0.0180145111, -0.0118306829, 0.0117552429, 0.0000000000, 0.1039622873, -0.1556762606, 0.0923266560, -0.1067825258, -0.0320571400, -0.0114139616, 0.0000000000, 0.0120567260, -0.1427451223, -0.0001850761, -0.0729291886, 0.0720883980, -0.1005696654, -0.0309909154, 0.0420977362, 0.0716122538, -0.1445808113, -0.0794550106, 0.0374745093, 0.0431383476, -0.0572188757, -0.0423753299, 0.0781852826, -0.1085676849, -0.1071946174, -0.0459069498, 0.0689834952, -0.0898706093, -0.1339039654, 0.0640508905, -0.0040870272, -0.0095388535, -0.0152221881, -0.0087383073, -0.0362993218, 0.0775767639, 0.1015621498, -0.0086000627, -0.0058403937, 0.0672134161, -0.0309623294, 0.0100358697, 0.0469622724, -0.0159682240, 0.0465155691, 0.0002129593, -0.0404131748, 0.0059029232, 0.0716220811, -0.0077602817, -0.0052969093, -0.0190236159, 0.0383659564, -0.0248532854, -0.0000349960, -0.0768069327, 0.0167869944, -0.0591962785, -0.0003290991, -0.0121433707, -0.0107454984, -0.0003551267, 0.0360004157, -0.1074838713, -0.0124983247, -0.0612445511, -0.0005548524, 0.0713437572, -0.0000008643, -0.0457125492, -0.0000000087, -0.0020390917, 0.0080221072, -0.0166371055, -0.0459717140, -0.0648083389, -0.0159603320, 0.0219636802, 0.1326436251, -0.0846397728, -0.0138038415, 0.0283956137, 0.0830980465, 0.0790535659, 0.0221941452, -0.0210833848, 0.0733252615, 0.0498417765, -0.0570502914, 0.0324621573, 0.0000034996, 0.0179481972, -0.0843357593, -0.0790462047, -0.0013043877, -0.0171142817, 0.0400668196, -0.1102059186, 0.1182084754, -0.0082354397, 0.0856148899, 0.1397156864, 0.0044654892, 0.0656066686, 0.0244776476, -0.0001981656, 0.0000365664, 0.0689165294, -0.0651755854, -0.0106779039, -0.0093040736, 0.1481617540, 0.0599216186, -0.0456121340, 0.0406723171, 0.0662921965, -0.0009288675, -0.0344220288, 0.0256206878, 0.0004098696, 0.1237484589, -0.0435957052, 0.1329976469, -0.1290458739, -0.1130536646, 0.0316041671, -0.0386815667, -0.1256830245, -0.0368211009, -0.0122215971, 0.0820280313, 0.0026705735, -0.0247585457, -0.0112912636, -0.0043358565, -0.0731267929, -0.0405543260, -0.0619129501, 0.0211440455, -0.1136663407, -0.0601509698, 0.0836986080, -0.0095193591, 0.0960514471, 0.0191386044, 0.0236721244, -0.0107169747, 0.1004276723, -0.0679829642, 0.0048005576, 0.0133850500, -0.0043462142, -0.0540459193, -0.1172766984, 0.0596915111, 0.0718089044, -0.1011094302, -0.0109224459, -0.0003181932, 0.0264848229, 0.0308551304, -0.0756849721, -0.0241583362, -0.0224122088, -0.0085979812, -0.0895414352, 0.0017548847, 0.0307699256, -0.0326103531, 0.0193280727, -0.0243011620, 0.0350511372, -0.0166715160, -0.0686616823, -0.0272977706, 0.0427762419, -0.0168042816, -0.0805088803, 0.0000197212, 0.0277804695, -0.0847214907, -0.0118221063, -0.0131860906, 0.0078337826, 0.0850800648, -0.1171189025, 0.0015292438, 0.0647285879, -0.0080740051, 0.0024410726, 0.0227894075, -0.0053490018, -0.0847824663, 0.0512178205, -0.0332471468, -0.0090813907, 0.0053809164, 0.1067341119, -0.0043556942, 0.0179077499, 0.1361435205, -0.0673934743, -0.0004076712, -0.0845849738, -0.0942032412, -0.0329527296, -0.0568342209, -0.0114254067, 0.0529347621, -0.0207600947, 0.0371592902, 0.0677375942, -0.0067653004, 0.0008474177, 0.0322195143, 0.0014680678, -0.0002627409, -0.0696116537, -0.1092671677, -0.1060598567, -0.0213071611, -0.0237412080, -0.0224254448, -0.0750330538, -0.0191724524, -0.0628505498, 0.0196200386, -0.0326845981, 0.1065021306, -0.0043157167, -0.0016163979, -0.0174586475, -0.0566313080, 0.0468987711, 0.0287866984, 0.0940886140, 0.1166490391, 0.0311522558, 0.0230712220, -0.0000437767, 0.0708612502, -0.0799821466, -0.0169594903, -0.0001088336, -0.0470994972, 0.0208814293, -0.0568818040, 0.0900396258, -0.0065206252, -0.0339613296, 0.0778996795, 0.0361695662, 0.0667168871, 0.0165640861, -0.0600598864, 0.0182945281, -0.0331207812, 0.0880181864, 0.0537053570, 0.0130968932, -0.0554697551, 0.0011242211, 0.0065786550, -0.0176299699, 0.0489715971, -0.0183552857, -0.0099182958, -0.0306240320, 0.0831095949, 0.0881521553, -0.1014469564, 0.0169246532, -0.0206602719, -0.0769451410, 0.0688056275, -0.0886988714, -0.0057095755, 0.0105049415, 0.0466993600, -0.0077286577, 0.0021916933, 0.0289806817, 0.1100585833, 0.1301762760, 0.0234367903, 0.0072631710, -0.0000210008, -0.0586296991, 0.0459815934, -0.0826315656, -0.0586633533, 0.1791184396, 0.0005144700, -0.0433332846, -0.0024670847, 0.0172161013, 0.0183699876, -0.0000199443, -0.0010081509, 0.0435408056, 0.0421413146, -0.0202629212, -0.0017508370, -0.0406872556, -0.0161688495, -0.0228612293, 0.0067086341, -0.0036449607, -0.0493533313, 0.0047983085, 0.0334344395, 0.0000355779, 0.0157245249, -0.0036345818, 0.0012919519, -0.0001177844, -0.0025725674, -0.0693150088, -0.0122293150, 0.0031815546, 0.0046458631, -0.0000011351, -0.0518156253, -0.0000534647, 0.0000000000, -0.1036416143, 0.0000000000, -0.0111568794, 0.1176762879, 0.0122036608, -0.0101019386, -0.0326387770, 0.0116915461, 0.0094461199, 0.0000000000, 0.0154081611, 0.0938329026, -0.0083926786, 0.0157613680, -0.0668314248, -0.0608401075, 0.0000000003, -0.0129154865, -0.0000096462, 0.0017054848, 0.0075456351, 0.0000000000, 0.0569118373, 0.0325280204, -0.0191853531, -0.0561067462, -0.0021870385, -0.0008745075, 0.0215943139, 0.1126330644, -0.0000000000, -0.0343487039, -0.0154177621, 0.0061987536, 0.0603428856, 0.0009667745, -0.0153007125, -0.0188914463, 0.0651417375, -0.0000000000, 0.0233495198, 0.0867331624, -0.0495767035, 0.0134321861, -0.0383033082, 0.0667472258, -0.1531806439, 0.0047220755, 0.0931133181, 0.0326428078, -0.1226474419, 0.0104300966, -0.0692772046, -0.0412646793, 0.0022189228, -0.0000000004, -0.0040243394, -0.0083278194, -0.1764158458, -0.0665018186, 0.0189421549, 0.1010211110, 0.0002602238, -0.0000259203, 0.0283385012, 0.0177673344, 0.0007007478, -0.0155795198, 0.0204617642, 0.0000000000, 0.1122254804, -0.0262844265, -0.0722893029, 0.0426072516, -0.0530557185, -0.0437879153, -0.0454897918, 0.0115620857, 0.0295708645, -0.1020029560, 0.0008258477, 0.0611495115, -0.0867252797, 0.0082102502, 0.0127160866, 0.0049828240, 0.0228591934, -0.0718613565, 0.0007781077, -0.0100863781, 0.0450503975, 0.0532545000, -0.0028168338, -0.0529659577, 0.1220553666, -0.0421237461, -0.0450335890, -0.0000000000, 0.0015040828, -0.0000205201, 0.0059764422, 0.0025011764, 0.1039572209, -0.0842579231, -0.0453440398, 0.0259849057, 0.0585957095, -0.0078193881, 0.0646793917, 0.0633634031, -0.0242047105, -0.0411499999, -0.0531496853, -0.0126463156, -0.1117190495, -0.0179825742, 0.0194189325, -0.0000000025, -0.0719707310, 0.0870358944, 0.0617384799, 0.0192017276, 0.0819844678, 0.0603711344, -0.0107075870, -0.1216252148, 0.1063293219, -0.0534275137, -0.0815676674, -0.0000566468, -0.0386031419, -0.0393404178, 0.0011055414, 0.0334299207, -0.1019141153, 0.0320102833, 0.0983049572, -0.0437842794, 0.0000000004, -0.0349205323, 0.0734354109, 0.0240937248, 0.0154443337, 0.1012904570, 0.0286173560, -0.0931749865, -0.0858673453, -0.0242071301, -0.0453604572, 0.1023494825, 0.0112201739, 0.0587141849, 0.0113639701, 0.0020635065, 0.0774875283, 0.0367478654, -0.0770383850, -0.0426153950, 0.0003523350, 0.0169241223, -0.0452917553, 0.0039161420, -0.0059012570, 0.0133509152, -0.0948521942, 0.0067879083, -0.1355945170, -0.0113087902, 0.0243003499, 0.0127621014, -0.0497977026, 0.0326839946, 0.0555533059, -0.0703917369, 0.0712417439, -0.0044835657, 0.0160614923, -0.0965082645, -0.0653864071, -0.0061187823, -0.1347770989, 0.0707925633, -0.1174489856, 0.0014620757, -0.0179894343, -0.0546996146, -0.1118483469, 0.1066378430, 0.0072921175, -0.0697177276, 0.1286829859, -0.1623722911, -0.1413848698, -0.0152628468, -0.0953337029, 0.1095096841, 0.0137849869, -0.0000091518, -0.0005261303, -0.0645091832, -0.0243963990, -0.0163533576, 0.0209291298, 0.0534994677, -0.0705800205, 0.0411548615, -0.0777298436, 0.0504142083, 0.0324015841, 0.0117251324, -0.0978200659, -0.0013694409, 0.0517552048, 0.1666921973, 0.0151785193, -0.1183001548, -0.0244724900, 0.1071171686, -0.0382054411, 0.0062185861, 0.0046934853, -0.1018358842, 0.0466737784, -0.0002622844, 0.0683557764, 0.0043139872, 0.0988577977, -0.0497099049, -0.0046926951, -0.0098958286, -0.0449086316, -0.0479973666, 0.0000003882, 0.0070632575, 0.0056187804, 0.0657838136, -0.0282948688, -0.0580731109, -0.0037472106, -0.0487925857, -0.0439977422, 0.0088535314, 0.0078054266, -0.0110818623, -0.0338795036, -0.0042467094, 0.0346739665, -0.0532888249, -0.0028257282, -0.0422167107, 0.0270391069, 0.0425572172, 0.0654744506, -0.0202043876, -0.1424301416, 0.0546578839, -0.0000007107, -0.0030344401, 0.0347458795, 0.1293983757, -0.0693388060, -0.0055888714, -0.0971702561, 0.0639704168, -0.0295761209, 0.0607706197, 0.0604367480, 0.0621198528, 0.0594158620, -0.0042796950, -0.0086268336, 0.0310679618, -0.0032198180, -0.0309242178, 0.0099483440, 0.0527288653, 0.0188533831, -0.0203179307, 0.0048198639, -0.0048754918, 0.0781777799, 0.0191241466, -0.0621783808, -0.0000006474, 0.0381716192, -0.0523801111, 0.0304817744, -0.0340868980, 0.0233288668, 0.0112007316, -0.0072930022, 0.0000988925, 0.0022178811, -0.0292465184, 0.0036148988, 0.0114722848, -0.0194539633, 0.0224563722, -0.1311807632, 0.0951054767, 0.0204166602, -0.0320783965, -0.0315980613, 0.0525731221, 0.0000000000, -0.0739398077, -0.0156607889, 0.1039024591, -0.0896401778, 0.0707450807, 0.0463420302, -0.0314389691, -0.0595835298, 0.0386044979, 0.0177788157, 0.0338475220, -0.0047669220, -0.0755783394, -0.0259795301, 0.0183016658, -0.0153059475, -0.0062985346, 0.0215608366, -0.0800596103, -0.0061451523, 0.0277573988, 0.0289214067, 0.0285463799, -0.0138130095, 0.0006987203, 0.1185000837, -0.1027044132, 0.0570437722, 0.0306498185, -0.0470455475, 0.0462208204, 0.0283558890, -0.0000005223, 0.0037157731, -0.0021967101, -0.0093498407, -0.1322757900, -0.1072848588, -0.0129403863, -0.0198015962, -0.0076490398, -0.1095281690, 0.0577746406, -0.0041416641, -0.0001752626, 0.0337793492, -0.0359355621, 0.0201542675, 0.0001024014, 0.0341037884, 0.0763331428, 0.0853314772, 0.0008147604, 0.0527715944, 0.0629037395, -0.0042988905, -0.1444312483, -0.0344628058, -0.0273718983, 0.0147729293, 0.0008519060, 0.0740313679, -0.0521890521, 0.0006295224, -0.0162684433, -0.0200504176, -0.0068921209, 0.0548538379, 0.0037257583, 0.0000001874, 0.0846104324, 0.0002717222, 0.0076731248, 0.0539976656, 0.0986317322, 0.0734607130, 0.0167672392, -0.0505623929, -0.0320026726, 0.0986195654, -0.0136790974, -0.0181655977, 0.1267555952, -0.0019662576, 0.0036652042, -0.0620342642, -0.0227806456, 0.0242131948, 0.0520870723, 0.0855871812, -0.0475019738, 0.0794555172, 0.0269916337, -0.0467024297, -0.0013644324, 0.0006924568, 0.0377931893, 0.0000000150, 0.0041376036, 0.0269296337, -0.0429672077, 0.0498411991, -0.0464865230, -0.0664183721, 0.0013206287, -0.0300636422, 0.0000000002, 0.0352052227, -0.0024118011, -0.0003625136, 0.0000036118, -0.0050159502, 0.0173718613, -0.0000000881, -0.0648879632, 0.0149452109, 0.0058026914, -0.1152882650, 0.0080908276, -0.0162632708, -0.1090190560, -0.0587933324, 0.0141870659, 0.0711078271, -0.0075675827, -0.0413674377, 0.0749977827, -0.0001517784, -0.0025982088, 0.0190402027, -0.0339222029, -0.0747368410, 0.0779394507, 0.0273051206, 0.0702882707, 0.0826770961, -0.0119552249, -0.0946099311, -0.0007630530, 0.0596476458, 0.0968279019, 0.0150329117, 0.1309814155, -0.1522233635, 0.0053502284, -0.0588259622, -0.0904803351, -0.0428251624, -0.0030393447, -0.0340733714, -0.0623013824, 0.0728853494, -0.0001839456, 0.0832023472, -0.0464329608, 0.0964367464, 0.1381594837, 0.0492078066, -0.0447046161, 0.0014416131, -0.0192588195, 0.0374745987, 0.0762935057, -0.0028496746, 0.1708490103, -0.0620217398, 0.0000015110, -0.0341145992, -0.0033026792, 0.1326406002, 0.0694603622, 0.0131060965, -0.0424171686, 0.1187731922, -0.1029784679, -0.0849658698, -0.0031225979, 0.0303986240, 0.0199133251, 0.0246350579, 0.0149606280, -0.0646214858, -0.0053112726, -0.0128829209, 0.0441312678, 0.0274604838, 0.0525432304, -0.0456921570, -0.0443158746, -0.0553895384, -0.0021064046, -0.0042398176, -0.0078055803, 0.0871853605, -0.0210846663, -0.0785179734, -0.0101124123, 0.0930756405, -0.1664673537, -0.0625265911, 0.0738517568, -0.0916538537, 0.0040053106, -0.0158592332, -0.1353950053, 0.0672265440, 0.1518457085, -0.0845788047, -0.0209867563, -0.0020569740, -0.0112441536, -0.0000537943, -0.0167168975, -0.0832890570, 0.0548519343, -0.0987344682, 0.0079796202, -0.0315950625, 0.0425852686, -0.0261815470, 0.0334628224, -0.0168895293, -0.0670056269, -0.0085474430, 0.0130378930, -0.0403624326, 0.0080385134, 0.0456876308, 0.0230514761, 0.1088270470, -0.1839943826, 0.0788918883, -0.1353832781, -0.0277043097, 0.0846722722, -0.0226991549, -0.0186086837, 0.0062208325, 0.0709168389, -0.1281490773, -0.0769744590, -0.0342518464, 0.0891074017, 0.0681543425, -0.0000092537, 0.1348883212, 0.0124977222, -0.0197292212, -0.0285914745, 0.0008768056, 0.1287858635, -0.0979678184, 0.0583509281, -0.0084517999, 0.0443876684, 0.0159706715, -0.0000000000, -0.0001534226, -0.0412992388, -0.0035187928, 0.1069253758, 0.0578386374, -0.0558703057, 0.1638151407, 0.0051636449, 0.0379764289, 0.0666939616, -0.0249861050, -0.0161497332, -0.0063700862, -0.0375605002, -0.0000083861, 0.0011973168, -0.0250257440, 0.0648621619, -0.0193540044, -0.0031134852, -0.0041440958, -0.0128541579, -0.0171544217, -0.1321119666, -0.0082812095, -0.0400363430, 0.0345334820, -0.0415013097, -0.0537861288, -0.0830197856, -0.0231615677, -0.0308894999, -0.1526091546, -0.0923373550, 0.1556152105, 0.1340165734, 0.0481063239, -0.0469322503, -0.0820352733, 0.0108542563, -0.0054398738, -0.0236158576, -0.0276666880, 0.0015469146, 0.1823568195, 0.0061953817, 0.0394206569, -0.0000781556, -0.0023691184, 0.0047742072, -0.0000005161, -0.0056523192, 0.0018774472, 0.0033804192, 0.0720619038, -0.0604784712, 0.0501061715, 0.0668754354, 0.0525363572, 0.0196116921, 0.0043928865, 0.0313432030, -0.0001097561, -0.0041869683, 0.0028059199, 0.0001336724, -0.0000000249, 0.1019907147, 0.1521589160, -0.0187952667, -0.1082120910, -0.0000307327, -0.0260157064, -0.0220880043, 0.0068358351, -0.0270316340, -0.0145620704, 0.0905153602, -0.0815971419, 0.0001706319, 0.0716302171, -0.1299781352, 0.0168757252, 0.0000000330, -0.1068970263, -0.0307290684, -0.0078178989, -0.0354905352, -0.0354046188, 0.0544387922, -0.0235390216, 0.1065082625, -0.0559143387, 0.0236397963, 0.0076380624, -0.0726287588, 0.0473202318, -0.0338989198, -0.1131802797, 0.1105004475, 0.1117840782, -0.0969929397, -0.0874124542, 0.0285299942, -0.0559374765, 0.1060446426, -0.0192668755, -0.1854340136, -0.0948415101, -0.1004962325, -0.1262866855, -0.0388103761, 0.0387920961, -0.0385873914, -0.0632941276, -0.0000000032, -0.1592527777, -0.1384862065, 0.0358413160, 0.0024528122, 0.1107356548, -0.0565053709, -0.0246002600, -0.0237245299, 0.0079348860, -0.0358951055, -0.0755887106, -0.0228988994, 0.0117567861, -0.0653322637, 0.0004596808, 0.0450313687, 0.0750235543, -0.0833351389, -0.0122874286, -0.0452984720, -0.0652595982, 0.0896786600, 0.1206840202, 0.0213461779, 0.0535874404, -0.1556037217, 0.1211563423, -0.0067795948, 0.0021972016, 0.0380240828, -0.0051769209, -0.1181193814, -0.0401640497, -0.0460415594, 0.1165797859, -0.1262141019, -0.0178252701, -0.0003802222, 0.0747921094, -0.0074478472, 0.0507573187, -0.0017184041, 0.0212494340, 0.0118236793, -0.0071730395, 0.0056362734, 0.0608221143, -0.0239373222, 0.0265646670, 0.0412120894, 0.0500314012, -0.0245097950, 0.0218477268, -0.0337471813, -0.1060629487, 0.0074878396, 0.0608049892, 0.0685171261, 0.0197003391, 0.0235199612, -0.0054779076, 0.0048429617, -0.0089897914, 0.0106339995, -0.1363592297, -0.0064685815, -0.0698491111, -0.0014646474, 0.0328321382, 0.0361446440, 0.0666020140, -0.0000026666, 0.0000001815, -0.0785559416, 0.0047983723, 0.0065834876, -0.0207322948, 0.0972693190, 0.0075703645, -0.1045522168, -0.0171054974, -0.1792935729, 0.1223715618, -0.0102007911, 0.0669424981, -0.0342813395, -0.0292383134, 0.0604546033, -0.0280822963, -0.0796874091, 0.1182682216, 0.0000000147, -0.0232682247, 0.0000899257, 0.0301505029, 0.0027000536, -0.0186009165, 0.0444064364, -0.0561347976, -0.1094645262, -0.0770253018, 0.0486148745, 0.0096481731, 0.0319985412, 0.0146190617, -0.0096769901, -0.0049664751, 0.0190562140, 0.0414883532, 0.0491907001, -0.0810649693, -0.0294657517, 0.0505847670, -0.0273060445, -0.0386598594, -0.0146980537, 0.0835973024, 0.0431905091, -0.0477590002, 0.0391924381, 0.0752594620, 0.0813299045, -0.0321258157, -0.0000503015, 0.0018227154, 0.0093902247, -0.0000000000, 0.0099919997, 0.0975102335, 0.0651851743, -0.0032638339, -0.1199013069, 0.1158405095, -0.0026063491, -0.0604219548, 0.0107470863, -0.0090262396, 0.0760409608, 0.0134273572, 0.0659146458, -0.0198897012, 0.0606552064, 0.0809557512, 0.0082387151, -0.0000000000, 0.0324219912, -0.0460837744, -0.0050277212, -0.0244702641, -0.0010557853, -0.0230607688, -0.0001938204, 0.0032760252, 0.1197561175, 0.0324501358, 0.0039684814, -0.0225294959, -0.0473858304, 0.0306318626, -0.0020715024, 0.0844088197, 0.0013665699, 0.0286225285, -0.0000012772, 0.0865907371, -0.0350706764, -0.0033251746, -0.0986951292, 0.0188315101, -0.0118627744, 0.0184578877, 0.0179620516, 0.0416781567, 0.0094632907, 0.0320281945, -0.0904434696, 0.0033142879, 0.0328639634, -0.0697392374, 0.0052552302, 0.0263072178, -0.0577645749, 0.0132657597, -0.0564160906, -0.0050544553, 0.0784410313, -0.0047267377, 0.0603695288, -0.0464227237, 0.0582662933, 0.0293165129, 0.0019604426, -0.1129099950, 0.0213183891, 0.0219110139, 0.0088598570, 0.1065019816, 0.1454230398, 0.1082911938, -0.0136300400, 0.0014599160, -0.0414063111, -0.0611637309, 0.0424439646, 0.0015210792, -0.0175549369, 0.0251092408, 0.1027677506, 0.0126693705, -0.0798922256, 0.0924727544, -0.0211624838, -0.0236031245, 0.0077143135, 0.0246445332, -0.0586235411, -0.0270208940, -0.0159088802, -0.0003224477, -0.0054732906, 0.0481435135, -0.0120212687, 0.1101038009, 0.0481932163, 0.0318104476, -0.0220437385, -0.0794859305, -0.0220212396, -0.0198254548, -0.0407191701, -0.0423039421, 0.1144591942, 0.0993331447, 0.0116125997, 0.0444482826, -0.0025003238, -0.0585297979, -0.0445356779, -0.1167930961, -0.0521535575, -0.0356866680, -0.0362869650, 0.0384649523, 0.0024523241, -0.0488798469, -0.0004398869, -0.0012454303, -0.0995300338, -0.0884734690, -0.0058022337, 0.0753417909, 0.0475160778, -0.0015198229, 0.0259905756, -0.0616629869, -0.0003755593, -0.1492393762, -0.0755135864, 0.0000000035, 0.0216523912, -0.0132677825, -0.0325824209, 0.0074268128, 0.0182354674, -0.0000000000, 0.0021494564, 0.0003196542, 0.0569855571, 0.0249068327, 0.0292393155, -0.0273985490, -0.0296461545, 0.0129085006, 0.0389212370, -0.0068996139, 0.0110170636, -0.0850973502, 0.0001468662, 0.0129720159, 0.1113973558, -0.0328875072, 0.0038761399, -0.0188522153, -0.0156831928, 0.0117810750, 0.0318346806, 0.0059136739, 0.0000000000, -0.0250488240, -0.0532034747, 0.1123584732, -0.0285402536, -0.0027171264, 0.0419371277, -0.0872294605, -0.0975882858, 0.0205322597, -0.0000000369, 0.0000000149, -0.0734964758, -0.0180096943, -0.0140987802, 0.0334365591, -0.0325286277, 0.0800918341, -0.0283559449, -0.0031820368, -0.0000002177, 0.0150837684, 0.0451213941, -0.0225378554, -0.1212669611, -0.0571720786, -0.0004298311, -0.0811083093, -0.0285103675, 0.0051444443, -0.0292265918, 0.0051036319, 0.0036672966, 0.0002173364, -0.0142017491, 0.0034317283, 0.0017343664, 0.0298661012, -0.0024017687, 0.0045147715, 0.0054285070, -0.0108467797, 0.0154412016, 0.0036339639, -0.0009280072, 0.0026458218, 0.0042031324, 0.0176143609, -0.0101865623, -0.0001294511, 0.0344384164, -0.0647246465, 0.0000000000, -0.0705533773, -0.0015111737, -0.0072639748, -0.0610571988, -0.0048891753, 0.0090379026, -0.0037211897, 0.0023479443, -0.0000035846, -0.0003420956, -0.0278269742, 0.0425833464, -0.0240219142, -0.0017531912, -0.0224723257, 0.0047918879, 0.0362982266, -0.0000245754, -0.1278955936, 0.0001047954, -0.0329377949, 0.0204684902, -0.0064307717, -0.0009786983, 0.0000000000, -0.0166015141, -0.0016893089, 0.0104505746, -0.0005219912, 0.0115312850, -0.0266276039, -0.0131368712, -0.0553164706, 0.0014357585, 0.0143408990, -0.0231533851, -0.0000000000, 0.0098863626, -0.0322451331, -0.0176202338, 0.0095714722, -0.0227890462, -0.0131447138, 0.0003857166, -0.0145818172, -0.0387170650, 0.0764845312, -0.0128603177, -0.0160727799, 0.1619604081, -0.0039718244, 0.0148055851, 0.0143554714, -0.1027985290, 0.0157847982, 0.0012079449, -0.0114063257, 0.0284178983, 0.0289292857, 0.0002702395, 0.1351965517, 0.1333815753, 0.0155536933, 0.0494940132, 0.1787376553, -0.1018260047, -0.0585355386, -0.0510778576, -0.0710537583, -0.0416053832, -0.0278276037, 0.0228833705, -0.0046557030, 0.0024473520, -0.0375642627, -0.0054002590, -0.1285167038, 0.0931139216, -0.0583627783, -0.0919898003, -0.0198139474, 0.0355827846, 0.0934447795, 0.0268791337, 0.0648470521, -0.0000051675, 0.0350469463, 0.0109641589, -0.0305491649, -0.0000000000, -0.0000031972, -0.0027597609, -0.0716374815, -0.0341184326, 0.0034663631, 0.0217389408, -0.0002784783, 0.0001166749, -0.0179416090, 0.0896907300, 0.0398221686, 0.0661971942, -0.1479912549, -0.0023328585, 0.0151169766, 0.0507847406, 0.0202796720, 0.0318622030, -0.0227663331, -0.0837624148, -0.0322247595, 0.1141163781, 0.0250451341, 0.0177609101, 0.1313195378, -0.1109491736, 0.0140888561, -0.1017352492, -0.0341844596, -0.0056056674, 0.0005452345, 0.0170112886, 0.0077692405, 0.0064699985, -0.0059275227, 0.0014807113, -0.0450002663, -0.0833849907, -0.0039366763, -0.0349396206, -0.0482599586, -0.0171421301, 0.0543639697, 0.0000000002, -0.1559980065, 0.0395820215, -0.0431240648, 0.0217742398, -0.0035702724, -0.0200882033, 0.0108524570, 0.0013267332, 0.0033672191, 0.0122831874, 0.1324684024, -0.0038708786, -0.0941395983, -0.0014676407, 0.1178879291, 0.0624667853, -0.0011122768, -0.0497812815, 0.0200314634, -0.0373165421, -0.0239525139, -0.0996260643, 0.0191574600, -0.1791673750, 0.0622841194, -0.0007213496, 0.0361459441, 0.0577173345, 0.0425847322, -0.1149225533, 0.0134784058, 0.0184506401, -0.0798780844, -0.0000198080, 0.1043435261, 0.0145697584, -0.0417376086, -0.0290170312, -0.1195000187, -0.0379157029, -0.0120499516, 0.0570839234, 0.0056026629, 0.0919855088, -0.0143134734, -0.1116061881, 0.0278457887, -0.0761436448, -0.0155161461, 0.0696588978, -0.0774319619, -0.0058579538, -0.0830490813, -0.1245091259, 0.1537415236, -0.0648500100, 0.0608363785, -0.0485529117, 0.0601796769, -0.0477509648, 0.0273240656, -0.0248458311, 0.0437474363, -0.0964991376, -0.0306484625, 0.0035200033, 0.1722058505, 0.0191199295, -0.0362099819, -0.0000000000, 0.0684706569, -0.1182613298, -0.1256684214, -0.0090563111, -0.0507064462, 0.0927942991, -0.1425902098, -0.0210485887, -0.0133129535, 0.0152149964, 0.0000598289, 0.0023176637, -0.0243801139, 0.0899371505, -0.0450196229, -0.0474241674, 0.0554592907, -0.0564227328, -0.0089967260, 0.0107164830, -0.0797908902, -0.0904779062, -0.0321597904, -0.0565608889, -0.0426525846, 0.0910896808, 0.1287042350, -0.0807861760, -0.0195010938, -0.0124702109, -0.1111250818, 0.0000000000, -0.0373136625, 0.0116423452, 0.1085426956, -0.0000000000, -0.0502357557, -0.0750141069, 0.0274687260, -0.0282064546, -0.1590007693, 0.0280378871, -0.0141552575, -0.0002494175, -0.0000032971, -0.0068630222, 0.0872506946, 0.0689667463, 0.0151058789, 0.0195845850, 0.0940624848, 0.0046305200, -0.0577660054, -0.0027762612, 0.0238662027, -0.0033121814, 0.0000000000, -0.0532983541, -0.0831768289, -0.0042997752, -0.0563359484, 0.0046098474, -0.0179583058, -0.0879297927, -0.0514236763, 0.0015338564, 0.0483147316, -0.0192849115, 0.0020410209, 0.1099940836, 0.0101617444, 0.0283748098, 0.0039580679, 0.0320750959, -0.0335481577, 0.0015226584, -0.0909308419, -0.0263329688, 0.0547970608, 0.0350610539, -0.0162357856, -0.0510142744, 0.0275433324, -0.0417282470, -0.0076057073, 0.0413253829, -0.0558733679, 0.0087930812, -0.0000000000, 0.0332181826, -0.0255704001, -0.0547197200, 0.0425643027, -0.0516344644, -0.0461950786, 0.0650991276, -0.0289844200, -0.0597380064, -0.0459625199, -0.0018935261, -0.0008024765, 0.0424905270, 0.1966208518, -0.0000017341, -0.0239545014, -0.0039993175, 0.0050240750, 0.0000000000, -0.0114984429, -0.0038128246, 0.1126495823, -0.0220000744, 0.0184114762, 0.1600048691, 0.0095732203, 0.0264551267, -0.0579686314, 0.0310957842, 0.0475135110, -0.0020825935, -0.0925202444, -0.0108322380, -0.0085139368, 0.0000395730, 0.0176604167, -0.0362649709, 0.0673737377, -0.0415993519, -0.0638210028, 0.0626605153, -0.0000000000, -0.0624601170, 0.0391534418, 0.0150973070, 0.0285399500, 0.0192925017, 0.0598218329, -0.0191865470, -0.0144549832, -0.0000000002, -0.0200367328, -0.0052662794, 0.0007779525, -0.0095207253, -0.0187220927, -0.0718700215, 0.0043180473, -0.0004369747, -0.0897770226, 0.0000000000, 0.0089105535, -0.0928283781, 0.0113435220, 0.0166370589, 0.0316362604, 0.0001209100, 0.0484111346, -0.0099236360, -0.0289674606, -0.0020449478, 0.0855448395, 0.0692742541, 0.0344000198, 0.0297077112, -0.0152385999, 0.0026163748, 0.0057441955, -0.0173878111, 0.1266914457, -0.0001498549, 0.0188554674, 0.0096492125, -0.0011450808, -0.0002162383, 0.0512835234, -0.0226171296, -0.0228585694, 0.0278801229, -0.0170356743, -0.0312623866, 0.0290745571, 0.0005712977, 0.0710336044, 0.0543177277, 0.0933246389, -0.0005566780, -0.0135420691, -0.0000000000, 0.0653743744, 0.0432354733, 0.0652062744, 0.0052996473, 0.0239706431, 0.1437805444, 0.0028810869, -0.0047250893, 0.0997877270, -0.0479457192, 0.0427642278, 0.1099055037, 0.0047962684, 0.0784377679, -0.0104840118, -0.0759658441, -0.0011891796, -0.0272657014, 0.0000000274, 0.0111651579, 0.0045265993, 0.0221774057, -0.0006055257, -0.0004073869, 0.0067054653, 0.0437157638, 0.0137641365, 0.0455951653, -0.1030061692, 0.0853041857, 0.0033952431, 0.0280946977, 0.0812461525, 0.0783865377, 0.0011302788, -0.0277202930, 0.0003895852, -0.0754478723, 0.0503033213, -0.1029895097, -0.0109532820, -0.1549391448, 0.0442444980, -0.0025366407, -0.0554193333, 0.0095217153, -0.0118853571, -0.0556307547, 0.0126612410, -0.0116268471, -0.0021169402, 0.0459162444, 0.1084885821, 0.0402309597, 0.1114138290, -0.0004673662, -0.0116728088, 0.1902383417, -0.1061188132, 0.0175854955, 0.0305178817, 0.0578874201, 0.0583096668, -0.0204511657, -0.0000000108, -0.0177545734, 0.0912985355, 0.0086606937, -0.0326092094, 0.0201883968, 0.0070807445, -0.0072453064, 0.0297767892, 0.0056044245, -0.0457866192, 0.0553890020, 0.0223496277, 0.0189707298, 0.0719112977, -0.0024953925, -0.0887190178, -0.0987924710, 0.0554392003, -0.0258354545, -0.0236990321, -0.0331418291, 0.1129296422, -0.1225161850, 0.1556681097, 0.0971893072, 0.1313376874, -0.0585284941, -0.0451573357, -0.1083063036, 0.0280183014, -0.0021878558, -0.0000280440, -0.0034018978, -0.0547131523, 0.0310918652, -0.0656209737, 0.0003267124, 0.0004080677, 0.0949070230, -0.0102682160, 0.0070877685, -0.0043663327, -0.0000000394, 0.0257315747, 0.0006869116, -0.1047598273, 0.0790284127, -0.0783506855, -0.0902740955, -0.0467151329, 0.0261511095, -0.1146711111, 0.0004529911, -0.0311065912, 0.0531119667, 0.0442421287, 0.0098358383, -0.0608782060, -0.0028243023, 0.0741845816, -0.0025187221, -0.0239098854, -0.0282757655, -0.0049138358, 0.0309627820, 0.0133275958, -0.0000000000, -0.1436078399, -0.0581240654, 0.0270771813, -0.0089635011, -0.0506900884, 0.0093161836, -0.0285107438, -0.0613968372, 0.0276544429, -0.0040737242, -0.0527367853, 0.0170230083, -0.0424096249, -0.0052412171, 0.0704878271, -0.0016962494, 0.0701787099, -0.0068140682, -0.0132037383, 0.0112932334, -0.0189081933, -0.1320825368, -0.0682864487, 0.0737827867, -0.0497997887, -0.0001378116, -0.0231498666, 0.0000001021, -0.0162664130, -0.0034018769, 0.0013901535, -0.0363503024, -0.0070113293, 0.0421876796, 0.0432925485, 0.0338502415, 0.0833930224, 0.0032954505, -0.0532288887, 0.0380806401, 0.0584190525, 0.0026074941, 0.0005188848, -0.0000186537, 0.0312981755, 0.0043625496, -0.0555430874, -0.0390393920, -0.0782330185, 0.0066531482, 0.0403335840, 0.0000001957, -0.0638430566, 0.0062981439, -0.0466192551, 0.0020864527, 0.0165088009, 0.0027976334, 0.0000107314, -0.0000164374, -0.0354298018, -0.0234409347, -0.0108175166, 0.0964810476, 0.0357370861, 0.0239894744, 0.0100896675, -0.0061233547, -0.0000495607, 0.0712532252, 0.0418856442, 0.0547803305, 0.0944290608, -0.0306438673, 0.0958514512, -0.0527871475, -0.1490761042, -0.0013483616, -0.0198374521, -0.0502415895, 0.0308003034, -0.0058420259, -0.0071702530, -0.0599148795, 0.0672223046, 0.0271889530, -0.0488222614, -0.0573109426, -0.1045244634, 0.0000000000, -0.0701676011, 0.0159802251, 0.0321816802, 0.0036756091, 0.0000000000, 0.0093682352, 0.0113461809, 0.0039495374, -0.0675875992, -0.0344835222, 0.0412609540, 0.0180179998, -0.0185740348, 0.0581700578, 0.0730549395, -0.0423561931, 0.0259215664, 0.0000000000, -0.0206415430, 0.0675251335, -0.0420765355, -0.0112976842, -0.0349119939, 0.0018165341, 0.0027573088, -0.0070756455, 0.0016499473, -0.0250728372, -0.0052778372, -0.0015743398, 0.0375160836, 0.0755801126, -0.0333242565, 0.0000003810, -0.0000227510, 0.0752334669, -0.0108271269, -0.0570484363, -0.0015631949, -0.0539231114, 0.0781802461, 0.0256280713, -0.0001005104, 0.1497240663, -0.0243947785, -0.0251051225, 0.0505700931, -0.0005004336, 0.0062121055, -0.0124094775, 0.0713357329, 0.0306791831, -0.0415745564, 0.0915662125, 0.0160859469, 0.0716114640, 0.0375817940, -0.0528070368, 0.0190219302, 0.0115836198, -0.0722168088, -0.1052532420, 0.0305991322, -0.0004249223, 0.0039493996, -0.0174683966, -0.0021468692, 0.0127379019, -0.0703442395, -0.0273583513, -0.0196543802, 0.0236045141, 0.0026995598, -0.0035458591, -0.0000998484, 0.0315907113, 0.0452749506, 0.0161236767, 0.0458174013, -0.0159612764, -0.0274469666, -0.0111511797, 0.0000000000, 0.0000551420, 0.0063949912, 0.0893592909, 0.1255029589, 0.0415028110, -0.0921204984, -0.0157700442, -0.0176544767, 0.0188992508, 0.0330387391, -0.0031302918, -0.0592829771, 0.0134197250, 0.0781114325, -0.0248107426, 0.0114172706, 0.0978061780, -0.0204509068, -0.0533878207, -0.0847267956, 0.1179911122, 0.0087607615, 0.0847630128, -0.0282922629, -0.1062414572, 0.0403402969, 0.0313432962, -0.0883484259, 0.0201337039, -0.0133606652, -0.0135548031, 0.0989088342, -0.0007270342, -0.0048931376, -0.0048380084, -0.0182897467, -0.0574490428, -0.0789510086, 0.0097314985, -0.1259559542, -0.0272767246, -0.0395330638, -0.0759414285, 0.0516612343, 0.0000006234, -0.0090037473, 0.0003251173, -0.0000000000, 0.0614493750, -0.0449477285, -0.0003931235, -0.0303129908, -0.1304659992, 0.0178010035, 0.0000316253, -0.0336572491, -0.0721636415, -0.0413999856, -0.0427596532, -0.0735473931, -0.0000000000, -0.0124927033, -0.0966665149, 0.0016263889, -0.0002583842, 0.0311154947, -0.0122218383, 0.0911910906, -0.0720414519, 0.0806922615, 0.0416356511, 0.0446093343, -0.0577766374, -0.0165027026, 0.0342190191, 0.1137581617, 0.0369489267, 0.0153843574, 0.0000000000, -0.0574979633, 0.0292329136, 0.0126552032, 0.0612593740, 0.0151168285, -0.0130803557, -0.0306943282, -0.0120729227, 0.0134310992, 0.0532329753, -0.0206411686, -0.0620410219, -0.0260878038, 0.0208067019, -0.0387107320, 0.0168159995, -0.0832332224, -0.0856212974, -0.0742042288, -0.0038535048, -0.0479969122, -0.0000032669, -0.0406174548, 0.0006785611, -0.0922608078, 0.0012227984, -0.0350637026, -0.0097957840, 0.0106155593, -0.0023968143, 0.0717334226, 0.0017935087, -0.0411571302, 0.0036228281, -0.0492889509, 0.0447389148, 0.0130095500, 0.0292121843, -0.0230100881, 0.0567631796, -0.0274611879, 0.1131160930, 0.0836014003, 0.0105789276, -0.0744275376, 0.0259062499, -0.0163640007, -0.0765955821, -0.0522379391, 0.0148673085, 0.0166567545, -0.0988626406, 0.0898063853, -0.0130966371, -0.0346426442, -0.0000003376, -0.0701505989, 0.0644413978, 0.0495912693, -0.0352117978, 0.0638037995, 0.0646424145, 0.0012095782, -0.0685980245, 0.0665747002, -0.0183091518, 0.0554399304, 0.0007024489, -0.0729454309, -0.0031736048, 0.0202894974, 0.0432476029, -0.0001280717, -0.0011381829, 0.0807597637, -0.0498125888, 0.0086174216, -0.0518521443, -0.0362550355, -0.0029596551, 0.0129095819, -0.0013478262, 0.0233710799, 0.0386441424, -0.0465624519, -0.0746646821, 0.0742997900, 0.0001591383, 0.0296883024, -0.0057342746, 0.0375878029, 0.0025792306, -0.1328777075, -0.0000600951, 0.0038248803, 0.0110193705, -0.0234940574, -0.0359270573, -0.0737070367, -0.0251121111, -0.1277413964, 0.0405561402, -0.0001312617, -0.0104312617, 0.0849899426, 0.1041013524, -0.0004537729, -0.0026238658, 0.0674721524, 0.0260955878, -0.0953762233, -0.0000330630, 0.0117258430, -0.0255244058, 0.0060464684, 0.0586298145, -0.0902500898, 0.0908356681, 0.0800559819, 0.0215295590, -0.0400621817, -0.0324867889, -0.0141270263, 0.0594828539, 0.0655300841, -0.0375524089, -0.0098814452, -0.0051488378, -0.0001483588, -0.0188393276, 0.0348418429, -0.0007701649, 0.0641248971, -0.0384077951, 0.0378899351, -0.0210955404, -0.0434178151, 0.0640831143, -0.0728375316, 0.0006728185, 0.0679938644, -0.0187623408, 0.0570655726, 0.0650664419, 0.0177380685, -0.0138847716, 0.1220481992, -0.0455773175, -0.0124161560, -0.0000000000, -0.0582565293, 0.0386964232, 0.0760988966, -0.0088626659, -0.0739426613, -0.0240497179, 0.0026152912, -0.0266146585, -0.0509584844, -0.0281303339, 0.0174663588, -0.0132567910, -0.0012967680, -0.0353726484, -0.0051811994, -0.0050227623, 0.1055975035, 0.0044044396, -0.0089706499, 0.0023369305, 0.0589096323, -0.0021501435, -0.1088330895, -0.0795609877, 0.0373117365, -0.0093541769, -0.0012398765, -0.0006713021, 0.0012491160, 0.0146188289, -0.0214763805, 0.0513469949, 0.0000000000, 0.0016298915, -0.0016004018, 0.0339913778, 0.0205232725, -0.0182438418, -0.0294824205, -0.0065431590, -0.0818745866, 0.0000008255, 0.0320940912, 0.0080904113, 0.0000000000, 0.0021918048, -0.0183825884, 0.0205220189, 0.0112500619, -0.0000933164, -0.0093872612, -0.0344886109, -0.0141456239, -0.0176336486, 0.0058369422, 0.0021887268, -0.0515088327, 0.0002114944, 0.0234593097, 0.0701899603, 0.0112662418, 0.0003632221, -0.0000000024, -0.0742302239, -0.0052188369, 0.0000052597, 0.0135885263, 0.0000327717, -0.0446503460, -0.0145055391, 0.0477934852, 0.0000000000, 0.0179422181, -0.0011495970, 0.0011873768, -0.0047432906, 0.0176355187, 0.0129248900, 0.0046003815, -0.0302728247, -0.0450072214, 0.0107105188, 0.0395867564, -0.0007172985, 0.0054122088, -0.0174669605, -0.0834428221, 0.0613158606, -0.0394240841, -0.0014781216, 0.0157605074, 0.0523862317, 0.0057510375, -0.0645753667, -0.0558578111, -0.0084737903, -0.0000285964, 0.0123399254, 0.0000009708, -0.0026690878, -0.0073101996, -0.0105813835, -0.0034777496, 0.0410816111, 0.0304511730, -0.0018357628, 0.0502398238, 0.0045219995, -0.0000526229, -0.0018424495, -0.0000000000, 0.0154652838, -0.0169410482, -0.0032041850, -0.0017300677, 0.0038683710, 0.0000000001, -0.0373020209, -0.0033613839, -0.0268202052, 0.0288325790, -0.0392059647, 0.0587596595, -0.0202509034, 0.0111606829, -0.1022702679, -0.0563645773, 0.0010008666, 0.0002505561, -0.0016059860, -0.0000016185, 0.0138498256, 0.0544224493, -0.0047572902, -0.0504087843, 0.0106983669, 0.0027634979, -0.0044200369, -0.0513411984, -0.0374027453, 0.0006169351, 0.0645412654, 0.0175004657, -0.0091920877, 0.1027011573, -0.0000000000, 0.0532873906, -0.0612299480, 0.0157529525, 0.0972968936, 0.0350041613, -0.0624108203, -0.0000000000, 0.0191585422, 0.0440632924, -0.0391020365, -0.1173293293, 0.0554263890, -0.0681273639, 0.0250797458, 0.0491796248, -0.0000000000, 0.0958953425, -0.0371965580, 0.0351557322, 0.0201940257, -0.0943860188, 0.0069475225, -0.0002448603, -0.0172355343, 0.0077746236, -0.0651701093, 0.0000000000, -0.0348815694, -0.1250596493, -0.0097927563, -0.0109742116, -0.0060102032, 0.0001244812, -0.0624060556, 0.1216752008, 0.0236240476, -0.0140730683, -0.0233547520, -0.0076218173, -0.0369565338, 0.0781120360, 0.0145790242, -0.0166525543, -0.0108274398, -0.0048744567, 0.0537743568, 0.0295275357, -0.0019215561, 0.0625549853, 0.0470367521, -0.0451995507, 0.0526469089, 0.0188809782, 0.0056221150, -0.0169624481, 0.0109465504, -0.0161639620, 0.0009620533, -0.0009187541, -0.0045869341, 0.0345030427, -0.0004458774, 0.0148177939, 0.0984232724, 0.0004248418, -0.0071450882, 0.0543911904, 0.0005313761, -0.0136016542, 0.0426693298, -0.0120666772, 0.0238172002, 0.1251301467, 0.0952102616, 0.0000000000, -0.0307726599, 0.0156346746, 0.0380482227, 0.0563449226, -0.0010585435, -0.1143702641, 0.1151605770, -0.0563396513, 0.1034532189, -0.0111569846, 0.0014493371, 0.0073812129, -0.0000300764, 0.0186675247, -0.0046828184, 0.0264425464, 0.0868585631, 0.0447804034, 0.0844345167, 0.0642064884, 0.0532034263, 0.0088055162, 0.0143043352, -0.0238496866, -0.0001143760, -0.0219720975, 0.0154422820, 0.0029364461, -0.0064119361, 0.0185023472, 0.1237728000, -0.0427113473, -0.0244175140, 0.0487674177, 0.0203261580, 0.0426901616, -0.0204144325, 0.0737546682, 0.0689291134, -0.0802641138, 0.0652049035, -0.0792950466, -0.0000719012, -0.0522369258, 0.0523272157, 0.0671318397, -0.0000014825, -0.0586580932, -0.0631223246, -0.0628313124, 0.0039185649, 0.1130683050, -0.0129104704, -0.0259048883, 0.0476150662, 0.0423788615, -0.0198300071, -0.0002634900, -0.0224390477, 0.0005933136, -0.0904832333, -0.0469831973, -0.0228002295, 0.0344250202, 0.0627768114, -0.0000000000, 0.0795687810, -0.0175602660, 0.0000000000, 0.0044013243, -0.0272688251, 0.0108309491, 