//Numpy array shape [1, 1, 16, 32]
//Min -0.694692313671
//Max 0.718847215176
//Number of zeros 0

#ifndef W47_H_
#define W47_H_

#ifndef __SYNTHESIS__
conv2d_53_weight_t w47[512];
#else
conv2d_53_weight_t w47[512] = {0.4693019390, -0.0117744533, -0.0851154923, -0.0000126807, 0.4399228096, -0.1255978793, -0.1909538656, -0.1963624209, 0.0578496791, 0.0575707033, -0.3281228244, 0.3951505423, 0.4461871088, -0.2217882127, 0.2956909537, 0.2107765824, -0.3296792507, 0.1389856040, -0.0402012058, 0.6644291878, -0.0287605692, -0.0155670047, 0.1232829541, -0.2139685452, 0.2237806171, 0.1686169803, 0.4094927907, 0.2357905209, -0.4323718548, -0.0967591777, -0.3736373484, -0.0369956605, 0.0752932876, -0.1704188883, 0.0030033749, -0.0073437644, 0.0199816618, 0.3555468321, -0.0377032980, 0.3195669949, -0.1333590746, -0.1412905008, 0.0815456659, 0.0291706473, -0.3358781338, -0.0006285610, -0.0363855697, -0.1798793077, 0.1333934814, -0.1695771813, -0.0015955702, 0.0623695143, -0.1147388518, -0.4226941168, 0.2993902266, -0.1046712697, -0.5723965168, 0.5366603732, 0.2294228524, 0.6634911895, -0.1362766027, 0.0837298334, -0.0860064849, 0.2411573529, -0.2354238182, -0.0233849734, -0.0020620837, -0.0896130577, 0.2006204426, -0.0938150063, -0.2135451436, 0.0869114026, 0.0056553283, -0.1011214480, 0.2475555539, 0.0406202413, 0.0108556021, 0.0000733804, -0.3726552725, -0.1703092307, 0.0000383003, -0.0014328762, 0.0212554447, 0.1352689564, -0.1389843225, 0.3975721598, -0.5096234083, -0.1865738630, 0.4937085509, -0.3059724569, 0.3861220777, 0.3380331099, 0.1808018386, 0.2456637174, -0.1607558429, 0.0000047636, -0.0997896343, 0.0000069389, 0.1361653507, 0.1621175706, 0.5174487233, -0.1075510532, 0.0000000008, 0.3518463671, -0.0758078918, -0.3803328872, -0.4520370662, 0.1531205475, -0.0345090777, 0.1670432240, -0.3282781839, 0.0136977304, 0.4803369343, 0.1160615757, -0.0515644923, 0.2118747532, -0.0930464044, 0.1146030873, -0.1630988270, -0.0444069766, -0.0052568177, 0.4839790165, -0.4435310662, -0.1205596253, -0.0136166960, -0.2025132477, -0.2783489525, -0.3303450942, -0.4328163564, 0.2397435308, 0.2039714605, 0.1837633997, -0.0684246719, 0.2530493736, -0.1362768561, 0.0000000092, 0.1209670678, -0.2992757559, 0.3179969490, -0.1833194494, 0.2719092071, 0.1972149462, -0.0009889686, 0.0176846590, 0.0195959490, -0.1002893895, 0.4621421993, -0.0000000000, -0.3960723281, -0.6946923137, -0.0000000000, -0.1514580846, -0.1457580775, 0.5339822173, 0.4529204071, -0.3312214017, 0.5611194372, 0.2739098966, -0.2490086257, -0.1160250902, 0.1322750598, 0.0361597687, -0.0003795939, -0.0310397781, 0.3911298811, 0.0569300167, 0.1431530863, 0.1619453430, -0.1603744477, 0.2822706997, -0.2965240180, -0.1483099610, 0.0000256035, -0.2140634507, 0.0212499294, 0.0695084706, 0.2242569774, -0.0166941322, -0.2039590627, -0.1757371724, 0.1001649797, 0.7188472152, 0.3598666489, 0.2449225336, 0.1073276922, 0.1444834024, -0.2188890576, -0.3139575124, 0.2833339870, 0.1156251654, 0.3402357399, -0.0775432214, 0.0237258878, 0.2486368269, -0.1050568223, -0.0000000000, 0.0925886855, -0.0078473501, -0.1010651514, 0.0453678481, 0.0278397389, -0.0058583841, -0.0298497025, 0.0124572236, 0.4361118376, -0.3190890849, 0.1598772556, 0.0666298047, -0.4959133267, 0.0934015736, -0.2959182262, 0.2275085598, 0.0969577879, 0.1530809104, -0.0446392745, -0.0003200910, 0.0819531307, -0.2641656101, 0.1039507911, -0.1610488594, 0.2540332675, -0.0527059734, 0.6811571717, -0.0218636505, 0.2536360919, 0.1875109375, 0.0006815851, 0.0521580912, 0.0250144135, -0.0593317933, 0.0003090009, -0.1952352226, 0.4063751996, 0.5564320683, 0.0464809798, 0.0308922231, -0.2262050509, -0.2264758646, 0.1243754774, -0.3038029671, 0.0929566622, 0.2314044833, 0.0079162754, 0.2941774428, 0.3104697764, 0.3373910189, -0.0824288502, -0.0382445045, -0.1038152352, -0.2937186360, 0.0098207826, -0.3688745499, 0.3667131066, 0.0461056270, -0.1780475974, 0.0500637479, 0.0991917551, -0.2174998224, -0.0912897512, 0.0267136618, -0.3868143559, -0.0689510927, 0.0897598416, 0.3655994833, -0.0903309733, 0.0520440862, 0.0264724251, 0.2659545243, 0.0371801183, 0.2723720670, 0.0513364524, -0.0271995589, -0.4852042496, -0.2811735570, -0.1250596344, -0.4420327246, -0.0487283207, -0.3839446604, -0.3101748526, -0.3495829999, -0.1300001144, 0.1017695963, 0.1225847155, 0.4840922952, -0.1855600327, 0.3004600108, 0.0395943634, -0.1234123558, -0.0303696506, 0.0109629398, 0.1869741678, -0.1604336798, -0.0142071145, -0.1553553492, 0.2375195622, -0.0048610861, -0.0015736278, -0.0354421139, 0.1240609288, 0.2258359492, -0.2002469003, 0.2977132201, -0.0412691236, 0.1550408304, -0.0096232323, -0.0009539998, -0.0216132496, 0.0168683771, -0.0024869740, 0.4497689009, 0.0694694296, 0.0059389528, 0.1042890921, 0.0510314964, -0.0835399255, -0.1244657040, -0.0545422286, -0.0017294073, 0.2340530753, -0.1602221578, 0.3546276093, 0.1661086828, -0.2899297178, -0.0002501245, -0.0756395087, 0.3916185796, 0.3773454130, -0.4181393385, -0.1364036798, 0.3441458046, -0.5724075437, 0.2472221553, 0.2054264098, -0.1221198589, 0.0528144501, 0.1318254769, -0.2586615384, 0.5490214825, 0.3412752450, -0.0283145886, -0.2929249108, -0.2229545265, 0.1026715785, 0.3122756183, -0.2820748091, 0.0042239637, 0.2961467803, 0.2516515255, 0.0479506515, -0.3966043890, 0.5729363561, -0.0448725186, 0.0984835029, 0.1278799623, -0.0705512092, 0.1647526920, 0.0084049199, -0.1391439885, -0.1971789002, 0.0698567852, 0.0232084040, 0.4314019680, -0.0701226071, 0.0998267531, 0.1586569995, 0.4417093396, 0.0842308849, -0.2265186906, -0.1094807014, 0.1057920605, -0.3921794891, -0.2739264071, -0.0747645125, 0.0487904847, -0.0230251830, -0.0090710055, -0.2263947725, -0.1189671606, -0.4249537885, 0.2188984603, 0.0279233176, -0.1714346111, -0.4088969529, 0.1403818876, 0.1122380644, -0.1327026039, -0.0141528985, 0.0078350268, 0.0931125805, 0.0128319822, -0.1139834151, 0.1283008009, 0.4033465385, 0.3774441481, -0.1448993236, -0.1272090971, -0.0000983076, 0.0542433746, -0.1860934794, -0.0855256394, -0.0169456359, -0.0154384999, -0.2572180629, -0.0165231191, 0.1277849972, 0.0956859812, 0.2136232257, -0.0667207167, -0.0795548409, 0.1978413165, -0.0187110063, 0.3996582627, -0.6684716344, -0.1007104963, 0.2967420220, 0.0457492210, 0.3061919808, -0.4408895373, -0.2925337553, -0.0329789594, -0.3920580447, 0.3152094781, -0.0022739996, 0.0084049124, -0.0113593014, 0.0615839809, 0.1106583998, -0.2497858703, -0.0311108790, 0.2807222009, -0.0889547393, -0.2048026323, 0.4283663332, -0.0560930446, 0.0045608208, 0.3890967071, 0.3070340157, -0.0793751478, 0.1550569534, 0.0023417640, 0.1419780850, 0.0466929115, 0.1223872975, 0.1322187185, 0.4840181172, -0.0451351479, -0.2715800107, 0.1092973575, 0.2628034949, 0.1074074432, 0.5473806858, -0.0400330573, 0.4136293828, 0.6086123586, -0.0509195924, -0.0021196972, 0.5505399108, 0.0671878308, -0.2768624723, -0.3223238289, -0.2585538924, 0.1854620427, -0.0000128487, 0.2691817284, -0.5049201846, -0.0227143280, 0.1593399942, 0.0037361253, 0.1313637942, 0.1250908077, -0.2021204233, -0.0015479174, -0.2675266862, -0.1747858226, -0.1790099293, 0.0047417409, -0.3609958589, -0.0001413561, -0.5694159269, 0.0975987241, -0.0021098244, -0.2563636899, -0.0553448461, 0.2078219056, -0.1451660693, -0.0574334972, 0.1269166619, 0.0372030362, -0.1563223004, -0.2120330185, 0.3837406039, 0.0514946729, 0.0520487726, -0.0026585381, 0.0090386476, 0.3211473823, 0.6051292419, -0.0079573449, -0.0000102165, 0.1088725626, -0.0004549819, -0.0587958246, -0.3935886323, 0.0177164003, -0.1884264499, -0.1215378121, 0.3054322898, 0.2701171339, 0.0973303095, 0.0000000000, -0.3885975182, 0.0187834222};
#endif

#endif
