//Numpy array shape [3, 3, 16, 16]
//Min -0.266667664051
//Max 0.265876233578
//Number of zeros 0

#ifndef W6_H_
#define W6_H_

#ifndef __SYNTHESIS__
conv2d_49_weight_t w6[2304];
#else
conv2d_49_weight_t w6[2304] = {-0.0456957333, 0.1530797184, 0.2240071744, -0.0747943372, 0.1136319190, -0.0183275230, -0.0348341689, -0.0000000027, 0.1870761961, 0.1666762382, -0.0958462656, 0.0000000000, -0.0367139615, -0.0621959381, 0.1465418339, 0.0669097081, -0.0316615440, -0.1670314670, 0.1411450058, -0.1050051451, 0.0720722899, -0.0642675459, 0.0993504748, 0.0282091945, 0.2353499681, 0.0880176425, 0.0388777070, 0.0074430779, -0.0166603345, -0.1522401571, 0.0339415334, -0.0309441518, 0.0005792012, 0.1997110844, 0.2077534199, -0.0903984457, -0.0086183855, 0.0192205291, 0.0417339131, -0.0313847475, -0.0873836726, -0.0469567925, -0.0142993545, -0.0614637695, 0.1790330112, 0.0912993550, 0.0122746928, -0.0608571358, 0.1143586710, 0.0584175177, 0.0843559802, 0.0173932966, -0.0195349585, -0.0067894920, 0.0532791317, 0.0962309167, 0.0514164194, -0.0635318980, 0.0415158719, 0.0010099979, -0.0529183671, -0.0555723757, -0.0746861473, -0.0175333954, 0.0743338317, 0.0640055761, -0.1106696650, 0.1823642105, -0.0479082726, -0.0000538556, 0.1925894767, 0.0243738052, -0.0812955201, 0.1327382028, -0.0584965795, -0.0066811792, -0.0576834567, 0.1802450866, 0.0000018677, 0.0280851591, 0.1208172590, -0.0962724537, 0.2025142312, -0.0075104614, -0.1433989257, 0.0330504216, -0.0837682411, 0.1639398634, -0.2375709116, -0.0783237889, 0.0007182086, -0.1533559710, -0.1130067930, 0.0641250089, -0.0658291653, 0.0404337496, 0.0613068752, -0.0330658145, 0.0027711887, -0.0459207594, -0.1217490956, -0.0251341462, 0.1355124414, 0.1633829325, -0.1444035619, -0.0000135892, -0.0588219613, 0.0201212838, -0.0392816477, 0.1610706151, 0.1123401299, 0.0315149017, -0.0020902075, -0.0488178805, 0.0021094407, 0.0814145803, 0.0207213573, -0.0574854538, 0.1777340174, -0.0002028600, 0.1909791678, -0.1423423290, -0.0594413057, 0.0000000000, -0.1184227318, -0.0030415822, -0.2062877119, 0.2027419508, 0.0063191871, 0.0043731285, 0.1483135074, 0.0201080907, -0.0074856756, 0.0301780589, -0.0610478669, 0.1629177779, -0.1914287210, -0.1273219138, -0.1620910168, 0.1298272014, -0.0573786274, -0.0292115994, 0.1763058007, 0.0067559285, 0.0071044401, -0.0777789056, 0.1239286885, 0.0052405000, -0.0645822883, 0.0932160541, 0.1761391461, -0.1400960535, -0.0546053834, -0.1056057438, 0.0594543181, -0.0104915649, 0.0307356678, 0.0590091683, 0.0340941213, 0.1839633435, 0.0677998513, -0.0756430700, -0.1873286963, 0.0288156550, 0.0032114829, 0.0329935774, -0.0248573646, -0.1262760758, 0.2097838521, 0.1132577211, 0.0003589672, 0.0897263661, -0.1631510109, -0.0875310078, -0.0179631431, -0.0911723971, 0.0506011993, -0.1360418797, 0.0909143463, 0.0593790375, -0.1543561071, 0.1036396921, 0.0400955789, 0.0253838561, 0.0477128401, -0.0151109193, -0.0485310964, 0.0602414906, 0.1158330366, 0.0368755199, 0.0601442344, -0.0535792783, 0.0227055158, -0.0784626603, -0.0048700771, 0.0609154291, -0.1987494677, -0.0075907060, -0.0886941254, -0.0854830965, 0.0056251865, -0.0803565159, 0.0945935696, -0.0069307196, 0.0861321092, -0.1220277771, -0.0513128489, 0.0370878726, -0.0069666151, 0.1967099905, -0.1274674237, -0.0659650713, 0.0081209512, 0.0649539679, 0.0670569986, -0.1407646686, -0.0966631249, 0.0467011072, 0.0668192282, -0.0238256231, 0.1063118204, 0.1095312610, 0.1215117574, 0.0741036460, 0.0191669352, 0.1224578768, -0.0439656153, 0.0007402434, 0.0005383980, 0.0742638633, 0.0557219535, 0.0481401272, 0.1321982890, 0.0039324681, 0.0134777641, 0.0503576547, -0.0235068146, -0.0444212481, -0.0698904321, -0.0857869238, -0.0000770428, 0.0635182410, 0.1458036751, 0.1508212239, -0.1114897728, -0.0203660000, -0.0978048742, 0.0995202437, -0.0551826581, 0.1482783854, -0.0342801102, 0.0263434760, -0.2247556746, 0.0050716586, -0.1248168126, 0.0302427728, 0.0712024644, -0.0588982999, 0.1290169209, -0.0258149616, -0.0195485950, -0.0273044221, -0.1618013531, -0.0000421338, 0.0327938870, -0.1012767404, -0.1128231138, 0.0091172177, -0.0036187612, 0.0728190243, -0.0020513937, -0.2666676641, -0.0024895240, 0.0492193624, 0.1262055635, 0.1476584673, 0.0325016789, -0.0954016820, 0.0987657234, 0.1209359095, -0.1934601516, -0.0251385644, 0.0310681742, 0.0998374447, 0.1710642874, 0.1078115702, 0.0205454603, -0.1234544069, 0.1073806807, 0.0291465484, 0.0029509573, -0.0015505707, -0.0310530122, 0.0067951703, 0.0875818133, 0.1178630590, 0.1139045060, -0.1361721903, -0.0391968526, -0.0065977545, 0.0515265465, 0.1392421126, 0.0489096940, 0.0328443497, 0.0089802593, 0.0212767646, 0.0843790546, -0.0039763800, 0.0000438191, 0.0793349072, -0.0672605187, 0.0020882159, 0.1467176527, 0.1170006022, -0.0469065718, 0.0016652929, -0.1828587353, 0.0565555803, 0.0019368908, -0.0332107097, -0.0064956099, -0.0028247414, 0.1565191448, 0.1805068403, 0.0471073799, -0.0000000001, -0.0237591565, -0.0617604256, 0.1068442464, -0.0885269046, 0.0185232628, 0.0000000000, -0.0001835922, -0.0221475493, -0.0355079547, 0.1477624625, 0.0269551445, -0.0312685966, 0.0479077697, -0.0206672922, 0.0868175775, 0.0556832999, -0.1380077899, -0.2180653811, 0.0063494015, -0.1548256427, -0.1138006523, -0.0320778936, -0.0403102711, 0.1093624011, -0.0000000000, -0.0458605401, -0.0149479881, 0.0790132955, -0.0110811219, -0.1054896861, 0.0368362442, -0.0272224564, -0.1718801260, 0.0546898134, -0.0309332311, 0.0076025054, 0.0557605848, 0.0000195376, -0.0667947680, -0.0039699427, 0.0523815192, -0.1188427061, -0.0140896058, 0.1027169824, 0.0154866343, -0.0883126780, -0.0060304785, -0.1375034750, -0.0307433549, 0.0060761939, 0.1727580130, -0.0627719238, 0.0291422624, -0.0449940562, -0.0984685645, -0.1442181319, 0.0811155587, -0.0961368829, -0.1414384693, -0.0152518610, 0.1885723621, -0.0234409925, 0.0000000000, 0.0478073172, -0.0964123011, -0.0321905836, 0.2203103602, -0.0473525748, -0.0015662876, 0.0171783920, 0.0983924270, -0.0583222508, -0.0831312239, 0.1516306996, 0.0668435395, -0.1471488476, -0.1220796332, 0.2150462270, 0.0398066901, 0.0053055640, -0.0328120403, -0.1392345726, 0.0125396550, -0.1467441469, 0.0773600116, -0.0194174051, 0.0200441554, 0.0225857869, -0.0602959730, 0.1435340345, 0.0361572467, 0.1611696333, 0.0104997493, 0.0696227998, -0.1067245975, 0.0797575116, 0.0552219413, -0.2489137352, 0.1413155496, -0.0154293170, 0.0203871783, -0.0475289896, 0.0506408289, 0.0666860566, 0.1059460863, -0.2464585155, 0.1391466260, 0.0108952662, 0.0800578818, 0.1593822837, 0.0402471386, 0.1013669595, -0.0588715859, -0.0174445864, -0.0288013667, 0.0862859040, 0.0579291806, 0.0183677319, 0.1938977242, -0.2120230347, 0.0952160805, -0.1728632003, -0.0463640206, 0.0968643054, 0.1366708279, 0.1763303280, -0.1309544146, -0.1157431602, 0.0930313244, 0.0613115318, 0.1994752586, 0.0526633859, 0.0855400711, -0.0324073136, -0.0428114347, -0.1515129507, -0.0495606959, -0.0035196755, -0.0523173250, -0.2004399002, -0.1878079027, -0.0239792783, 0.0072187074, -0.0248876195, -0.0677780360, -0.1915470511, 0.1861779690, -0.0964351967, 0.0559729971, -0.1394908577, 0.0527887344, -0.1386646032, 0.0379847735, -0.1293376684, 0.0284253322, -0.1159046441, 0.1022983938, -0.0132915862, -0.0752270371, 0.0008788516, -0.0406235680, -0.0740073100, 0.0090334835, -0.1849562228, 0.0000005064, -0.0023540864, -0.0628288686, 0.0152034387, -0.1211421341, -0.0517326891, -0.0000101205, 0.0637974739, 0.0209084712, 0.0249359701, -0.0157788098, 0.0403977558, 0.0078877313, -0.0377643630, -0.0203111600, -0.0379688665, 0.0601309352, -0.0353918634, 0.0942170396, -0.1052777916, 0.0233913511, 0.0345623903, -0.0272946227, -0.0042451499, 0.1943112612, 0.0665313378, 0.0000000000, -0.0016938683, -0.0147538902, 0.0747885033, -0.0876597837, -0.0952920690, -0.1786752939, 0.0000685280, 0.1236549169, -0.0314927213, 0.0383914821, -0.0016240450, 0.0358648375, 0.0708187744, -0.0198900495, -0.0637610778, 0.0237139370, 0.0000001172, -0.0011898014, 0.0485723540, 0.1549070776, -0.0244222321, -0.0838086531, 0.0001531649, -0.0307308100, 0.1400403976, 0.0337580554, 0.1035331786, -0.1228389367, 0.0248846300, 0.1184135824, 0.2593155205, 0.0180184301, 0.0038079647, 0.1016536057, -0.0427109562, -0.0781995654, 0.0572188422, 0.1546923518, -0.0507402942, 0.0770907179, -0.0273660719, -0.0045521860, -0.0006539809, 0.0037468977, -0.0161242429, -0.0498381890, 0.0160762854, -0.0160945207, -0.1778949499, -0.0650715679, -0.0221708156, -0.0297837555, 0.1079263911, 0.0768032074, 0.0710437223, -0.0671804398, 0.0812826157, -0.0337174237, -0.0445771590, 0.0370566249, -0.1187378168, -0.1141327545, -0.1995454580, 0.0230126772, -0.0000000011, 0.2096662223, 0.0417598002, 0.0160466786, -0.0400132537, -0.0073653813, -0.0000000198, 0.0497627780, -0.1373431087, -0.0315602869, -0.1543856412, -0.1141381264, -0.0025961583, 0.0685111955, 0.0886759236, 0.0557954907, 0.0272313878, -0.1727536619, -0.0520002171, -0.0623827502, 0.1007018089, 0.0562471449, 0.0066227484, 0.1223045960, -0.1189745665, -0.0283748303, -0.1085555479, 0.0120120728, 0.0407754220, -0.0758240893, 0.2480777353, -0.0158763286, 0.0000000000, 0.1192681417, -0.1207024306, 0.1456609964, 0.0175165776, 0.1025371253, -0.0002090261, 0.1084877551, 0.0590028167, -0.0935868472, -0.0413241014, -0.0017569532, 0.0980287790, 0.0004496898, -0.0648740232, -0.0854705647, -0.0148055246, -0.1028611362, -0.0123637496, -0.1447658241, -0.1304725856, -0.0751286000, 0.0357193910, 0.0415268391, 0.1553372890, 0.1194394380, -0.1560706794, -0.0159468986, 0.1186134368, -0.0218863152, -0.0506131686, 0.0295370948, -0.1461597681, 0.1674765646, 0.0811180174, -0.1319777519, -0.1090827435, -0.0891622603, -0.0886316001, -0.0162434597, -0.1455539316, -0.0579728521, -0.0699023902, 0.1820398867, 0.0766173601, -0.0989708826, 0.0760142356, 0.0273763556, 0.0000000015, -0.1250340492, -0.0545571074, 0.0656101108, -0.0105661172, -0.1092789173, 0.0484581590, 0.0680353194, -0.0819118693, -0.0132259289, 0.1258470714, 0.0167053398, 0.0616477504, -0.0822337568, 0.0070318803, 0.1063188016, 0.0341035798, 0.0517490543, 0.0048411340, -0.1496172398, 0.0002564253, 0.0196079202, -0.0004008023, 0.0164657366, -0.1587253213, -0.1130557135, -0.1685629189, -0.0335366987, -0.1095377728, -0.0194015894, -0.0572007783, -0.0064908676, 0.0152851492, -0.0453024730, -0.1337547302, -0.0220586043, 0.0249263961, -0.0000154326, -0.0492943935, 0.0763232410, -0.1675841212, 0.1793587208, -0.1234458238, -0.0651727915, 0.1788029075, -0.1195313707, 0.0495355241, -0.0040935897, -0.1304309815, -0.0563559346, -0.0316984132, 0.0424767546, 0.0106673129, 0.0582297519, 0.0594285838, 0.0820001364, -0.1360841691, 0.1370211691, 0.1585308164, -0.1055785194, 0.1847918183, -0.1830554456, -0.0036910120, 0.0024021834, 0.1048772186, -0.1047327220, -0.1343811899, 0.1435695589, -0.0788307041, 0.0220508147, 0.0240797065, 0.0012526681, 0.1335206032, 0.0032261442, 0.0268928520, 0.0189706888, 0.0697036833, -0.0764212310, 0.0004972438, -0.0039659748, 0.0141228847, -0.0372354724, -0.0495796613, -0.0280763991, -0.1204019785, 0.1527196318, 0.0545331687, -0.0504539236, -0.0134482067, 0.1458758116, 0.0716888309, -0.0708805770, -0.2186781615, 0.0131108891, 0.2029180974, -0.0970884934, -0.0709580332, -0.2040488422, 0.0158609450, -0.0764110312, -0.0575229265, -0.1184657961, -0.0258983057, 0.0736516118, 0.1021892801, -0.1095666885, -0.0131836124, 0.0917073488, -0.0479865931, -0.0587982014, 0.0316633545, 0.0258137677, -0.0348234065, 0.1826709062, 0.1358857900, -0.0738536716, 0.0107928710, 0.0597132333, -0.0674747154, -0.0266289245, 0.1899206936, 0.0702995360, -0.1433896124, 0.1676281542, -0.0566711612, -0.0531638861, -0.2008767426, -0.0256069787, -0.0215900615, -0.0574982874, 0.0155057535, -0.1558387280, -0.0143889775, -0.0015720004, -0.0103004575, -0.0090871928, 0.0104152150, 0.1669371724, 0.2267109752, -0.0129751833, -0.0551490262, 0.0214968957, -0.0279994346, 0.0961019844, 0.0157185979, -0.0416204557, 0.0059518348, 0.2555212677, -0.0775488392, -0.0283390507, -0.0123330755, 0.1920798123, -0.1253839433, -0.0065102405, -0.1011454165, -0.0418767184, 0.0491213016, 0.2124676853, -0.1331899464, -0.0069075972, -0.0001565654, 0.0745660216, 0.0681907162, 0.0207961202, 0.0553135946, -0.1908345670, 0.0717074648, 0.0085286507, 0.0422205701, -0.0375133529, 0.0322947726, -0.1786262691, -0.2125287950, 0.0196271315, -0.0302477106, 0.0094824499, -0.0242057815, 0.0085581467, 0.0806954205, -0.0003966234, 0.1794697344, 0.0141449058, 0.1349813044, 0.1741202474, 0.2006724030, -0.1614266485, 0.0405556187, -0.0061615496, 0.1680759043, 0.0612893403, -0.2219933867, 0.0291854348, 0.0862984583, -0.0432316512, -0.0003852735, 0.0165381227, 0.1147017032, -0.0428260192, 0.0597352050, -0.0579236522, 0.0940409154, -0.1162800342, 0.0122974599, 0.1444014311, -0.0224490464, -0.0675506517, -0.0629564375, -0.1458539218, -0.0130199678, 0.0347174704, 0.1839407682, -0.2067074329, -0.0455444194, 0.0198488683, -0.0019244136, 0.0000000001, 0.1585069001, 0.0778235644, -0.0832100883, 0.0725649074, -0.0252065305, -0.0430978201, -0.0792465061, -0.1518428177, -0.0228096899, 0.0140995523, 0.1137926430, -0.0775082782, 0.0201836396, 0.1543128043, 0.0013999123, 0.0249545705, -0.1213293895, -0.0255327728, -0.1006048024, -0.0346464142, -0.0088281082, -0.1465019435, 0.1485105157, 0.0302504431, -0.0457562953, 0.0747120753, 0.0373221934, 0.0040741502, 0.0173856765, -0.0546001419, 0.0144318296, -0.0093427403, -0.2142872661, 0.0180617534, 0.0460957289, -0.0874338076, -0.1389279068, 0.2196833491, 0.0186888054, 0.0074652084, 0.0828356743, 0.1414988339, -0.0502256528, 0.0451673754, -0.0181190204, -0.0000000179, -0.1146706492, 0.0865909085, -0.1627235860, -0.0280831642, 0.0216378607, -0.0890035406, 0.2057608217, 0.0459189042, 0.2143794149, 0.1273036599, -0.0000121269, 0.2235433459, -0.0000336381, 0.1159225479, -0.1288160086, -0.0809099823, 0.0205508675, -0.1244689301, 0.0458311103, 0.0481498986, 0.0986877233, 0.1423970163, 0.1589949876, 0.0510122404, -0.0779494792, -0.0828062817, 0.0622749627, 0.1065667123, -0.1524090171, 0.0065902765, -0.0554382764, -0.0101485224, -0.0458995327, 0.0435758568, -0.1146258041, -0.0358530916, -0.1226090938, 0.0472876802, -0.1443691403, 0.1743717790, 0.0867457688, 0.0797666237, 0.0568494722, 0.0014665641, 0.2305800170, -0.1651495546, -0.0560023263, 0.1278872937, 0.0016638818, 0.0076419972, 0.0254494771, 0.0633915365, 0.0309862737, 0.0000001406, 0.1207051054, -0.1539366096, -0.0782023594, 0.0563918762, 0.0746940076, 0.1148389652, 0.1499928534, -0.1117113903, -0.1061820164, 0.0224770866, 0.0061786133, 0.0737837180, 0.0594864599, 0.0724967271, -0.0442358218, -0.0119183240, 0.0205250606, 0.0514140949, -0.2169722915, -0.0469317436, 0.0617222227, 0.0702379346, -0.0524984896, -0.0776113644, 0.0190121923, 0.1010966375, -0.0900700018, -0.0034322238, -0.0031798515, 0.1321096569, -0.0075031761, -0.0513458885, 0.1429712921, -0.1150664315, -0.0289197378, -0.0190777648, -0.0071391584, -0.2131252289, -0.1363544613, -0.0572725832, -0.0803814083, -0.0311805904, -0.0000000007, -0.0202556532, -0.0160740837, 0.0634993166, -0.0711690709, 0.0000816538, 0.1323399395, 0.1524866074, 0.0207263324, 0.0021616360, -0.0100017274, 0.0010361845, 0.1513385773, 0.0093324455, -0.1003203392, -0.0434962213, 0.0204450134, -0.2129083127, 0.0131009147, -0.0832745135, 0.0511040054, -0.0001310049, 0.0182416439, 0.0849614888, -0.1410127729, -0.0950381309, 0.0032571461, -0.0036591075, 0.0231313091, -0.1115332395, -0.1166933179, 0.1617012769, -0.0269790012, 0.0179727226, 0.2658762336, -0.0025932051, -0.0340410136, 0.0336830691, -0.1080723554, 0.1356623173, -0.0703539774, 0.1017157882, -0.0004931303, -0.0918987617, 0.0646653548, -0.1344451159, -0.1878139079, 0.0544098020, -0.0714114457, -0.0895139202, 0.0418093652, -0.0231899973, -0.1113494486, -0.0002633738, 0.0933535621, -0.0600621291, 0.0363217741, -0.1351150274, -0.0431846641, 0.0272722542, 0.0279062279, -0.0199435968, -0.0069070901, 0.0792573616, 0.0426108502, -0.0772139281, -0.0089269048, -0.0453281440, 0.1944927722, -0.0118790437, 0.0728416890, 0.0809610114, 0.1427801996, 0.0168397892, -0.0000574389, -0.1513429433, 0.0774370804, 0.1046248823, 0.0038803394, -0.0986792445, -0.0824859664, 0.0741631761, -0.1892661750, 0.0000031747, -0.2264995873, 0.0596883297, 0.1220338717, 0.0466997810, -0.1628596634, 0.0020275132, -0.0059646699, 0.0464134179, 0.1290394068, 0.1243770197, -0.1861142367, 0.0055045099, 0.1024365351, 0.0824480504, -0.0562485084, 0.1268467605, -0.0332162492, -0.0464573577, 0.2290367335, -0.1452822238, 0.1031011641, 0.1452468932, 0.0009836970, 0.1111815497, -0.0806217566, -0.0662266016, 0.1171506867, 0.0511340573, -0.0307354331, -0.0000000000, -0.0668877438, 0.0345269032, 0.0490850061, 0.1080008000, 0.0723777339, 0.0300778616, 0.1035129949, 0.0528817885, 0.0143540259, -0.1734086275, 0.0349397995, 0.0106416354, 0.0896336511, -0.1628958732, -0.0035452745, 0.1508461386, 0.1280637830, -0.1467743516, -0.0647898912, -0.0954268798, -0.0844934657, 0.0535844117, -0.0472364053, -0.1177528203, -0.0962672532, -0.1233949736, -0.0097993640, -0.0668604001, -0.0641788840, -0.1918832362, 0.1870406270, 0.2260062993, 0.1358848512, -0.0538144186, 0.0618024096, 0.0043684188, 0.1387237161, -0.0755027607, -0.1683024317, 0.0000073048, 0.0080213873, 0.1093557179, -0.0737209842, 0.1055239886, -0.1214750782, -0.0505156070, -0.0524883233, 0.0039748847, 0.0094150109, -0.0586511940, -0.0312803313, -0.1410824805, 0.1003166437, 0.0624247231, 0.1628114134, 0.0567753799, 0.0233557932, -0.0397517495, 0.1199016199, 0.1257229149, -0.0405323915, -0.0174207892, -0.0296706147, 0.0690459013, -0.0008742248, 0.0229248554, -0.1283494234, 0.0957740843, -0.0763844401, -0.1817760020, -0.0951770917, 0.0050982172, 0.0956691280, 0.0850867927, -0.0131064206, -0.0059286235, 0.0801001489, 0.0074217827, 0.0959993154, 0.0152667481, -0.2662743926, -0.1220963523, 0.1152367219, -0.1563057601, 0.0523030758, -0.0546481907, -0.0651509166, 0.0225237943, 0.0079701738, 0.1268587857, -0.0224610288, 0.0756209269, -0.0703379437, 0.0153820636, 0.0020822445, 0.0000003686, -0.1395591944, 0.0521210469, -0.0416823514, -0.1311264783, -0.2334311306, -0.0828542560, 0.0490066744, -0.0398737751, -0.0285829306, 0.1105815247, -0.0743430704, 0.0168061610, -0.1264410615, 0.0539460890, -0.0388760008, 0.1774483472, 0.0921098813, 0.0894329399, 0.0347356386, -0.0020180678, -0.1761270761, -0.0050097909, -0.1752033681, -0.0296643730, 0.0154758934, 0.0009564625, -0.2348880172, -0.0549943708, -0.0403709933, -0.0162557662, 0.1493382454, -0.0613503270, -0.0000143598, -0.0275853407, 0.0488794558, -0.0638709739, 0.0192611311, 0.0112021165, -0.1610682756, -0.0367449000, -0.0349922702, 0.0036609143, -0.0718665496, 0.1263227761, -0.0851037204, 0.1384492815, -0.0376997851, 0.1113817766, -0.0685293972, -0.1122869253, 0.2078967392, 0.0031312678, -0.0136659322, 0.0497036725, -0.0000000000, 0.0070222383, -0.0376285091, 0.0646792650, -0.0926476717, -0.1126527116, 0.0216924809, -0.1168730855, 0.0799708888, -0.0562114008, 0.1095183566, 0.0117358668, 0.0959459916, 0.0000661477, -0.0365059823, -0.0617426224, -0.0470690727, -0.0283480175, -0.0644579157, 0.0772180483, -0.0455854982, 0.0060276766, -0.0983241647, -0.0315828212, -0.0015362592, -0.0492504276, 0.0298211183, -0.0188551135, 0.0117208529, 0.1370803118, -0.0579261631, -0.0872089639, -0.0826006681, 0.1082784981, -0.0000000031, 0.0362258144, 0.0061663170, -0.0977280512, 0.0572822206, -0.1464148164, -0.0598325580, 0.1514378488, 0.1206135675, 0.0060939891, -0.1639566272, -0.0025286488, 0.0664341375, 0.0066869049, -0.0495286658, 0.1161713153, 0.0803947449, -0.0384103358, 0.0849165320, -0.1193595976, 0.0373534299, -0.0207925029, -0.0233038925, -0.1487142444, -0.1924906522, -0.0282988902, 0.2270525098, 0.1325470358, -0.0722918212, -0.1111066788, 0.1011198014, 0.0508103222, 0.0559363738, -0.0342637114, 0.0506895743, 0.0549419224, 0.0225522388, -0.1370284110, 0.1612898558, 0.1117658243, 0.1159827709, -0.0000001802, -0.0069041308, 0.0111325588, 0.0337344781, 0.0228855517, 0.1114935279, -0.0375103876, 0.0719127953, 0.2262394428, -0.1318469197, 0.0150810275, 0.1984910816, -0.0330728181, 0.0661376044, 0.2537165582, 0.1480570287, 0.0285992287, 0.0310794543, 0.1666013747, -0.0112590529, -0.1201671362, 0.2618052661, 0.0012725710, -0.0000865730, 0.0021420093, 0.0563922636, 0.0064838203, 0.0586073808, 0.0979259163, 0.0371968560, -0.0088362377, 0.0399074964, 0.2333216220, 0.0222073626, 0.1367823333, -0.1288700253, 0.1628023386, -0.0951940343, -0.0763877034, -0.0100725032, -0.0333627723, 0.1655315906, -0.0924905613, -0.0633656159, -0.0269429646, -0.0018032661, -0.0817841664, 0.1437187195, -0.0836369321, 0.0837791860, -0.0176122542, 0.0541314818, 0.0610607155, 0.0043155029, -0.0061890692, -0.0946843401, -0.0158643257, -0.1871765554, 0.0503339171, -0.0228102244, 0.0225727353, 0.0916810259, -0.1781156957, 0.0639547110, 0.0345685333, -0.0000000000, -0.0585027151, 0.1157126278, 0.1202967092, 0.0811811239, -0.0846517012, 0.0671953782, -0.0372272469, -0.0029913301, -0.0728082880, -0.0198996179, -0.0299355816, -0.0663720667, -0.2212859690, -0.0958388075, 0.0573953427, 0.1491810381, -0.0323333666, 0.0457932837, -0.0063749398, 0.0803600103, 0.1091054082, 0.0067383200, -0.0115653379, 0.0297668837, -0.0722620115, -0.0806810334, -0.0948843807, -0.0000021769, -0.0001011493, 0.1742663682, -0.0164563674, -0.0214844886, -0.0225972813, 0.2590031922, -0.2045954168, 0.0958558545, -0.0527484342, 0.0195266958, -0.1451294869, -0.0455906577, 0.0021844162, -0.1423065811, 0.0223479792, 0.0320492424, -0.1312566251, 0.0907125399, 0.0047343629, -0.1063148379, -0.0176614989, -0.1713197678, -0.0577924214, -0.0982588753, 0.0559570119, 0.0000000000, 0.0621801652, 0.0789890960, -0.0700275376, 0.0382987000, -0.0171463508, -0.0022108250, -0.0204632934, -0.0323571414, 0.2109505534, -0.0247643963, 0.0438742042, -0.0826129019, -0.2573432624, 0.0845722035, 0.0008594167, -0.0985648707, 0.2500610352, -0.0098062055, 0.0343051404, 0.0192151070, 0.0005772815, 0.0852649808, 0.0752671063, 0.0626104772, -0.0191767085, -0.0619442277, 0.0241973847, 0.0279509071, 0.0148155959, -0.0889359564, 0.0200419221, 0.0706917420, 0.0266208593, -0.0557882264, 0.2074811608, -0.0252578873, -0.0161209852, -0.0376348048, 0.0575771630, 0.0579225011, -0.0456804000, 0.0791983604, -0.0174629577, -0.0533438809, -0.0372775197, 0.1555856615, -0.1845005751, 0.0663562045, -0.0777061433, -0.0995757952, 0.1092314422, -0.1249310449, 0.2024342865, -0.0266611036, 0.2386523187, 0.2271129340, -0.0038029996, -0.0870023221, 0.0240639057, -0.0832244009, 0.0746549666, -0.1802728623, -0.0370927341, -0.0256800298, -0.2314914465, 0.0266632009, 0.0471773185, 0.0692886636, -0.1576521397, -0.0113902334, 0.0282936059, 0.0290281251, 0.0459144861, -0.1478540897, 0.0713390931, 0.0704004392, 0.0000819877, -0.0200698711, 0.0296127144, -0.0471783541, -0.0108709559, -0.0169219188, 0.0000743202, -0.0082720565, 0.0009858684, -0.0211696327, -0.0279196575, 0.0582388826, -0.0355489552, 0.0597902909, -0.0183393490, 0.0797998682, 0.1234439462, 0.1646730602, 0.0987419859, 0.0129108774, -0.1671424061, -0.1781448424, -0.0924587771, 0.0447669588, -0.0429832190, -0.0150140049, -0.0078115705, 0.0761802346, 0.1692974865, 0.0499147289, -0.0052210358, 0.1050490886, 0.0951468796, -0.1243118867, 0.0503338389, 0.1844265610, 0.0933239460, 0.0273395684, -0.1569197327, 0.0231677890, -0.0045525110, -0.0015941964, 0.0074366317, -0.0298248399, 0.0011467593, -0.0385531820, -0.1002361998, 0.0296463761, -0.0123304250, -0.0274235569, 0.0026813380, -0.0928235054, -0.0477325581, 0.0000022237, -0.0700295493, -0.0124241645, 0.0748819634, 0.0162879154, 0.0506244674, -0.1994289458, -0.0801102668, 0.0252676308, -0.0852928311, 0.0424522646, 0.0692790970, -0.1163815781, 0.1868454218, 0.0591964051, 0.2019577473, 0.1250237823, 0.0182988141, 0.2008588016, 0.1973818988, -0.0027659144, 0.2239008099, 0.0137051307, 0.1307393461, 0.1332971305, 0.0433394611, 0.0693202168, 0.0526239015, 0.0688953176, -0.0000124225, 0.0126062836, 0.0237825643, 0.0346563607, -0.1167238355, 0.0270245541, -0.0502931923, -0.0694049224, -0.0349205993, 0.0491523854, 0.0043711192, -0.0555700846, -0.0000000059, -0.1518588215, 0.1193708703, 0.0437821336, 0.0329408608, -0.0878747106, -0.0015966651, -0.0401884094, -0.0267532151, -0.0257171132, -0.0673589557, -0.0008765528, -0.1519990861, -0.1201869249, -0.0005891091, -0.2181417793, 0.0003326003, 0.0309618451, 0.0146580767, 0.0390178375, 0.0525319241, -0.1357500106, -0.0009931176, -0.1130068898, 0.0893908888, -0.0178591777, 0.0524665937, -0.0075501921, 0.0981057808, -0.0000002737, -0.0630372614, -0.0930270776, 0.0429293141, 0.0018276355, -0.1893767118, 0.0860900134, 0.1108577102, 0.1921211034, 0.0636130050, -0.0877835974, -0.0138277207, 0.0416350327, 0.0567459576, -0.0350457318, -0.1917626709, -0.0586789250, 0.0117633389, 0.0858153254, 0.0529488474, -0.1030572057, 0.1029916182, -0.1243653819, 0.0578102618, 0.0002043600, -0.0565153137, -0.0322588459, -0.0647456646, 0.1084640101, -0.0678698048, -0.0008264713, -0.0100434655, 0.0229352918, 0.2220376283, -0.1384242028, -0.0215618312, -0.1392586231, 0.1067187637, -0.0125998510, 0.0432206020, -0.0751830712, 0.1335297525, -0.0866853818, 0.1335248351, -0.0633528307, -0.0836407244, 0.1580699980, -0.0279659946, -0.0707405582, 0.0968593061, 0.0112629244, 0.0012875572, -0.0052675637, 0.0153906941, 0.1589527726, -0.0138721382, 0.1299931705, 0.1154395491, -0.0000054230, -0.0012001641, 0.0788986310, -0.1316564977, -0.0266690571, 0.1970249563, -0.0250806734, -0.0326913483, 0.0507689901, 0.0005844675, 0.1631070375, -0.0204300750, 0.0269490220, 0.0865318105, -0.1892419606, 0.1075204238, -0.0720057786, 0.1567150652, -0.0980965197, -0.0259308629, 0.1519386321, 0.0200428162, 0.0123010036, -0.1694534123, 0.0155194234, -0.0031033044, -0.0280730668, -0.1401273310, 0.0267231911, 0.1714486331, -0.1477783173, -0.0278474372, 0.0181199498, 0.0074893292, -0.0833512098, -0.2152910978, 0.0039998223, 0.0934565291, -0.0617074929, 0.0083154133, 0.0827501491, -0.0024153057, 0.0496860184, -0.0094178272, 0.1673332304, 0.0660453066, -0.0268979091, -0.0352973901, 0.0046722293, 0.1060709283, -0.0528974645, 0.0213967282, -0.0353203900, 0.0805213675, -0.1094145924, 0.0620227493, 0.1586433798, -0.0874458924, -0.2069531977, 0.0496875383, -0.1797684431, 0.0186512172, 0.1005818546, 0.2008900493, 0.0049577644, 0.1377919316, 0.0023126162, -0.0162775200, 0.0297155920, 0.0670081079, -0.0354633592, -0.0000000000, 0.1397829205, -0.0522198416, -0.1023874432, -0.1205355376, -0.1049955338, 0.0353759937, -0.0334189571, 0.0239551831, -0.0766931400, -0.0832150578, -0.0086237434, 0.0579532124, -0.0201690737, -0.0727824718, 0.2401065826, 0.1532920897, -0.0913780332, 0.0415400900, -0.0703494549, 0.2067534178, 0.0632956326, 0.1409973502, 0.1353215426, 0.1017172337, -0.0216588043, 0.0444137678, -0.0832014978, -0.1202350929, 0.0166058838, 0.0528311878, 0.0969725475, 0.0478691570, -0.0498438552, -0.0000000000, 0.2006277144, -0.0283749476, -0.0082891937, -0.1048372835, 0.0362883806, -0.0722558722, -0.0500648841, -0.0482786335, 0.0051255235, 0.1570133567, 0.0000000002, 0.1494742781, -0.0787518099, -0.0000003277, -0.0349607393, -0.0198886693, -0.1802603900, -0.0882849023, 0.0469800197, -0.0041427650, -0.0817858055, -0.0349638909, 0.1065717638, 0.0000216726, -0.0165463854, -0.1151154488, -0.0539643168, -0.0788340196, 0.0689799637, 0.0785775855, -0.0349296741, 0.0854729936, 0.0780822113, 0.0828863457, 0.0306933764, 0.1103793979, -0.0073678843, -0.0521807484, -0.0206141621, 0.1496468037, 0.0199927632, 0.0000000000, 0.0725344494, 0.1273284554, 0.1173230335, -0.0046345759, 0.1267744005, -0.1160685122, -0.1439548880, -0.0042825560, 0.1208504066, -0.0222204830, -0.0052001444, 0.0357304849, 0.0382129624, 0.0776445642, -0.0185734965, 0.0512958094, 0.0498219542, 0.0125339450, 0.0290765204, -0.0110668661, 0.0891733021, -0.0162230339, -0.0122340424, 0.0580643341, -0.1350300312, 0.0158085488, 0.0090383105, 0.1433700472, 0.0477960370, -0.1673032939, -0.0252831969, 0.0125255883, 0.0979138315, 0.0659923702, 0.0467799678, 0.0176357906, 0.1078450829, -0.0312708281, -0.1369349808, 0.0033963758, -0.0786301866, -0.0308629069, -0.0059117572, 0.0347556472, 0.1367380917, -0.0138850687, 0.1840504408, 0.0439489149, -0.0000023177, 0.1755905300, 0.0630570725, 0.0016160650, 0.0165797323, 0.0104374848, -0.1427883208, -0.1688215286, -0.1551528722, -0.0954706520, -0.0949701965, 0.1285962015, 0.1078971401, -0.1161515266, 0.0281118918, -0.2326750457, -0.0839337856, 0.1396886110, 0.1558553427, 0.0094982674, 0.0600817241, -0.0088942898, -0.0083224522, 0.0017677695, -0.0321537107, -0.0827470794, 0.0913490206, 0.0085157221, 0.1266598105, -0.0201542769, -0.0100251837, -0.0583749935, 0.0242330544, 0.0748322979, 0.0322475210, 0.0140928263, -0.0617661178, -0.0301562604, 0.1331535429, -0.0188595392, -0.0501422882, 0.1106023565, -0.0279753506, -0.1068509221, -0.0444377847, 0.1210618466, -0.1358973086, -0.1340960562, -0.0886718631, -0.0293435920, -0.0849388763, -0.0254647303, -0.0908546746, -0.0207628608, 0.1009379253, 0.0777594075, -0.1032584235, 0.0665926486, 0.0114192162, -0.0136886453, -0.0163947735, -0.0368013717, -0.1143905595, 0.0659905747, -0.0318999775, -0.0147928139, 0.1287282556, 0.0118467249, 0.1622944474, 0.0859735459, 0.2198607624, -0.0537690334, 0.2445156127, 0.0045250757, 0.0800314397, 0.1315054893, 0.1543673873, 0.1112652645, -0.0231664144, -0.0649125651, -0.1281613410, -0.0957983062, 0.0557250567, 0.0623911470, 0.2038088590, 0.0038386586, 0.1543411463, -0.1051769033, 0.1053663790, -0.0572550222, -0.1024674475, -0.1105225086, 0.0448952168, 0.0004715410, -0.0778286979, 0.1945927888, 0.0037294461, 0.0219546277, 0.0505338535, 0.1044232398, 0.0989603549, 0.0000000000, -0.0540289171, 0.1796919703, 0.1622160673, -0.0089519322, 0.0760770515, -0.0699101165, -0.1430966258, 0.0552795716, 0.1485454440, 0.0565629378, -0.0029805554, 0.0329326317, 0.0988490731, 0.1343347281, -0.0727086812, -0.0199916176, -0.0406055190, -0.0276315417, 0.0971274003, 0.1286580265, 0.0670987219, -0.0811748952, -0.0410604849, 0.0143620539, -0.0539431088, 0.1190001220, 0.0187792964, -0.1151085049, 0.0684285685, 0.0460265428, -0.1972205043, -0.0449676141, -0.0383962393, 0.0767910555, -0.0297701601, 0.0117789852, 0.0265869219, -0.0337410010, -0.0203160048, -0.0848804116, 0.0174932126, -0.1955250353, -0.0299961437, -0.0058251317, 0.1031758189, -0.1150601879, 0.1215245426, 0.0061054346, 0.0443398319, -0.1671721041, 0.0209299978, 0.0243121721, 0.0779784247, 0.1289511621, -0.1041352376, 0.1616680026, -0.1313779503, 0.0101256566, -0.0141053945, -0.0532810986, -0.0284105465, 0.1743422002, 0.2074108124, -0.0307395179, -0.0995623842, 0.1474792659, -0.0834058970, -0.0214344915, -0.0725911707, -0.0117034186, -0.0668436736, -0.0979688019, -0.1300770044, 0.0383542143, 0.0059860051, -0.0617921129, 0.1170030087, -0.0004925637, -0.1198332980, -0.0718676895, -0.0070344722, -0.0334604457, 0.0968293324, 0.0000000137, -0.0567489453, 0.0657093152, 0.1308670938, 0.0443820991, 0.1321578175, -0.1103627533, -0.0240873937, 0.1485878974, -0.1808071882, -0.0080447858, -0.1396640390, -0.0482974686, 0.0863532349, -0.1144917458, -0.1326975971, -0.1725544482, 0.0000287573, 0.1212778538, -0.1266806871, 0.0134788388, 0.0723077282, -0.0913032293, 0.1132475212, -0.0938466638, -0.0208787099, 0.0128351590, -0.1233296841, 0.0406909250, 0.0586065464, -0.0306963976, -0.1178967506, 0.0422794074, 0.0954864696, 0.0191736072, -0.0472511873, -0.0073277806, 0.0387659110, 0.0221786741, -0.0200385507, -0.1260005534, -0.0840043277, 0.1244909242, -0.0264643356, 0.0691934898, 0.0687199757, 0.0126023833, -0.0324207023, 0.0004213882, 0.0765354112, 0.0833526626, -0.0005061037, -0.1499119401, 0.0657166615, 0.0599289052, 0.0000004032, -0.0142690204, -0.0450060964, -0.0536352694, 0.0745930597, -0.0011178361, 0.0166108031, -0.1193529963, 0.2141295224, -0.0476887934, 0.0192855727, -0.2018573880, -0.1697992235, 0.1637746245, 0.0707990900, 0.0130069079, -0.0001119196, -0.0159316063, 0.0694373921, -0.1029121801, -0.1015955210, -0.0055303751, 0.0914759040, -0.0616721995, 0.0492562354, -0.1315444112, -0.0499302112, 0.1224755868, 0.1787420660, 0.0259116739, 0.0778322145, 0.0883843228, -0.0499645658, 0.0170629621, 0.0946832523, -0.1877303869, -0.0494384207, 0.1398576349, 0.1306511313, 0.0302650519, 0.0501730591, -0.0834378749, 0.0071230005, 0.0177217647, -0.0056768586, -0.0442115515, -0.1410738975, 0.0255166404, 0.0052833925, 0.0508255213, -0.0721659362, 0.0296776835, 0.0086561739, -0.0309635773, 0.1483898610, -0.1034584194, -0.1595338583, -0.0728574544, -0.0827787668, -0.0921460539, 0.0591611937, -0.1351041794, 0.1055201590, 0.0614795201, -0.0217004959, 0.1152896509, 0.0016861092, -0.0469926521, 0.2289984077, -0.0075793434, 0.0609106459, 0.0173376482, 0.1600014418, -0.0890266895, 0.0321428664, -0.0716961250, -0.1465126723, -0.0904785618, 0.0570557900, -0.0203465521, 0.0000024428, 0.0207486786, -0.0605485030, 0.0000000000, 0.0169516560, -0.0934220329, 0.1058904454, 0.0759595856, 0.0376340523, 0.0102163935, 0.0022085034, 0.1062156335, 0.0760155171, 0.1122222692, -0.1567502767, -0.0995185003, 0.1599756628, -0.0187999681, 0.1716459543, 0.0602860637, 0.0038288112, 0.0356137604, -0.0145666674, 0.0532718562, 0.0042758710, -0.0655964538, 0.1292373836, 0.1438731551, -0.0505475290, -0.0014261955, -0.0216108356, -0.2179851234, -0.0032782312, 0.0656797364, -0.0960071310, -0.0027051237, 0.0951697081, -0.0000568008, -0.0671914741, -0.0446103252, 0.2302181721, 0.0014770930, -0.1405093819, 0.0726141781, 0.0657163486, -0.0229474455, 0.0102182366, 0.0568712428, -0.0010578409, 0.0227258224, 0.0548274778, -0.0800030231, 0.0545228049};
#endif

#endif
