//Numpy array shape [3, 3, 16, 32]
//Min -0.406250000000
//Max 0.375000000000
//Number of zeros 723

#ifndef W13_H_
#define W13_H_

#ifndef __SYNTHESIS__
weight13_t w13[4608];
#else
weight13_t w13[4608] = {-0.03125, -0.03125, 0.00000, 0.00000, 0.00000, 0.00000, 0.06250, 0.00000, 0.03125, -0.03125, -0.03125, 0.00000, 0.03125, 0.03125, -0.06250, -0.03125, 0.00000, -0.03125, 0.03125, -0.09375, -0.06250, 0.00000, -0.03125, 0.00000, 0.00000, 0.00000, -0.03125, 0.00000, 0.06250, -0.06250, 0.00000, 0.00000, 0.00000, 0.00000, 0.00000, 0.09375, 0.06250, 0.00000, 0.03125, 0.00000, 0.06250, 0.00000, 0.06250, 0.03125, 0.00000, 0.00000, -0.03125, 0.03125, 0.03125, 0.06250, -0.03125, -0.06250, 0.09375, 0.09375, 0.09375, 0.03125, 0.03125, 0.03125, 0.03125, 0.03125, 0.00000, 0.00000, 0.00000, -0.09375, 0.03125, 0.09375, 0.00000, 0.03125, 0.00000, 0.00000, 0.03125, 0.06250, 0.00000, 0.00000, 0.00000, 0.00000, -0.03125, 0.00000, -0.09375, 0.00000, 0.00000, 0.00000, 0.00000, -0.03125, 0.06250, -0.06250, -0.03125, 0.00000, -0.03125, 0.03125, 0.00000, -0.06250, 0.03125, -0.03125, 0.00000, 0.12500, 0.03125, -0.06250, 0.03125, 0.03125, 0.00000, 0.03125, -0.12500, -0.06250, 0.03125, 0.06250, 0.00000, 0.00000, 0.03125, -0.03125, 0.12500, 0.03125, 0.00000, 0.09375, -0.03125, -0.06250, -0.06250, 0.00000, 0.06250, -0.03125, -0.06250, 0.03125, 0.03125, 0.03125, 0.06250, -0.03125, 0.00000, -0.06250, 0.00000, -0.06250, 0.00000, 0.03125, -0.03125, -0.03125, 0.09375, -0.09375, 0.06250, 0.03125, -0.03125, 0.00000, -0.06250, 0.03125, 0.00000, -0.03125, 0.00000, 0.03125, 0.00000, 0.00000, -0.03125, 0.00000, 0.00000, 0.00000, 0.03125, -0.06250, 0.00000, 0.03125, 0.00000, 0.00000, 0.00000, 0.09375, 0.06250, 0.03125, 0.00000, 0.06250, 0.00000, 0.00000, -0.06250, -0.03125, 0.03125, 0.00000, -0.03125, 0.06250, -0.06250, -0.06250, 0.00000, -0.06250, 0.00000, 0.03125, 0.00000, -0.06250, 0.03125, 0.00000, -0.06250, -0.06250, -0.06250, 0.00000, 0.00000, -0.09375, 0.00000, 0.00000, 0.03125, 0.06250, 0.06250, -0.06250, 0.00000, 0.03125, 0.03125, 0.00000, 0.06250, 0.00000, 0.03125, -0.03125, 0.03125, 0.09375, 0.00000, 0.00000, 0.03125, 0.00000, 0.00000, 0.09375, -0.03125, -0.06250, 0.03125, 0.06250, 0.09375, -0.03125, 0.09375, -0.06250, 0.03125, -0.03125, 0.03125, 0.00000, 0.00000, -0.06250, 0.03125, 0.06250, 0.00000, 0.12500, 0.03125, 0.00000, 0.06250, 0.03125, 0.00000, 0.00000, -0.06250, 0.03125, 0.00000, 0.00000, 0.12500, 0.06250, 0.00000, -0.03125, 0.06250, -0.06250, 0.00000, 0.03125, -0.03125, -0.03125, 0.06250, 0.00000, -0.06250, 0.06250, 0.06250, -0.03125, 0.06250, 0.03125, -0.03125, 0.03125, -0.03125, 0.00000, -0.03125, 0.00000, 0.06250, 0.00000, 0.06250, 0.00000, 0.00000, -0.03125, 0.00000, 0.00000, -0.06250, 0.00000, -0.03125, -0.03125, 0.00000, 0.03125, 0.03125, -0.03125, -0.12500, 0.00000, -0.03125, -0.06250, 0.03125, -0.03125, 0.00000, -0.03125, 0.03125, -0.06250, 0.09375, 0.00000, 0.00000, 0.06250, 0.06250, -0.03125, 0.06250, -0.03125, -0.03125, -0.03125, -0.03125, -0.06250, 0.00000, 0.03125, 0.00000, 0.00000, 0.00000, 0.03125, 0.00000, -0.03125, -0.03125, -0.09375, 0.03125, 0.00000, 0.00000, 0.03125, 0.00000, 0.00000, 0.00000, 0.03125, -0.06250, -0.09375, 0.03125, -0.03125, 0.00000, 0.03125, -0.03125, 0.00000, 0.12500, -0.03125, 0.03125, 0.03125, -0.03125, 0.06250, 0.00000, 0.09375, 0.06250, -0.06250, 0.00000, 0.03125, -0.03125, -0.06250, -0.03125, -0.06250, 0.00000, -0.03125, 0.03125, -0.03125, -0.06250, 0.03125, 0.00000, -0.06250, 0.03125, 0.06250, 0.09375, -0.09375, -0.03125, 0.03125, -0.03125, 0.00000, -0.06250, 0.00000, -0.03125, -0.03125, -0.06250, 0.03125, 0.03125, 0.09375, -0.03125, -0.03125, 0.03125, 0.03125, 0.00000, 0.00000, -0.03125, -0.12500, 0.12500, -0.03125, 0.03125, 0.03125, 0.00000, 0.00000, 0.00000, 0.03125, -0.03125, -0.03125, 0.06250, 0.00000, 0.06250, 0.00000, 0.00000, 0.03125, -0.03125, -0.03125, 0.03125, 0.00000, 0.03125, 0.03125, 0.03125, 0.00000, 0.06250, 0.00000, 0.00000, 0.03125, -0.06250, 0.00000, 0.06250, -0.06250, -0.06250, -0.03125, 0.00000, 0.00000, -0.03125, 0.06250, 0.03125, -0.03125, 0.03125, -0.15625, -0.06250, -0.03125, 0.03125, -0.03125, 0.00000, 0.03125, -0.09375, 0.03125, 0.00000, 0.00000, 0.00000, 0.03125, 0.06250, 0.03125, 0.09375, -0.03125, 0.00000, 0.00000, -0.03125, -0.06250, -0.06250, 0.03125, -0.09375, 0.00000, -0.03125, 0.06250, -0.06250, 0.00000, 0.03125, -0.03125, -0.06250, 0.00000, 0.12500, -0.12500, 0.00000, 0.09375, 0.03125, 0.00000, 0.06250, -0.03125, 0.03125, 0.00000, -0.12500, 0.03125, 0.06250, -0.03125, 0.00000, 0.03125, 0.00000, 0.06250, 0.00000, -0.06250, 0.00000, 0.03125, -0.03125, 0.00000, -0.06250, 0.06250, -0.06250, -0.03125, 0.00000, 0.03125, 0.00000, 0.03125, 0.03125, -0.03125, 0.03125, 0.03125, 0.03125, 0.00000, 0.03125, 0.03125, 0.00000, -0.03125, 0.03125, -0.03125, 0.00000, -0.03125, -0.06250, 0.00000, 0.00000, 0.00000, 0.00000, -0.03125, 0.00000, 0.00000, 0.03125, 0.03125, -0.03125, 0.00000, 0.00000, 0.03125, 0.00000, 0.00000, 0.00000, -0.03125, -0.03125, -0.03125, 0.03125, -0.03125, 0.03125, 0.00000, -0.03125, 0.03125, 0.06250, -0.03125, 0.00000, 0.00000, 0.06250, -0.03125, -0.03125, -0.03125, 0.00000, -0.03125, 0.00000, -0.03125, -0.06250, -0.03125, -0.09375, 0.03125, 0.03125, 0.00000, 0.06250, 0.00000, 0.06250, -0.06250, 0.03125, 0.00000, 0.03125, 0.06250, 0.00000, 0.00000, 0.03125, 0.00000, -0.03125, 0.03125, 0.03125, 0.00000, -0.06250, 0.03125, 0.03125, 0.03125, 0.09375, -0.09375, 0.03125, 0.06250, 0.00000, 0.00000, 0.00000, -0.09375, 0.12500, 0.00000, 0.03125, 0.09375, -0.03125, 0.03125, 0.03125, -0.06250, 0.06250, 0.06250, 0.03125, 0.03125, 0.03125, 0.03125, 0.03125, 0.00000, 0.06250, 0.03125, -0.03125, 0.00000, 0.03125, 0.03125, 0.03125, 0.00000, 0.03125, 0.00000, 0.00000, 0.00000, 0.00000, 0.06250, 0.00000, -0.06250, 0.03125, 0.00000, -0.03125, -0.03125, 0.03125, 0.00000, 0.00000, 0.00000, -0.03125, 0.09375, 0.06250, 0.06250, 0.06250, 0.03125, 0.03125, 0.06250, -0.09375, -0.09375, 0.03125, 0.03125, 0.00000, 0.06250, 0.03125, 0.00000, 0.06250, -0.06250, 0.03125, 0.06250, 0.00000, 0.00000, -0.06250, 0.00000, 0.03125, -0.03125, 0.03125, 0.06250, -0.03125, 0.06250, 0.06250, -0.03125, 0.06250, 0.06250, 0.00000, -0.06250, 0.03125, 0.03125, -0.03125, 0.00000, 0.03125, -0.03125, 0.03125, 0.03125, -0.06250, 0.00000, 0.03125, 0.03125, -0.03125, 0.06250, 0.03125, 0.03125, 0.00000, 0.00000, -0.06250, 0.12500, 0.00000, 0.00000, 0.09375, -0.03125, -0.06250, 0.06250, 0.00000, -0.06250, 0.00000, 0.09375, 0.09375, -0.06250, 0.03125, 0.03125, 0.00000, -0.03125, -0.03125, -0.03125, 0.00000, -0.03125, 0.00000, 0.03125, 0.06250, 0.06250, 0.06250, -0.09375, 0.00000, 0.03125, 0.03125, 0.03125, -0.03125, -0.09375, 0.06250, -0.03125, 0.06250, 0.00000, 0.06250, 0.03125, -0.03125, -0.03125, 0.03125, -0.03125, 0.06250, -0.09375, 0.00000, 0.12500, 0.00000, 0.03125, 0.03125, -0.06250, 0.03125, 0.00000, -0.09375, 0.12500, 0.00000, 0.00000, 0.06250, -0.03125, 0.03125, 0.06250, -0.03125, 0.00000, -0.09375, -0.09375, -0.03125, -0.03125, -0.03125, -0.06250, -0.06250, 0.00000, 0.00000, 0.03125, 0.06250, -0.03125, 0.03125, 0.03125, 0.03125, 0.06250, -0.03125, 0.00000, 0.03125, 0.03125, 0.00000, -0.03125, -0.03125, 0.03125, -0.03125, 0.03125, 0.03125, -0.03125, 0.00000, -0.03125, 0.03125, 0.00000, -0.03125, -0.03125, 0.00000, -0.03125, 0.03125, 0.00000, -0.03125, 0.06250, 0.00000, 0.03125, 0.00000, 0.03125, -0.03125, 0.00000, -0.03125, -0.03125, 0.03125, 0.00000, 0.03125, 0.03125, 0.03125, 0.03125, 0.03125, -0.03125, 0.03125, 0.00000, -0.09375, 0.00000, 0.00000, -0.03125, 0.00000, 0.00000, 0.09375, 0.03125, 0.06250, 0.00000, 0.00000, -0.06250, 0.03125, -0.03125, -0.03125, -0.06250, 0.03125, 0.00000, 0.03125, -0.03125, 0.06250, 0.03125, 0.06250, -0.03125, -0.09375, 0.00000, 0.00000, 0.06250, -0.06250, 0.03125, 0.00000, 0.00000, -0.03125, 0.00000, 0.00000, 0.03125, 0.00000, 0.03125, 0.00000, 0.03125, -0.06250, 0.00000, -0.03125, 0.00000, 0.06250, -0.03125, 0.00000, -0.03125, 0.00000, 0.06250, -0.03125, -0.06250, 0.00000, 0.06250, 0.00000, 0.03125, 0.03125, -0.09375, 0.03125, 0.00000, 0.03125, 0.06250, 0.03125, 0.06250, -0.03125, -0.03125, 0.00000, 0.03125, 0.00000, -0.03125, 0.00000, 0.03125, -0.09375, -0.03125, 0.00000, -0.03125, 0.03125, -0.03125, 0.00000, -0.09375, 0.06250, 0.06250, 0.09375, 0.09375, 0.00000, 0.00000, 0.00000, 0.00000, -0.12500, -0.03125, 0.00000, 0.03125, -0.03125, -0.06250, 0.03125, 0.03125, 0.09375, 0.00000, 0.03125, 0.03125, 0.00000, 0.03125, 0.03125, 0.06250, 0.06250, -0.03125, 0.09375, 0.03125, 0.03125, -0.03125, 0.03125, 0.03125, 0.00000, 0.03125, 0.03125, -0.03125, 0.06250, 0.03125, -0.03125, 0.03125, 0.00000, -0.03125, 0.03125, -0.03125, -0.03125, 0.06250, 0.03125, 0.06250, 0.06250, -0.03125, 0.00000, 0.03125, -0.03125, -0.06250, 0.00000, -0.03125, -0.03125, -0.03125, 0.03125, 0.00000, 0.00000, 0.00000, 0.03125, 0.00000, 0.03125, -0.09375, -0.03125, -0.03125, 0.03125, 0.06250, 0.03125, 0.03125, -0.12500, 0.00000, 0.06250, 0.06250, 0.09375, 0.03125, 0.03125, 0.09375, 0.09375, 0.00000, 0.03125, 0.06250, -0.03125, 0.00000, -0.03125, 0.03125, -0.15625, -0.03125, 0.06250, 0.09375, -0.09375, 0.00000, 0.03125, -0.03125, 0.00000, 0.03125, 0.09375, -0.09375, 0.00000, 0.00000, 0.00000, 0.00000, 0.00000, -0.03125, -0.06250, -0.03125, -0.03125, 0.00000, 0.03125, -0.03125, 0.00000, 0.00000, 0.00000, 0.03125, -0.03125, 0.00000, -0.03125, -0.03125, -0.06250, -0.03125, 0.00000, 0.03125, 0.00000, 0.00000, -0.03125, 0.00000, -0.03125, -0.03125, 0.03125, 0.00000, 0.00000, 0.00000, 0.00000, -0.03125, 0.03125, 0.06250, -0.03125, -0.06250, 0.06250, 0.00000, 0.00000, -0.06250, -0.03125, 0.00000, 0.00000, 0.00000, 0.00000, 0.03125, 0.00000, 0.00000, -0.06250, 0.03125, -0.06250, -0.03125, 0.06250, 0.00000, 0.00000, 0.00000, -0.03125, 0.00000, -0.06250, 0.03125, -0.03125, -0.03125, 0.00000, 0.03125, 0.00000, 0.03125, 0.00000, 0.00000, 0.03125, -0.03125, 0.03125, -0.06250, -0.03125, 0.00000, 0.00000, -0.03125, 0.03125, 0.00000, 0.00000, 0.03125, -0.06250, 0.03125, -0.03125, 0.00000, 0.09375, -0.03125, 0.03125, 0.00000, 0.06250, 0.00000, -0.03125, -0.09375, 0.03125, 0.09375, 0.03125, 0.03125, -0.06250, 0.00000, 0.06250, 0.00000, 0.06250, 0.03125, 0.00000, 0.03125, 0.03125, 0.00000, 0.00000, 0.03125, 0.00000, -0.06250, -0.06250, 0.00000, -0.03125, 0.03125, 0.06250, 0.06250, -0.03125, 0.03125, 0.03125, 0.00000, 0.09375, 0.03125, 0.00000, 0.03125, 0.00000, 0.06250, 0.00000, 0.00000, 0.06250, 0.03125, 0.03125, -0.03125, -0.06250, 0.00000, 0.00000, 0.03125, -0.06250, 0.00000, 0.00000, 0.00000, 0.00000, 0.00000, -0.03125, -0.06250, 0.09375, 0.00000, 0.00000, -0.03125, 0.06250, 0.00000, 0.03125, 0.00000, -0.03125, 0.09375, -0.03125, 0.03125, 0.00000, 0.00000, 0.03125, 0.03125, 0.00000, -0.09375, 0.00000, 0.00000, -0.03125, 0.03125, 0.09375, 0.03125, 0.03125, 0.03125, 0.00000, 0.03125, -0.03125, 0.00000, -0.03125, -0.03125, 0.00000, 0.00000, 0.03125, 0.09375, -0.06250, -0.03125, 0.00000, -0.03125, 0.03125, 0.00000, 0.00000, 0.03125, 0.00000, 0.00000, 0.03125, 0.00000, 0.03125, -0.03125, 0.06250, 0.00000, -0.06250, 0.00000, -0.03125, -0.03125, -0.03125, 0.00000, 0.00000, 0.03125, 0.00000, 0.00000, -0.03125, 0.00000, 0.15625, 0.00000, 0.03125, -0.03125, 0.00000, 0.00000, -0.03125, -0.03125, 0.06250, 0.15625, 0.09375, 0.03125, -0.03125, 0.03125, 0.00000, -0.03125, 0.00000, 0.00000, 0.00000, 0.03125, 0.03125, 0.00000, 0.03125, -0.06250, 0.00000, -0.06250, 0.00000, 0.03125, 0.03125, -0.06250, -0.03125, -0.03125, 0.06250, -0.03125, -0.06250, 0.03125, 0.00000, 0.03125, 0.00000, -0.03125, 0.03125, -0.06250, 0.03125, -0.06250, 0.03125, 0.12500, -0.03125, 0.03125, 0.00000, -0.12500, 0.03125, 0.00000, -0.09375, 0.15625, 0.03125, 0.03125, -0.03125, -0.03125, 0.03125, 0.03125, -0.03125, 0.03125, 0.00000, -0.06250, -0.06250, -0.03125, 0.06250, -0.03125, 0.06250, 0.00000, 0.06250, -0.03125, 0.03125, -0.09375, 0.03125, 0.00000, 0.03125, 0.09375, 0.00000, 0.00000, -0.03125, 0.06250, -0.03125, -0.03125, -0.03125, 0.03125, 0.03125, 0.00000, 0.06250, -0.12500, 0.00000, -0.03125, 0.03125, -0.06250, 0.03125, -0.03125, 0.12500, -0.03125, 0.03125, 0.09375, 0.00000, 0.09375, -0.03125, -0.03125, 0.06250, -0.09375, -0.03125, 0.00000, 0.00000, -0.03125, -0.03125, 0.00000, 0.03125, 0.00000, 0.03125, 0.00000, 0.06250, -0.03125, 0.00000, 0.00000, -0.03125, 0.03125, 0.00000, -0.03125, 0.00000, 0.00000, 0.03125, -0.06250, -0.09375, 0.00000, -0.03125, -0.03125, 0.00000, -0.06250, 0.00000, 0.00000, -0.06250, 0.00000, 0.03125, -0.09375, 0.00000, 0.12500, 0.03125, 0.00000, 0.00000, 0.03125, 0.00000, 0.00000, -0.03125, 0.00000, 0.00000, 0.00000, -0.09375, 0.03125, 0.00000, 0.00000, -0.03125, 0.00000, -0.03125, -0.03125, -0.03125, 0.00000, 0.03125, 0.06250, 0.00000, 0.15625, 0.03125, 0.00000, -0.06250, -0.03125, -0.06250, -0.06250, 0.00000, 0.00000, 0.03125, 0.06250, 0.09375, -0.09375, 0.06250, 0.03125, -0.03125, 0.12500, -0.03125, 0.03125, 0.03125, -0.03125, 0.03125, 0.00000, -0.03125, 0.00000, -0.06250, -0.09375, -0.06250, -0.03125, -0.03125, 0.00000, -0.03125, 0.03125, 0.03125, -0.03125, 0.06250, -0.06250, 0.03125, 0.00000, 0.00000, 0.00000, 0.03125, 0.00000, 0.00000, -0.03125, 0.03125, 0.03125, -0.06250, 0.00000, 0.03125, 0.03125, 0.06250, 0.00000, 0.03125, 0.00000, 0.00000, -0.06250, 0.00000, 0.03125, 0.03125, -0.06250, 0.03125, 0.03125, -0.06250, 0.03125, 0.03125, -0.06250, -0.06250, 0.06250, 0.03125, 0.00000, 0.03125, 0.06250, 0.03125, 0.00000, -0.12500, -0.06250, 0.03125, -0.03125, -0.06250, 0.03125, -0.03125, 0.03125, 0.06250, -0.06250, 0.00000, 0.00000, 0.03125, -0.03125, -0.03125, -0.09375, -0.03125, -0.03125, -0.03125, 0.00000, -0.06250, 0.06250, 0.00000, -0.03125, 0.06250, -0.15625, -0.09375, 0.00000, 0.00000, 0.03125, 0.03125, 0.03125, -0.18750, -0.03125, -0.03125, 0.00000, -0.06250, 0.12500, 0.03125, 0.00000, 0.00000, 0.06250, 0.03125, 0.03125, -0.06250, 0.03125, 0.00000, 0.03125, -0.12500, 0.00000, 0.06250, 0.00000, -0.03125, 0.03125, 0.03125, 0.00000, 0.00000, 0.06250, 0.06250, -0.09375, 0.00000, -0.03125, 0.00000, 0.00000, 0.00000, -0.06250, 0.06250, -0.03125, 0.06250, 0.00000, 0.00000, 0.00000, 0.12500, 0.03125, 0.00000, 0.03125, 0.00000, -0.06250, -0.06250, -0.03125, 0.00000, 0.00000, -0.03125, 0.03125, -0.09375, 0.09375, -0.03125, -0.03125, 0.03125, 0.03125, 0.06250, 0.03125, 0.00000, 0.03125, 0.00000, -0.03125, -0.03125, 0.06250, -0.03125, -0.03125, 0.03125, -0.03125, -0.03125, -0.03125, -0.12500, 0.00000, 0.00000, 0.00000, 0.00000, 0.00000, 0.00000, -0.06250, 0.00000, 0.03125, -0.03125, 0.03125, -0.03125, 0.00000, 0.00000, -0.03125, -0.03125, 0.00000, -0.06250, 0.06250, 0.00000, 0.00000, 0.00000, 0.00000, -0.03125, 0.00000, -0.03125, 0.00000, -0.03125, 0.06250, 0.00000, 0.00000, 0.00000, 0.00000, 0.00000, 0.00000, 0.03125, -0.03125, 0.00000, 0.00000, 0.00000, 0.03125, 0.00000, -0.03125, -0.06250, 0.09375, 0.06250, -0.06250, 0.09375, -0.03125, -0.03125, 0.06250, 0.00000, 0.00000, 0.00000, 0.00000, 0.06250, -0.03125, 0.03125, -0.03125, 0.06250, -0.03125, 0.00000, -0.06250, -0.03125, 0.00000, 0.00000, 0.00000, -0.03125, -0.06250, -0.06250, -0.06250, 0.00000, 0.00000, 0.00000, 0.00000, -0.03125, 0.00000, 0.03125, 0.00000, 0.00000, -0.09375, 0.03125, -0.03125, 0.00000, 0.06250, 0.03125, 0.00000, 0.03125, 0.03125, 0.00000, 0.00000, 0.09375, 0.06250, 0.00000, -0.03125, 0.00000, 0.00000, 0.00000, 0.00000, -0.03125, 0.06250, 0.06250, -0.06250, 0.15625, 0.00000, 0.00000, -0.03125, 0.00000, 0.00000, 0.03125, 0.03125, 0.00000, 0.03125, 0.06250, 0.03125, 0.00000, -0.09375, 0.03125, 0.03125, 0.03125, 0.00000, 0.00000, 0.00000, -0.03125, -0.09375, 0.00000, 0.06250, 0.06250, -0.06250, 0.00000, 0.00000, -0.06250, -0.12500, -0.12500, 0.00000, 0.15625, 0.00000, 0.06250, 0.00000, 0.06250, 0.15625, 0.06250, 0.00000, -0.09375, 0.03125, 0.00000, -0.06250, 0.00000, 0.03125, 0.00000, -0.03125, 0.09375, -0.03125, 0.03125, 0.00000, 0.06250, 0.03125, 0.00000, 0.00000, -0.03125, 0.00000, 0.03125, 0.03125, 0.00000, 0.00000, -0.03125, 0.00000, -0.03125, 0.00000, 0.00000, -0.06250, -0.06250, 0.03125, 0.03125, -0.03125, -0.06250, 0.12500, 0.00000, -0.03125, 0.00000, -0.03125, -0.03125, 0.00000, -0.03125, 0.09375, -0.06250, -0.03125, -0.03125, 0.03125, 0.06250, 0.03125, 0.06250, -0.06250, 0.00000, 0.00000, 0.03125, 0.00000, 0.00000, -0.06250, 0.00000, -0.03125, 0.00000, 0.09375, 0.06250, 0.03125, 0.00000, 0.00000, 0.03125, 0.03125, 0.06250, -0.06250, -0.03125, 0.06250, 0.00000, -0.03125, 0.12500, -0.03125, 0.00000, 0.06250, 0.00000, 0.03125, -0.06250, -0.03125, -0.06250, 0.00000, 0.03125, 0.03125, 0.00000, 0.06250, 0.00000, 0.06250, 0.15625, -0.03125, 0.00000, -0.03125, -0.03125, -0.06250, 0.06250, 0.00000, -0.03125, -0.12500, 0.06250, 0.03125, 0.00000, 0.00000, 0.03125, 0.00000, 0.00000, 0.03125, 0.00000, 0.03125, -0.06250, 0.03125, 0.03125, 0.03125, -0.06250, -0.09375, 0.00000, 0.00000, 0.06250, -0.03125, 0.03125, 0.09375, 0.12500, -0.03125, 0.03125, 0.09375, -0.06250, -0.03125, 0.00000, -0.03125, 0.03125, -0.03125, 0.00000, 0.00000, -0.03125, -0.03125, 0.03125, 0.03125, 0.06250, -0.03125, 0.00000, -0.03125, 0.00000, -0.06250, -0.03125, 0.00000, -0.03125, -0.03125, 0.00000, -0.03125, 0.00000, 0.00000, 0.03125, -0.06250, 0.09375, -0.03125, 0.03125, 0.00000, 0.00000, 0.06250, 0.00000, 0.03125, -0.06250, 0.06250, 0.00000, 0.03125, 0.03125, 0.00000, 0.00000, -0.03125, -0.03125, -0.03125, 0.03125, 0.03125, -0.06250, -0.03125, 0.03125, 0.06250, -0.03125, -0.06250, 0.03125, 0.06250, -0.03125, 0.06250, -0.06250, -0.03125, 0.15625, 0.00000, -0.03125, 0.00000, -0.03125, 0.15625, 0.06250, 0.00000, -0.03125, -0.03125, -0.03125, 0.00000, -0.03125, 0.06250, 0.00000, 0.03125, 0.12500, 0.00000, -0.03125, 0.06250, -0.03125, 0.03125, 0.00000, 0.06250, 0.03125, 0.03125, 0.00000, 0.00000, -0.03125, -0.06250, 0.00000, 0.03125, 0.12500, 0.00000, 0.03125, -0.03125, 0.03125, 0.03125, 0.03125, -0.06250, -0.09375, 0.06250, 0.03125, 0.00000, 0.00000, 0.03125, 0.03125, 0.00000, 0.03125, -0.03125, 0.00000, 0.06250, 0.00000, -0.03125, 0.03125, -0.03125, -0.06250, -0.06250, 0.03125, 0.00000, 0.03125, -0.03125, -0.03125, -0.03125, 0.21875, 0.00000, 0.06250, 0.03125, -0.06250, 0.03125, 0.06250, -0.03125, 0.00000, -0.09375, 0.03125, -0.03125, 0.03125, -0.09375, -0.03125, 0.00000, 0.00000, -0.06250, 0.03125, 0.03125, 0.00000, -0.09375, -0.03125, 0.06250, 0.03125, -0.03125, 0.03125, 0.03125, 0.00000, -0.06250, -0.09375, -0.06250, 0.06250, -0.03125, 0.00000, 0.00000, -0.03125, -0.03125, 0.00000, 0.03125, -0.06250, -0.03125, -0.03125, -0.06250, 0.03125, 0.00000, 0.00000, 0.00000, 0.00000, -0.03125, 0.06250, -0.03125, 0.03125, -0.12500, -0.03125, 0.09375, -0.09375, -0.06250, 0.03125, 0.06250, 0.03125, -0.09375, -0.15625, -0.06250, 0.06250, 0.00000, 0.00000, 0.00000, -0.06250, -0.09375, 0.03125, 0.00000, -0.03125, 0.00000, 0.09375, -0.03125, 0.00000, 0.03125, 0.00000, -0.03125, -0.09375, 0.03125, 0.00000, 0.03125, -0.03125, -0.03125, 0.03125, -0.03125, -0.03125, -0.03125, 0.00000, 0.00000, -0.03125, 0.00000, -0.03125, 0.03125, 0.12500, 0.00000, 0.03125, 0.00000, -0.03125, -0.03125, 0.00000, 0.03125, -0.06250, 0.03125, 0.03125, 0.06250, 0.00000, -0.06250, -0.03125, 0.00000, 0.00000, 0.03125, -0.03125, 0.00000, -0.03125, 0.00000, 0.00000, -0.06250, -0.09375, 0.03125, 0.00000, 0.00000, 0.03125, 0.00000, 0.00000, 0.00000, 0.06250, 0.03125, 0.00000, -0.03125, 0.03125, 0.03125, 0.00000, 0.00000, -0.06250, 0.00000, -0.03125, -0.06250, 0.00000, 0.03125, 0.00000, 0.00000, -0.03125, 0.03125, 0.00000, 0.03125, 0.03125, 0.03125, -0.03125, -0.03125, 0.00000, 0.00000, 0.00000, 0.00000, 0.03125, 0.00000, 0.06250, 0.00000, -0.15625, 0.00000, -0.03125, -0.03125, 0.00000, 0.00000, 0.03125, -0.09375, 0.03125, -0.12500, -0.06250, 0.00000, 0.03125, -0.03125, 0.03125, 0.03125, -0.03125, 0.03125, 0.00000, -0.03125, -0.06250, 0.00000, 0.03125, 0.00000, 0.03125, -0.09375, 0.03125, 0.03125, 0.00000, -0.03125, 0.03125, -0.03125, -0.03125, 0.00000, 0.06250, 0.00000, 0.03125, 0.03125, 0.03125, -0.03125, 0.09375, -0.03125, 0.03125, 0.03125, 0.00000, 0.09375, 0.00000, 0.00000, 0.00000, 0.06250, 0.00000, -0.03125, -0.03125, 0.03125, 0.03125, 0.00000, 0.00000, 0.03125, 0.00000, 0.00000, 0.00000, 0.03125, 0.09375, 0.03125, 0.09375, 0.00000, 0.03125, 0.00000, 0.00000, 0.00000, 0.00000, 0.03125, -0.03125, 0.06250, 0.00000, 0.00000, -0.03125, -0.12500, 0.03125, 0.06250, -0.12500, 0.03125, 0.00000, 0.00000, 0.00000, -0.03125, 0.00000, -0.03125, 0.06250, 0.03125, 0.00000, -0.03125, 0.00000, -0.09375, -0.09375, -0.06250, 0.06250, 0.00000, 0.00000, 0.06250, 0.00000, 0.09375, 0.00000, 0.00000, 0.09375, -0.06250, 0.00000, -0.12500, -0.03125, 0.03125, 0.00000, -0.03125, 0.12500, 0.00000, 0.00000, 0.03125, 0.09375, 0.00000, -0.06250, 0.00000, -0.06250, 0.09375, 0.03125, 0.03125, -0.03125, 0.00000, -0.06250, 0.09375, 0.06250, 0.00000, 0.03125, -0.06250, 0.03125, -0.03125, 0.06250, 0.03125, -0.03125, 0.00000, 0.00000, -0.03125, 0.03125, -0.03125, 0.06250, 0.00000, -0.06250, 0.06250, 0.03125, 0.00000, -0.06250, 0.00000, 0.00000, 0.00000, 0.03125, -0.06250, 0.00000, -0.03125, 0.00000, -0.06250, 0.00000, 0.06250, -0.12500, 0.00000, -0.03125, 0.00000, 0.00000, 0.06250, -0.03125, 0.03125, 0.06250, 0.03125, 0.06250, -0.03125, 0.00000, 0.03125, 0.00000, 0.00000, 0.03125, -0.12500, 0.03125, 0.00000, -0.09375, 0.03125, -0.03125, 0.03125, -0.06250, 0.00000, 0.03125, 0.03125, 0.00000, -0.06250, 0.09375, 0.00000, -0.06250, -0.03125, 0.03125, 0.00000, -0.06250, -0.03125, 0.03125, -0.03125, -0.03125, -0.03125, 0.06250, 0.03125, 0.00000, -0.03125, 0.00000, 0.00000, -0.03125, 0.06250, 0.03125, 0.00000, -0.03125, 0.00000, 0.00000, -0.03125, -0.06250, -0.06250, 0.00000, -0.03125, 0.06250, -0.06250, -0.03125, -0.06250, 0.06250, -0.03125, 0.00000, 0.03125, 0.03125, -0.03125, 0.00000, -0.06250, 0.06250, 0.06250, 0.00000, 0.06250, 0.03125, -0.03125, 0.00000, 0.03125, 0.00000, -0.03125, 0.00000, 0.00000, 0.00000, -0.03125, 0.00000, 0.03125, 0.00000, 0.03125, 0.00000, 0.00000, 0.00000, 0.00000, 0.00000, 0.00000, -0.06250, -0.03125, 0.03125, 0.03125, 0.06250, -0.03125, 0.03125, 0.00000, -0.03125, 0.00000, 0.00000, 0.06250, 0.00000, 0.00000, 0.00000, 0.00000, 0.06250, -0.03125, 0.03125, 0.00000, 0.00000, 0.00000, 0.00000, 0.00000, 0.09375, 0.00000, 0.00000, 0.03125, -0.03125, 0.00000, -0.03125, -0.09375, 0.06250, 0.00000, -0.03125, -0.03125, -0.03125, 0.00000, -0.03125, 0.00000, 0.00000, -0.06250, -0.06250, -0.06250, -0.03125, -0.06250, 0.03125, 0.00000, -0.03125, -0.03125, 0.00000, 0.03125, -0.03125, 0.00000, 0.00000, 0.00000, -0.03125, -0.06250, 0.03125, 0.03125, 0.00000, -0.03125, 0.00000, -0.03125, -0.03125, 0.00000, 0.00000, -0.03125, 0.00000, 0.00000, 0.00000, -0.06250, 0.06250, -0.03125, 0.03125, -0.09375, 0.03125, 0.03125, -0.03125, 0.00000, 0.03125, -0.03125, 0.00000, -0.03125, -0.03125, -0.03125, 0.03125, 0.03125, -0.03125, -0.03125, 0.00000, -0.03125, 0.00000, 0.06250, -0.06250, -0.03125, 0.09375, -0.03125, 0.09375, 0.09375, -0.06250, 0.06250, 0.06250, -0.06250, 0.03125, 0.03125, 0.00000, 0.00000, 0.03125, -0.03125, 0.03125, 0.03125, 0.00000, -0.06250, 0.06250, 0.03125, -0.09375, 0.00000, 0.00000, 0.06250, -0.03125, -0.03125, 0.03125, 0.03125, 0.03125, 0.00000, 0.03125, -0.03125, -0.09375, -0.03125, 0.00000, 0.03125, 0.00000, 0.00000, 0.03125, -0.03125, 0.03125, -0.03125, -0.06250, 0.06250, 0.00000, 0.03125, 0.00000, 0.03125, -0.06250, 0.00000, 0.03125, 0.03125, 0.06250, -0.06250, 0.00000, 0.00000, -0.06250, -0.03125, 0.00000, 0.00000, 0.03125, -0.03125, 0.00000, -0.03125, -0.12500, 0.00000, 0.03125, 0.00000, -0.06250, -0.15625, 0.00000, 0.03125, 0.12500, 0.03125, 0.09375, -0.03125, 0.00000, -0.03125, 0.00000, 0.00000, 0.00000, 0.00000, 0.03125, 0.03125, -0.03125, 0.00000, 0.03125, 0.00000, 0.03125, -0.03125, 0.03125, 0.03125, -0.03125, -0.03125, 0.00000, 0.03125, 0.15625, -0.03125, -0.03125, 0.03125, 0.00000, 0.00000, 0.00000, 0.03125, -0.06250, -0.03125, 0.06250, 0.00000, 0.00000, 0.03125, 0.00000, -0.03125, -0.03125, 0.03125, 0.00000, 0.03125, 0.00000, -0.03125, 0.00000, -0.03125, -0.09375, 0.00000, 0.00000, 0.00000, -0.03125, -0.03125, -0.03125, 0.03125, 0.00000, 0.03125, -0.03125, 0.03125, 0.00000, 0.00000, 0.00000, 0.03125, -0.03125, 0.00000, -0.03125, 0.00000, 0.00000, 0.00000, -0.03125, 0.00000, 0.00000, 0.06250, 0.03125, 0.00000, -0.03125, 0.03125, 0.00000, -0.03125, -0.03125, 0.03125, 0.00000, 0.00000, 0.06250, 0.06250, -0.03125, 0.00000, 0.00000, 0.03125, -0.03125, 0.00000, 0.03125, 0.00000, 0.03125, 0.03125, 0.06250, -0.06250, -0.09375, -0.06250, 0.03125, -0.03125, 0.03125, 0.03125, -0.03125, -0.03125, 0.00000, -0.03125, 0.03125, 0.06250, 0.00000, 0.03125, 0.03125, 0.00000, 0.03125, 0.00000, 0.00000, -0.03125, -0.06250, -0.03125, -0.15625, 0.00000, 0.00000, 0.03125, -0.03125, -0.09375, 0.03125, 0.00000, 0.09375, -0.06250, 0.09375, 0.03125, 0.00000, 0.09375, 0.00000, 0.00000, 0.09375, 0.06250, -0.03125, 0.03125, 0.00000, 0.03125, 0.03125, 0.00000, 0.00000, 0.00000, 0.00000, 0.00000, 0.00000, 0.00000, 0.03125, 0.03125, 0.09375, 0.00000, 0.00000, 0.00000, 0.00000, -0.03125, 0.00000, 0.06250, -0.03125, 0.00000, -0.06250, -0.06250, 0.00000, -0.15625, -0.03125, 0.03125, 0.00000, -0.06250, 0.03125, 0.03125, -0.03125, -0.06250, 0.03125, -0.03125, 0.00000, -0.12500, 0.00000, -0.06250, -0.06250, 0.06250, 0.03125, 0.00000, -0.09375, -0.03125, -0.06250, -0.03125, -0.03125, 0.06250, 0.03125, 0.03125, 0.06250, -0.15625, 0.03125, -0.03125, -0.03125, 0.03125, 0.00000, -0.03125, 0.09375, 0.03125, 0.00000, 0.00000, 0.00000, 0.00000, -0.03125, 0.00000, 0.00000, 0.03125, 0.03125, 0.03125, 0.00000, 0.00000, 0.00000, 0.03125, 0.09375, 0.03125, -0.03125, -0.06250, 0.00000, 0.06250, 0.03125, 0.00000, -0.03125, 0.06250, 0.00000, -0.03125, -0.03125, 0.00000, 0.00000, 0.00000, -0.09375, 0.00000, 0.00000, 0.03125, -0.03125, 0.03125, 0.06250, 0.00000, 0.00000, 0.00000, 0.00000, -0.03125, 0.00000, 0.03125, -0.03125, -0.03125, -0.09375, -0.03125, 0.00000, 0.00000, -0.06250, 0.00000, -0.03125, -0.06250, 0.03125, 0.09375, 0.03125, -0.06250, 0.00000, 0.06250, 0.03125, 0.00000, 0.03125, -0.12500, 0.00000, 0.00000, -0.06250, 0.00000, 0.00000, -0.03125, -0.03125, 0.00000, 0.03125, 0.03125, 0.00000, 0.00000, 0.00000, 0.00000, -0.15625, -0.03125, 0.00000, -0.06250, 0.00000, -0.09375, 0.00000, -0.03125, 0.03125, -0.09375, 0.06250, -0.06250, 0.03125, -0.03125, 0.00000, 0.00000, -0.06250, 0.06250, 0.03125, 0.03125, -0.03125, 0.00000, 0.03125, 0.03125, -0.06250, 0.00000, 0.00000, -0.03125, 0.06250, 0.00000, 0.06250, -0.03125, 0.03125, -0.03125, 0.03125, -0.03125, 0.00000, -0.03125, -0.06250, 0.00000, -0.03125, 0.06250, 0.00000, 0.00000, 0.00000, -0.03125, -0.03125, 0.03125, 0.09375, 0.03125, 0.00000, 0.03125, 0.03125, -0.03125, -0.03125, 0.00000, -0.03125, 0.03125, 0.00000, 0.00000, 0.00000, 0.03125, 0.06250, -0.06250, -0.06250, -0.03125, 0.03125, 0.00000, -0.06250, 0.00000, 0.00000, -0.06250, 0.03125, -0.03125, -0.06250, 0.06250, 0.00000, 0.06250, 0.00000, 0.00000, 0.06250, -0.03125, 0.00000, 0.00000, -0.06250, -0.03125, 0.00000, -0.06250, 0.09375, 0.03125, 0.00000, -0.03125, 0.00000, -0.06250, -0.06250, -0.06250, -0.12500, -0.03125, 0.00000, 0.00000, 0.03125, 0.00000, -0.06250, 0.00000, -0.06250, 0.03125, -0.09375, -0.06250, 0.00000, 0.00000, 0.03125, 0.00000, -0.06250, -0.06250, 0.00000, 0.06250, 0.00000, 0.06250, -0.03125, 0.06250, 0.00000, -0.03125, 0.00000, -0.03125, -0.03125, -0.03125, 0.00000, -0.03125, 0.03125, 0.00000, 0.03125, -0.06250, -0.03125, 0.00000, 0.00000, -0.06250, 0.06250, -0.03125, 0.03125, 0.06250, 0.00000, 0.00000, 0.03125, 0.00000, 0.00000, -0.03125, 0.00000, 0.03125, -0.03125, -0.06250, -0.03125, 0.03125, 0.03125, -0.06250, 0.00000, -0.03125, 0.03125, -0.06250, -0.09375, -0.12500, 0.06250, -0.03125, 0.00000, 0.00000, 0.03125, 0.06250, 0.00000, 0.00000, 0.12500, -0.03125, -0.06250, 0.00000, 0.00000, -0.09375, 0.03125, 0.03125, -0.09375, -0.06250, 0.03125, 0.03125, 0.00000, -0.03125, -0.06250, 0.03125, -0.09375, -0.03125, 0.00000, -0.03125, 0.00000, -0.03125, 0.00000, -0.06250, -0.15625, -0.03125, 0.03125, -0.03125, -0.03125, -0.06250, 0.00000, -0.03125, -0.03125, -0.06250, -0.15625, -0.06250, 0.00000, -0.06250, -0.03125, 0.09375, -0.06250, -0.03125, 0.03125, 0.00000, -0.06250, -0.03125, -0.03125, 0.03125, 0.03125, 0.03125, 0.00000, -0.06250, -0.03125, 0.00000, -0.09375, 0.03125, -0.25000, 0.00000, 0.03125, -0.03125, 0.03125, 0.00000, 0.00000, -0.06250, 0.09375, 0.03125, 0.06250, 0.06250, 0.00000, -0.03125, 0.00000, 0.00000, 0.00000, 0.00000, 0.00000, 0.00000, -0.06250, 0.03125, 0.03125, 0.00000, 0.03125, 0.00000, 0.03125, 0.00000, -0.03125, -0.03125, 0.06250, -0.03125, -0.09375, -0.03125, 0.00000, 0.06250, 0.00000, 0.09375, 0.00000, -0.03125, 0.06250, 0.00000, 0.03125, 0.00000, 0.03125, 0.00000, 0.00000, -0.03125, 0.03125, 0.03125, -0.03125, -0.03125, 0.00000, -0.06250, 0.00000, -0.03125, -0.09375, 0.03125, 0.00000, 0.00000, 0.00000, 0.03125, -0.03125, 0.00000, 0.03125, 0.03125, 0.00000, 0.00000, 0.06250, 0.03125, -0.03125, 0.00000, -0.06250, 0.00000, 0.03125, 0.06250, 0.03125, 0.00000, 0.00000, -0.03125, -0.06250, 0.03125, 0.00000, -0.03125, 0.00000, 0.00000, 0.03125, -0.03125, 0.00000, 0.03125, 0.00000, 0.03125, 0.00000, -0.03125, -0.09375, 0.00000, -0.12500, 0.00000, 0.00000, -0.03125, -0.03125, 0.09375, 0.03125, -0.06250, 0.03125, 0.03125, 0.00000, -0.06250, 0.03125, 0.00000, 0.00000, 0.00000, 0.12500, -0.03125, -0.03125, 0.00000, 0.09375, -0.03125, 0.00000, -0.03125, -0.03125, 0.00000, 0.00000, 0.00000, 0.00000, 0.03125, -0.03125, 0.00000, 0.00000, 0.00000, 0.03125, -0.03125, -0.03125, -0.09375, 0.03125, -0.06250, -0.03125, 0.03125, 0.03125, 0.06250, 0.00000, 0.00000, -0.03125, 0.00000, -0.09375, 0.06250, 0.03125, -0.03125, -0.03125, 0.00000, 0.00000, -0.03125, 0.03125, 0.00000, 0.00000, -0.03125, 0.00000, 0.03125, 0.00000, -0.06250, 0.12500, 0.03125, 0.00000, -0.03125, 0.00000, 0.00000, 0.03125, 0.06250, 0.03125, 0.12500, 0.00000, 0.03125, 0.06250, 0.00000, 0.00000, 0.03125, 0.00000, 0.03125, -0.06250, 0.03125, -0.03125, -0.12500, 0.06250, 0.06250, 0.00000, -0.09375, 0.00000, 0.00000, 0.00000, -0.03125, -0.09375, 0.03125, 0.15625, 0.03125, 0.00000, 0.09375, 0.00000, 0.12500, 0.03125, -0.03125, 0.00000, 0.03125, 0.03125, -0.06250, -0.03125, 0.00000, 0.00000, -0.03125, 0.00000, 0.00000, 0.00000, 0.03125, 0.06250, 0.00000, -0.03125, -0.03125, -0.03125, 0.03125, 0.00000, 0.03125, 0.00000, 0.00000, -0.06250, 0.06250, -0.09375, 0.00000, 0.03125, -0.03125, 0.00000, 0.00000, -0.03125, -0.03125, -0.12500, 0.15625, 0.00000, -0.06250, 0.03125, 0.09375, 0.03125, 0.03125, 0.00000, 0.03125, -0.03125, 0.00000, 0.03125, 0.06250, 0.00000, 0.03125, 0.00000, 0.00000, 0.00000, 0.03125, 0.00000, -0.06250, 0.00000, 0.06250, -0.06250, -0.03125, 0.00000, 0.03125, 0.00000, -0.06250, 0.03125, -0.03125, -0.03125, 0.03125, 0.09375, 0.00000, 0.00000, 0.09375, 0.03125, -0.06250, 0.06250, -0.03125, 0.03125, -0.03125, 0.06250, -0.03125, -0.03125, -0.03125, -0.06250, 0.00000, 0.00000, 0.00000, 0.00000, 0.06250, 0.03125, 0.00000, 0.34375, -0.03125, 0.00000, -0.03125, -0.03125, 0.00000, 0.06250, -0.06250, -0.06250, -0.12500, 0.06250, 0.03125, 0.03125, 0.06250, 0.00000, 0.00000, 0.03125, 0.09375, 0.00000, 0.03125, -0.03125, 0.03125, 0.03125, -0.03125, -0.09375, -0.06250, 0.00000, -0.03125, 0.06250, -0.06250, 0.06250, -0.06250, -0.06250, -0.03125, 0.03125, 0.03125, 0.03125, 0.06250, 0.03125, -0.03125, 0.00000, 0.06250, 0.00000, 0.03125, 0.03125, 0.00000, -0.03125, -0.03125, 0.06250, 0.00000, 0.03125, 0.03125, 0.00000, 0.00000, -0.03125, 0.00000, 0.00000, -0.06250, 0.00000, -0.03125, 0.03125, 0.00000, 0.03125, -0.06250, 0.06250, -0.03125, 0.03125, -0.03125, 0.09375, 0.00000, 0.03125, -0.03125, -0.06250, -0.03125, 0.00000, -0.12500, 0.00000, 0.06250, 0.03125, -0.03125, 0.06250, -0.03125, -0.03125, 0.06250, 0.00000, -0.03125, 0.00000, 0.03125, 0.03125, -0.06250, 0.03125, 0.03125, 0.03125, 0.03125, -0.03125, -0.09375, 0.12500, 0.00000, -0.03125, -0.03125, 0.00000, 0.09375, 0.03125, -0.03125, -0.06250, 0.12500, 0.00000, 0.00000, 0.00000, -0.06250, 0.00000, 0.00000, 0.06250, 0.00000, 0.03125, 0.03125, 0.12500, -0.03125, -0.03125, 0.06250, -0.03125, 0.00000, 0.00000, 0.00000, 0.00000, 0.03125, -0.03125, 0.00000, 0.09375, -0.03125, 0.00000, 0.00000, -0.03125, 0.00000, -0.03125, 0.00000, -0.09375, 0.06250, 0.00000, -0.03125, 0.03125, 0.03125, 0.03125, 0.00000, 0.03125, 0.00000, 0.00000, 0.06250, -0.06250, -0.03125, -0.03125, -0.03125, -0.06250, 0.03125, 0.00000, -0.03125, -0.03125, -0.06250, -0.09375, 0.06250, 0.25000, 0.00000, 0.03125, 0.03125, -0.06250, 0.09375, 0.03125, -0.03125, 0.03125, 0.09375, -0.03125, 0.03125, 0.00000, 0.03125, 0.03125, 0.00000, 0.06250, -0.06250, 0.00000, 0.00000, -0.06250, -0.09375, 0.00000, 0.03125, -0.06250, -0.03125, 0.03125, 0.00000, 0.00000, -0.03125, -0.03125, -0.03125, 0.09375, -0.03125, 0.00000, -0.03125, -0.03125, 0.03125, 0.06250, -0.09375, 0.00000, 0.00000, -0.03125, -0.03125, -0.03125, 0.03125, -0.03125, 0.03125, 0.18750, -0.09375, -0.03125, 0.03125, 0.00000, -0.18750, 0.00000, 0.06250, 0.00000, 0.03125, 0.03125, -0.09375, 0.00000, 0.00000, -0.15625, 0.06250, 0.25000, -0.03125, 0.00000, 0.03125, -0.09375, 0.06250, 0.06250, -0.03125, 0.03125, 0.09375, 0.12500, -0.09375, 0.00000, 0.09375, 0.00000, -0.03125, -0.03125, 0.00000, 0.00000, 0.03125, 0.00000, -0.06250, 0.00000, -0.03125, 0.03125, -0.03125, 0.00000, 0.00000, -0.03125, -0.03125, 0.00000, 0.06250, 0.25000, -0.03125, 0.00000, -0.03125, -0.06250, 0.00000, 0.00000, 0.00000, -0.09375, 0.06250, 0.03125, 0.00000, 0.03125, -0.03125, 0.00000, 0.00000, -0.06250, 0.03125, 0.00000, -0.03125, -0.03125, 0.06250, 0.00000, -0.03125, -0.03125, -0.03125, 0.00000, 0.00000, 0.00000, 0.00000, 0.03125, 0.00000, 0.03125, 0.03125, -0.03125, 0.03125, -0.03125, -0.06250, -0.03125, 0.00000, 0.06250, 0.00000, 0.00000, 0.00000, 0.06250, -0.03125, -0.03125, 0.00000, 0.03125, -0.03125, 0.00000, -0.03125, -0.06250, 0.00000, 0.06250, -0.03125, 0.03125, 0.03125, 0.00000, 0.06250, 0.06250, 0.00000, 0.00000, -0.03125, -0.06250, 0.00000, -0.03125, -0.03125, 0.00000, 0.00000, 0.00000, -0.03125, 0.00000, 0.00000, -0.03125, 0.00000, 0.03125, 0.00000, 0.00000, 0.03125, 0.15625, 0.00000, 0.03125, 0.03125, 0.03125, 0.03125, 0.03125, 0.03125, -0.03125, 0.00000, 0.03125, 0.00000, 0.00000, -0.03125, 0.00000, 0.00000, 0.03125, 0.00000, 0.03125, 0.09375, 0.03125, -0.09375, 0.00000, -0.03125, 0.09375, -0.09375, 0.03125, 0.03125, 0.00000, 0.00000, 0.00000, 0.00000, -0.06250, 0.03125, 0.03125, 0.00000, 0.06250, 0.00000, 0.03125, 0.00000, 0.03125, 0.00000, 0.00000, -0.03125, 0.00000, 0.06250, -0.03125, 0.06250, 0.18750, 0.03125, 0.00000, 0.00000, 0.00000, 0.00000, 0.03125, 0.00000, 0.00000, 0.15625, 0.00000, 0.00000, 0.06250, -0.06250, 0.00000, 0.03125, -0.03125, 0.03125, 0.00000, 0.06250, -0.03125, -0.12500, 0.06250, 0.00000, -0.03125, -0.03125, 0.03125, -0.06250, -0.03125, -0.03125, 0.00000, 0.00000, -0.03125, 0.03125, 0.03125, 0.03125, 0.00000, 0.03125, 0.00000, 0.03125, 0.03125, -0.03125, 0.03125, -0.03125, 0.03125, 0.00000, 0.00000, -0.03125, 0.03125, 0.06250, 0.03125, 0.00000, 0.00000, 0.00000, 0.06250, -0.03125, -0.06250, 0.03125, 0.00000, 0.00000, 0.00000, 0.00000, -0.12500, 0.06250, 0.03125, 0.00000, -0.03125, -0.03125, -0.03125, 0.03125, 0.00000, 0.03125, -0.03125, 0.03125, 0.00000, 0.03125, 0.03125, 0.03125, 0.00000, 0.03125, 0.03125, 0.06250, 0.00000, 0.00000, -0.03125, 0.03125, 0.03125, -0.03125, 0.03125, -0.06250, 0.00000, 0.00000, 0.03125, -0.03125, -0.03125, -0.06250, -0.06250, 0.00000, 0.03125, 0.03125, -0.03125, 0.03125, 0.03125, 0.00000, 0.06250, -0.03125, 0.06250, 0.06250, 0.00000, 0.12500, 0.00000, 0.00000, 0.12500, -0.09375, 0.00000, 0.00000, 0.03125, 0.03125, 0.00000, 0.03125, -0.06250, -0.03125, 0.03125, 0.03125, 0.03125, 0.06250, 0.03125, -0.06250, 0.12500, -0.03125, 0.03125, -0.03125, 0.06250, -0.06250, -0.03125, 0.00000, 0.03125, -0.09375, 0.00000, 0.09375, 0.00000, 0.03125, 0.03125, -0.03125, 0.06250, 0.06250, 0.03125, 0.03125, -0.03125, 0.00000, 0.03125, 0.03125, -0.09375, -0.06250, 0.00000, -0.03125, 0.03125, 0.03125, 0.00000, 0.03125, -0.03125, 0.00000, 0.03125, 0.00000, 0.03125, -0.06250, 0.00000, 0.00000, 0.03125, 0.00000, -0.03125, 0.09375, 0.00000, 0.03125, 0.00000, 0.00000, 0.00000, 0.03125, -0.03125, 0.00000, 0.03125, 0.00000, -0.06250, 0.00000, 0.00000, -0.03125, 0.03125, -0.03125, 0.00000, 0.00000, 0.06250, 0.06250, 0.06250, -0.03125, 0.03125, 0.00000, 0.06250, -0.03125, 0.03125, 0.03125, -0.06250, 0.00000, 0.00000, -0.06250, 0.03125, -0.03125, 0.00000, 0.00000, 0.00000, 0.00000, 0.00000, 0.00000, 0.03125, -0.03125, 0.00000, 0.06250, -0.06250, 0.00000, 0.00000, 0.00000, -0.03125, -0.03125, 0.03125, -0.03125, -0.21875, 0.03125, 0.03125, 0.00000, 0.06250, 0.03125, 0.03125, 0.00000, 0.00000, 0.03125, -0.03125, 0.00000, 0.00000, 0.03125, 0.03125, 0.00000, 0.00000, 0.00000, 0.00000, 0.03125, -0.06250, 0.06250, -0.03125, 0.00000, -0.06250, 0.00000, 0.03125, -0.03125, -0.03125, 0.03125, 0.00000, 0.09375, -0.03125, -0.03125, -0.03125, 0.00000, 0.00000, -0.03125, -0.03125, -0.03125, 0.03125, 0.03125, 0.03125, -0.09375, 0.00000, 0.00000, 0.00000, 0.00000, 0.00000, -0.03125, -0.03125, 0.03125, -0.03125, -0.03125, 0.00000, 0.06250, -0.06250, -0.06250, 0.00000, -0.03125, 0.03125, 0.06250, -0.06250, 0.00000, 0.06250, -0.03125, 0.06250, -0.03125, 0.00000, 0.03125, 0.00000, 0.00000, -0.03125, -0.03125, -0.06250, 0.03125, 0.00000, -0.03125, 0.00000, 0.03125, 0.03125, -0.06250, 0.00000, 0.00000, -0.03125, -0.06250, 0.06250, 0.06250, -0.06250, -0.03125, 0.03125, -0.03125, 0.03125, -0.03125, 0.00000, 0.00000, -0.15625, -0.03125, 0.03125, 0.03125, 0.03125, -0.06250, -0.03125, 0.03125, 0.12500, -0.03125, -0.06250, -0.12500, 0.03125, 0.03125, 0.03125, 0.06250, 0.15625, -0.03125, 0.03125, 0.03125, -0.06250, -0.12500, -0.03125, 0.03125, 0.03125, -0.03125, 0.00000, -0.09375, 0.03125, -0.06250, -0.06250, -0.06250, 0.00000, -0.03125, 0.03125, 0.03125, -0.03125, -0.06250, 0.06250, -0.03125, 0.15625, -0.03125, 0.09375, 0.00000, 0.03125, 0.00000, 0.03125, 0.00000, 0.00000, -0.06250, 0.03125, 0.06250, 0.00000, -0.06250, -0.03125, 0.00000, -0.09375, -0.09375, 0.00000, 0.00000, 0.00000, -0.03125, -0.03125, -0.09375, 0.21875, -0.03125, 0.03125, 0.09375, -0.03125, 0.00000, 0.06250, -0.03125, -0.03125, -0.03125, 0.06250, -0.03125, 0.00000, -0.03125, 0.00000, -0.03125, -0.03125, 0.03125, 0.00000, 0.03125, -0.03125, 0.03125, 0.00000, -0.03125, -0.06250, 0.00000, 0.00000, 0.00000, -0.03125, 0.00000, 0.03125, 0.03125, -0.09375, 0.03125, -0.06250, -0.03125, 0.03125, 0.00000, 0.00000, 0.00000, -0.06250, 0.03125, 0.00000, 0.03125, 0.00000, 0.03125, 0.03125, 0.00000, 0.06250, -0.03125, 0.03125, -0.03125, 0.03125, 0.03125, 0.00000, 0.00000, -0.03125, 0.03125, 0.00000, 0.03125, 0.03125, 0.00000, -0.03125, -0.03125, -0.18750, 0.03125, 0.09375, 0.00000, -0.06250, -0.06250, 0.03125, 0.03125, 0.06250, 0.00000, -0.09375, 0.03125, 0.03125, 0.03125, 0.03125, 0.06250, -0.03125, -0.03125, 0.03125, 0.00000, 0.03125, 0.06250, -0.03125, 0.03125, -0.03125, 0.03125, 0.00000, -0.03125, 0.00000, -0.03125, -0.03125, -0.09375, -0.09375, -0.03125, 0.03125, 0.00000, -0.03125, -0.12500, 0.03125, -0.06250, 0.12500, -0.03125, 0.03125, -0.03125, 0.00000, 0.03125, -0.03125, -0.03125, 0.03125, 0.03125, 0.00000, 0.00000, -0.03125, 0.03125, 0.00000, 0.03125, 0.03125, 0.03125, 0.00000, 0.00000, 0.00000, -0.03125, -0.03125, 0.06250, 0.03125, 0.00000, 0.00000, 0.00000, 0.00000, 0.00000, -0.03125, 0.03125, 0.06250, 0.12500, -0.03125, 0.00000, -0.03125, -0.12500, 0.03125, 0.03125, -0.12500, 0.03125, 0.00000, 0.00000, -0.03125, -0.12500, 0.09375, 0.03125, 0.00000, 0.00000, 0.03125, -0.09375, 0.00000, -0.09375, -0.06250, 0.00000, -0.09375, 0.03125, 0.00000, -0.03125, 0.00000, 0.00000, -0.06250, -0.06250, 0.06250, -0.12500, 0.06250, -0.03125, 0.00000, 0.00000, 0.00000, 0.00000, 0.00000, 0.03125, 0.03125, 0.03125, 0.00000, 0.00000, 0.00000, -0.03125, 0.00000, -0.03125, 0.00000, 0.03125, 0.00000, 0.03125, -0.03125, 0.03125, 0.06250, 0.03125, 0.06250, 0.00000, 0.06250, 0.06250, 0.00000, 0.00000, -0.09375, 0.09375, -0.03125, 0.03125, 0.00000, 0.00000, -0.03125, 0.00000, -0.03125, -0.03125, 0.00000, 0.03125, 0.00000, 0.06250, 0.00000, -0.03125, -0.03125, -0.03125, 0.00000, 0.00000, 0.00000, 0.00000, 0.00000, -0.03125, -0.06250, 0.00000, 0.03125, 0.00000, -0.03125, 0.06250, 0.00000, -0.06250, 0.06250, 0.03125, 0.06250, 0.06250, 0.00000, 0.12500, 0.03125, 0.00000, 0.00000, -0.03125, 0.00000, 0.03125, -0.09375, 0.06250, 0.03125, 0.09375, -0.03125, 0.00000, 0.03125, 0.00000, 0.00000, 0.09375, 0.12500, -0.03125, 0.09375, -0.06250, 0.09375, -0.03125, 0.09375, -0.09375, 0.00000, -0.03125, 0.12500, -0.12500, 0.03125, 0.00000, -0.03125, -0.06250, 0.03125, -0.03125, 0.03125, 0.06250, 0.00000, 0.00000, -0.03125, 0.00000, 0.00000, 0.00000, 0.03125, -0.09375, 0.00000, 0.00000, 0.03125, 0.00000, 0.06250, 0.03125, 0.03125, 0.00000, 0.03125, 0.06250, 0.03125, 0.03125, 0.00000, -0.06250, 0.03125, 0.06250, -0.03125, 0.00000, 0.00000, -0.03125, 0.00000, 0.00000, 0.06250, 0.00000, 0.00000, 0.00000, 0.06250, -0.03125, 0.00000, 0.00000, 0.00000, -0.03125, 0.00000, 0.00000, 0.00000, 0.00000, 0.00000, -0.06250, -0.15625, 0.00000, 0.00000, -0.03125, 0.03125, -0.03125, 0.03125, -0.03125, -0.03125, 0.03125, -0.03125, -0.03125, 0.00000, -0.03125, -0.03125, 0.00000, 0.03125, 0.00000, -0.03125, 0.00000, -0.03125, 0.00000, 0.03125, 0.00000, 0.03125, -0.09375, 0.03125, -0.03125, 0.00000, 0.09375, -0.03125, 0.00000, -0.09375, -0.03125, -0.03125, 0.03125, 0.00000, -0.03125, -0.06250, -0.06250, 0.03125, -0.03125, -0.03125, 0.03125, 0.00000, -0.03125, 0.00000, 0.00000, 0.00000, 0.00000, 0.00000, 0.00000, 0.00000, 0.00000, 0.00000, 0.03125, -0.03125, -0.06250, 0.00000, -0.06250, 0.03125, 0.00000, 0.00000, -0.03125, -0.09375, -0.03125, 0.03125, -0.03125, 0.03125, -0.09375, -0.03125, -0.03125, 0.09375, 0.03125, 0.00000, 0.06250, 0.03125, 0.09375, 0.06250, 0.03125, -0.06250, -0.03125, 0.06250, 0.06250, -0.03125, -0.03125, 0.03125, 0.06250, 0.09375, 0.00000, 0.03125, -0.03125, 0.00000, 0.09375, -0.03125, -0.06250, -0.06250, 0.00000, 0.03125, 0.12500, -0.03125, -0.09375, 0.00000, 0.00000, -0.06250, 0.06250, -0.09375, -0.03125, 0.00000, -0.12500, 0.00000, 0.00000, -0.03125, -0.03125, 0.00000, 0.00000, 0.00000, -0.09375, 0.00000, 0.03125, -0.03125, 0.00000, 0.03125, -0.09375, 0.00000, 0.03125, -0.03125, -0.06250, -0.15625, -0.03125, 0.06250, 0.00000, 0.00000, 0.00000, 0.00000, 0.00000, 0.03125, 0.00000, -0.12500, -0.03125, 0.03125, 0.00000, 0.03125, 0.09375, -0.03125, 0.06250, -0.03125, 0.03125, -0.06250, -0.09375, 0.03125, 0.03125, -0.12500, -0.06250, 0.03125, -0.15625, 0.03125, -0.03125, -0.03125, -0.06250, -0.21875, 0.00000, 0.03125, 0.00000, 0.03125, -0.06250, 0.00000, -0.06250, 0.15625, 0.03125, 0.00000, -0.03125, 0.00000, -0.03125, 0.03125, 0.00000, -0.03125, 0.00000, 0.00000, -0.03125, -0.03125, -0.03125, 0.03125, 0.03125, 0.00000, -0.03125, 0.03125, -0.03125, -0.03125, -0.03125, 0.03125, -0.03125, -0.03125, 0.00000, -0.03125, 0.06250, 0.03125, 0.03125, -0.03125, 0.03125, 0.00000, 0.00000, 0.03125, 0.00000, 0.00000, -0.09375, -0.03125, -0.03125, 0.00000, 0.03125, 0.00000, -0.03125, 0.00000, 0.03125, 0.00000, -0.03125, -0.09375, -0.03125, 0.00000, 0.03125, -0.06250, 0.03125, -0.03125, -0.06250, 0.00000, 0.03125, 0.00000, 0.00000, 0.03125, 0.03125, -0.03125, -0.03125, -0.03125, 0.00000};
#endif

#endif
