//Numpy array shape [3, 3, 32, 32]
//Min -0.468750000000
//Max 0.531250000000
//Number of zeros 2216

#ifndef W18_H_
#define W18_H_

#ifndef __SYNTHESIS__
weight18_t w18[9216];
#else
weight18_t w18[9216] = {-0.06250, 0.03125, 0.00000, -0.03125, 0.03125, 0.03125, -0.03125, -0.03125, 0.00000, 0.00000, 0.03125, 0.03125, -0.03125, 0.00000, 0.03125, 0.03125, 0.00000, 0.06250, 0.00000, 0.00000, 0.03125, 0.03125, 0.03125, 0.03125, -0.06250, -0.03125, -0.03125, 0.03125, 0.00000, 0.00000, -0.03125, 0.03125, -0.09375, 0.03125, 0.00000, -0.03125, 0.03125, -0.03125, -0.03125, 0.00000, -0.03125, 0.00000, 0.03125, 0.00000, 0.06250, 0.03125, 0.00000, -0.03125, 0.00000, -0.03125, 0.03125, 0.00000, 0.00000, 0.00000, 0.00000, -0.06250, -0.03125, 0.00000, -0.03125, 0.00000, 0.03125, 0.00000, -0.06250, 0.00000, -0.03125, 0.00000, 0.00000, -0.03125, 0.03125, -0.06250, -0.03125, 0.03125, 0.00000, 0.00000, 0.03125, 0.03125, 0.06250, 0.00000, 0.03125, 0.00000, -0.03125, 0.00000, 0.06250, 0.00000, -0.03125, 0.00000, 0.00000, -0.03125, 0.00000, 0.00000, -0.03125, 0.06250, 0.00000, 0.00000, 0.03125, 0.03125, -0.09375, 0.00000, -0.03125, 0.00000, 0.03125, 0.00000, 0.00000, 0.00000, -0.03125, -0.03125, 0.00000, 0.00000, 0.00000, 0.00000, 0.03125, 0.03125, 0.03125, 0.00000, 0.03125, 0.03125, 0.00000, 0.03125, 0.00000, -0.03125, 0.03125, 0.00000, 0.00000, 0.03125, -0.03125, 0.00000, 0.03125, 0.03125, -0.03125, 0.00000, -0.03125, 0.00000, 0.00000, 0.03125, -0.09375, 0.00000, -0.03125, 0.03125, 0.06250, 0.03125, 0.03125, 0.00000, 0.03125, -0.03125, 0.03125, 0.03125, 0.00000, 0.00000, 0.03125, 0.03125, 0.00000, 0.06250, 0.00000, -0.03125, 0.00000, 0.03125, 0.00000, 0.00000, 0.00000, 0.03125, -0.06250, 0.03125, 0.00000, 0.00000, -0.03125, -0.06250, 0.00000, 0.00000, 0.00000, 0.00000, -0.03125, 0.06250, 0.03125, 0.00000, 0.03125, 0.00000, 0.00000, 0.00000, 0.03125, 0.00000, -0.03125, 0.03125, 0.00000, 0.00000, 0.00000, 0.00000, -0.03125, 0.03125, 0.00000, 0.00000, -0.06250, 0.00000, -0.03125, -0.03125, 0.00000, 0.00000, -0.06250, 0.09375, 0.00000, 0.00000, 0.03125, -0.03125, -0.06250, 0.09375, 0.09375, 0.00000, 0.00000, -0.03125, 0.00000, 0.00000, 0.00000, 0.00000, -0.06250, 0.00000, -0.03125, -0.03125, 0.03125, 0.00000, -0.03125, 0.00000, -0.06250, 0.00000, 0.00000, 0.00000, -0.09375, 0.00000, 0.00000, 0.00000, 0.03125, -0.03125, 0.00000, 0.00000, 0.00000, -0.03125, 0.00000, -0.06250, -0.09375, 0.00000, 0.00000, 0.00000, 0.00000, -0.09375, 0.00000, 0.00000, 0.00000, 0.00000, -0.03125, 0.00000, 0.00000, 0.03125, 0.00000, -0.03125, 0.03125, 0.00000, -0.15625, 0.00000, -0.06250, 0.00000, 0.00000, 0.00000, 0.03125, -0.09375, -0.03125, 0.00000, 0.03125, -0.03125, 0.00000, 0.00000, 0.06250, 0.00000, 0.00000, 0.03125, 0.03125, 0.03125, -0.03125, 0.00000, -0.03125, 0.03125, 0.00000, -0.06250, 0.06250, -0.03125, -0.03125, 0.03125, -0.03125, 0.00000, 0.06250, 0.03125, -0.09375, 0.00000, 0.00000, 0.00000, -0.06250, -0.03125, 0.03125, 0.03125, 0.00000, 0.00000, 0.00000, 0.03125, 0.12500, 0.00000, 0.03125, 0.00000, 0.00000, -0.03125, 0.03125, 0.00000, -0.03125, 0.03125, 0.00000, 0.00000, -0.03125, 0.00000, 0.00000, 0.03125, -0.03125, 0.00000, -0.09375, 0.03125, 0.00000, 0.00000, 0.00000, -0.03125, 0.00000, 0.00000, 0.00000, 0.00000, 0.00000, 0.00000, -0.03125, 0.00000, 0.06250, 0.00000, 0.00000, 0.00000, 0.00000, -0.03125, -0.03125, 0.00000, 0.00000, 0.00000, -0.03125, 0.00000, 0.00000, 0.00000, 0.03125, 0.00000, 0.00000, 0.00000, 0.00000, 0.00000, -0.06250, 0.03125, 0.00000, -0.03125, 0.06250, 0.00000, -0.03125, 0.00000, -0.03125, -0.03125, 0.03125, -0.03125, -0.12500, 0.00000, 0.03125, 0.00000, 0.03125, 0.00000, 0.00000, 0.03125, 0.03125, 0.03125, 0.03125, -0.03125, 0.00000, -0.03125, 0.00000, 0.00000, -0.03125, 0.00000, 0.03125, 0.03125, -0.06250, 0.03125, 0.00000, 0.00000, 0.03125, -0.03125, 0.00000, 0.00000, 0.00000, 0.00000, 0.00000, -0.03125, 0.03125, 0.03125, 0.00000, 0.03125, 0.00000, -0.03125, 0.00000, 0.00000, 0.06250, 0.03125, 0.00000, -0.09375, 0.00000, 0.00000, 0.00000, 0.03125, -0.03125, 0.03125, 0.03125, 0.03125, -0.03125, 0.03125, 0.00000, 0.00000, -0.06250, 0.06250, -0.03125, 0.03125, -0.03125, 0.00000, 0.03125, 0.09375, -0.06250, -0.03125, 0.00000, -0.06250, 0.03125, 0.03125, 0.06250, 0.00000, 0.03125, 0.00000, 0.00000, -0.03125, 0.00000, -0.03125, -0.03125, 0.00000, -0.03125, 0.00000, 0.00000, 0.00000, 0.00000, 0.00000, 0.03125, -0.03125, 0.03125, 0.03125, -0.03125, 0.00000, 0.00000, 0.03125, 0.03125, 0.03125, 0.00000, 0.00000, 0.03125, 0.03125, 0.00000, 0.03125, 0.06250, 0.00000, 0.00000, 0.06250, 0.03125, 0.00000, 0.03125, 0.00000, 0.00000, -0.03125, 0.00000, 0.00000, 0.03125, 0.03125, 0.00000, -0.03125, 0.00000, 0.00000, 0.00000, 0.03125, 0.00000, 0.00000, -0.03125, 0.00000, -0.03125, 0.00000, 0.15625, 0.00000, 0.00000, 0.00000, 0.00000, 0.00000, 0.00000, 0.00000, 0.00000, 0.00000, -0.03125, 0.00000, 0.03125, -0.03125, 0.00000, 0.00000, 0.00000, 0.00000, 0.06250, -0.03125, -0.09375, 0.03125, -0.03125, 0.03125, 0.00000, -0.06250, -0.03125, 0.03125, 0.00000, 0.00000, 0.03125, 0.00000, 0.09375, -0.03125, 0.03125, -0.06250, 0.00000, 0.00000, 0.00000, 0.00000, -0.03125, 0.00000, 0.00000, 0.00000, 0.03125, 0.00000, -0.03125, 0.03125, 0.00000, 0.00000, -0.06250, 0.03125, 0.00000, 0.00000, 0.03125, 0.00000, 0.09375, 0.03125, -0.03125, 0.00000, -0.03125, -0.03125, 0.00000, 0.06250, 0.03125, -0.03125, 0.00000, -0.03125, 0.00000, 0.06250, 0.03125, 0.00000, -0.03125, 0.00000, 0.03125, -0.06250, -0.03125, -0.03125, 0.00000, 0.03125, 0.00000, 0.03125, 0.09375, 0.00000, -0.03125, 0.00000, 0.03125, -0.03125, 0.00000, -0.03125, 0.00000, 0.00000, 0.00000, -0.03125, 0.03125, 0.00000, -0.09375, -0.03125, 0.00000, 0.00000, 0.00000, 0.03125, 0.00000, 0.00000, 0.03125, 0.00000, 0.00000, -0.03125, -0.03125, 0.00000, -0.03125, 0.00000, 0.00000, 0.00000, -0.03125, 0.00000, -0.06250, 0.00000, 0.00000, 0.03125, 0.00000, 0.00000, -0.09375, 0.00000, 0.00000, 0.00000, -0.03125, 0.00000, -0.03125, 0.03125, 0.00000, 0.03125, 0.00000, 0.00000, 0.03125, 0.00000, 0.00000, 0.00000, 0.00000, -0.06250, 0.03125, 0.00000, 0.03125, -0.03125, 0.00000, -0.03125, -0.06250, 0.00000, -0.09375, 0.00000, 0.00000, 0.03125, 0.00000, 0.00000, 0.03125, 0.00000, 0.00000, 0.00000, 0.00000, -0.03125, -0.09375, 0.00000, 0.00000, 0.00000, 0.00000, -0.06250, 0.03125, 0.00000, 0.00000, 0.00000, 0.00000, 0.00000, 0.00000, 0.00000, 0.00000, -0.03125, 0.03125, 0.00000, -0.06250, 0.00000, 0.00000, 0.00000, 0.00000, 0.00000, 0.00000, -0.09375, 0.03125, 0.00000, 0.03125, -0.06250, 0.00000, -0.03125, 0.03125, 0.00000, 0.00000, 0.00000, 0.00000, -0.03125, 0.00000, 0.00000, 0.00000, 0.00000, 0.00000, 0.03125, 0.00000, -0.03125, 0.00000, 0.00000, 0.00000, 0.00000, 0.00000, 0.03125, -0.09375, -0.03125, -0.06250, 0.00000, -0.12500, -0.06250, 0.00000, -0.03125, -0.06250, -0.03125, -0.03125, 0.03125, 0.00000, 0.00000, 0.03125, -0.03125, -0.03125, 0.03125, 0.00000, 0.00000, -0.06250, -0.03125, 0.00000, -0.06250, 0.00000, 0.03125, 0.00000, 0.00000, -0.12500, 0.00000, -0.03125, 0.00000, -0.03125, 0.00000, 0.03125, 0.00000, 0.03125, -0.03125, -0.06250, 0.00000, 0.00000, 0.00000, 0.03125, 0.00000, 0.00000, 0.00000, 0.00000, 0.03125, 0.03125, 0.00000, 0.00000, 0.00000, -0.03125, 0.00000, -0.03125, -0.03125, 0.00000, -0.03125, 0.00000, 0.03125, 0.00000, 0.00000, 0.03125, 0.00000, -0.06250, 0.00000, 0.00000, 0.00000, 0.00000, 0.06250, 0.06250, 0.00000, 0.00000, 0.00000, 0.00000, 0.00000, -0.06250, -0.03125, 0.00000, 0.00000, 0.00000, -0.03125, 0.06250, 0.03125, -0.03125, 0.03125, 0.00000, 0.00000, 0.03125, 0.00000, 0.00000, 0.00000, 0.00000, 0.03125, -0.03125, 0.00000, -0.03125, 0.03125, 0.03125, -0.03125, 0.00000, 0.00000, 0.00000, 0.00000, 0.00000, 0.00000, 0.06250, 0.00000, -0.06250, 0.03125, 0.03125, 0.03125, 0.03125, 0.00000, 0.03125, 0.00000, 0.03125, 0.03125, 0.00000, -0.03125, -0.03125, 0.00000, -0.03125, 0.00000, 0.00000, 0.00000, 0.00000, 0.00000, -0.03125, -0.03125, 0.00000, 0.00000, 0.00000, 0.03125, 0.00000, 0.00000, 0.00000, 0.00000, 0.03125, 0.00000, -0.03125, 0.00000, 0.00000, 0.00000, 0.00000, -0.03125, 0.00000, 0.00000, 0.00000, 0.00000, 0.00000, 0.00000, 0.00000, 0.00000, 0.00000, 0.00000, 0.00000, 0.00000, -0.06250, 0.00000, 0.00000, 0.03125, 0.00000, 0.03125, -0.03125, 0.00000, -0.03125, -0.03125, -0.03125, 0.00000, 0.00000, 0.03125, 0.00000, 0.00000, 0.00000, 0.03125, 0.00000, 0.00000, 0.03125, 0.03125, 0.00000, 0.03125, 0.00000, 0.03125, 0.06250, 0.00000, 0.00000, 0.03125, -0.03125, 0.00000, 0.00000, 0.03125, -0.09375, 0.00000, -0.03125, 0.00000, 0.03125, 0.00000, -0.03125, 0.00000, -0.03125, -0.03125, 0.00000, 0.00000, -0.06250, 0.00000, 0.03125, 0.00000, 0.00000, -0.03125, 0.00000, 0.03125, 0.03125, 0.03125, -0.03125, 0.00000, 0.00000, 0.00000, 0.00000, 0.00000, -0.03125, 0.03125, -0.03125, 0.00000, -0.06250, 0.00000, 0.00000, 0.00000, 0.03125, -0.06250, 0.03125, 0.00000, 0.00000, -0.03125, -0.03125, -0.06250, -0.06250, 0.00000, 0.00000, 0.00000, 0.00000, -0.06250, 0.00000, 0.00000, 0.00000, 0.00000, -0.03125, 0.00000, 0.00000, 0.00000, 0.03125, 0.00000, 0.03125, 0.00000, -0.06250, -0.03125, -0.03125, 0.03125, 0.00000, 0.00000, 0.03125, -0.03125, -0.03125, 0.00000, 0.00000, -0.03125, 0.03125, 0.06250, -0.12500, -0.03125, 0.03125, -0.03125, 0.00000, 0.03125, 0.00000, 0.00000, -0.03125, 0.00000, 0.03125, -0.03125, 0.00000, -0.03125, 0.00000, 0.00000, 0.00000, 0.00000, -0.06250, 0.03125, 0.00000, 0.00000, 0.03125, 0.00000, 0.00000, -0.03125, 0.00000, 0.03125, 0.00000, -0.06250, 0.03125, -0.03125, 0.12500, 0.00000, 0.00000, -0.03125, 0.00000, 0.03125, 0.03125, 0.03125, 0.00000, 0.00000, 0.00000, 0.00000, 0.06250, 0.00000, 0.00000, -0.03125, 0.00000, 0.03125, -0.06250, 0.00000, -0.03125, 0.03125, 0.00000, -0.03125, 0.06250, 0.03125, -0.03125, 0.00000, 0.00000, -0.03125, 0.06250, -0.03125, 0.03125, 0.00000, 0.03125, 0.00000, 0.03125, 0.03125, 0.03125, 0.00000, 0.06250, 0.00000, 0.03125, -0.03125, -0.03125, -0.03125, 0.00000, 0.03125, 0.03125, 0.00000, 0.06250, 0.03125, -0.03125, 0.00000, 0.00000, 0.00000, 0.00000, -0.03125, 0.03125, 0.00000, 0.00000, 0.00000, 0.00000, 0.00000, -0.18750, 0.00000, 0.00000, -0.03125, 0.00000, -0.03125, 0.00000, 0.00000, 0.00000, 0.00000, 0.00000, 0.03125, 0.00000, 0.00000, 0.00000, 0.00000, 0.03125, 0.00000, 0.03125, 0.00000, -0.03125, 0.03125, 0.03125, 0.00000, 0.03125, -0.03125, 0.03125, 0.03125, 0.00000, 0.00000, 0.03125, -0.03125, -0.06250, -0.03125, 0.00000, 0.00000, 0.00000, -0.03125, 0.00000, 0.03125, 0.00000, 0.00000, 0.00000, -0.06250, 0.03125, 0.00000, -0.03125, 0.03125, -0.03125, 0.00000, 0.03125, 0.03125, -0.03125, 0.03125, 0.03125, -0.03125, 0.09375, 0.00000, -0.03125, 0.00000, 0.00000, 0.00000, 0.00000, -0.03125, -0.03125, 0.03125, 0.03125, 0.03125, 0.06250, 0.06250, 0.03125, 0.03125, 0.00000, 0.03125, 0.00000, 0.00000, 0.00000, 0.00000, 0.00000, 0.03125, 0.03125, 0.03125, 0.06250, 0.00000, 0.03125, 0.00000, 0.00000, 0.00000, 0.00000, 0.00000, 0.00000, 0.00000, -0.03125, 0.00000, 0.00000, 0.03125, -0.09375, 0.00000, 0.00000, 0.00000, 0.00000, 0.03125, 0.00000, 0.03125, 0.06250, 0.00000, 0.00000, -0.03125, -0.03125, 0.00000, 0.00000, 0.00000, 0.00000, -0.03125, 0.03125, 0.00000, 0.00000, 0.00000, 0.03125, 0.03125, -0.03125, 0.00000, -0.03125, 0.03125, 0.03125, 0.00000, -0.06250, 0.03125, 0.09375, 0.00000, 0.00000, -0.03125, 0.00000, 0.00000, 0.03125, 0.00000, 0.00000, 0.00000, 0.03125, 0.00000, 0.00000, 0.00000, 0.00000, 0.00000, -0.03125, 0.00000, -0.09375, 0.00000, -0.06250, 0.00000, 0.00000, 0.03125, -0.06250, 0.06250, 0.00000, 0.03125, 0.03125, -0.03125, 0.00000, 0.00000, 0.18750, 0.00000, 0.03125, 0.03125, 0.00000, 0.00000, 0.03125, 0.03125, 0.00000, 0.00000, 0.00000, 0.00000, 0.00000, -0.03125, 0.00000, 0.00000, 0.00000, 0.00000, -0.06250, 0.00000, -0.06250, 0.00000, 0.00000, 0.00000, 0.03125, -0.03125, 0.00000, 0.00000, -0.03125, -0.06250, 0.00000, 0.00000, 0.06250, 0.00000, 0.00000, 0.00000, -0.03125, -0.06250, -0.03125, 0.00000, 0.00000, 0.03125, -0.03125, 0.00000, 0.00000, 0.03125, 0.03125, -0.03125, 0.03125, -0.03125, -0.03125, 0.00000, 0.03125, 0.00000, 0.06250, 0.00000, 0.06250, 0.03125, 0.00000, 0.00000, 0.00000, 0.00000, -0.03125, -0.03125, 0.03125, -0.03125, 0.03125, 0.00000, 0.03125, 0.06250, 0.03125, 0.00000, 0.03125, 0.00000, 0.00000, 0.00000, 0.00000, 0.00000, -0.03125, 0.00000, 0.00000, 0.00000, 0.03125, 0.03125, 0.00000, 0.03125, 0.03125, -0.03125, -0.06250, -0.06250, 0.00000, 0.03125, 0.00000, 0.00000, 0.00000, 0.00000, 0.03125, 0.00000, 0.00000, -0.03125, 0.03125, 0.00000, 0.00000, 0.00000, 0.00000, 0.03125, 0.00000, 0.03125, 0.00000, 0.00000, 0.00000, 0.03125, 0.00000, 0.03125, -0.03125, 0.03125, 0.00000, 0.00000, 0.00000, 0.03125, 0.00000, 0.00000, 0.00000, 0.00000, 0.00000, -0.03125, -0.03125, 0.00000, 0.00000, 0.00000, 0.00000, 0.00000, 0.00000, 0.03125, 0.00000, 0.00000, 0.00000, 0.00000, -0.03125, 0.00000, 0.00000, 0.00000, 0.00000, 0.00000, -0.03125, 0.00000, 0.00000, 0.00000, 0.00000, 0.03125, 0.06250, -0.03125, 0.06250, 0.00000, 0.00000, 0.00000, -0.03125, -0.03125, 0.00000, 0.03125, -0.09375, -0.03125, 0.03125, -0.03125, 0.03125, 0.03125, 0.00000, 0.03125, 0.06250, 0.03125, 0.00000, 0.03125, -0.03125, 0.00000, -0.03125, 0.03125, 0.00000, 0.03125, 0.00000, 0.03125, -0.03125, 0.03125, 0.00000, 0.00000, 0.00000, 0.03125, 0.03125, 0.03125, 0.00000, 0.00000, -0.03125, -0.03125, 0.00000, 0.00000, 0.00000, 0.00000, 0.00000, -0.03125, 0.06250, 0.00000, 0.06250, 0.03125, 0.00000, 0.00000, 0.00000, 0.03125, 0.00000, 0.03125, -0.03125, 0.00000, 0.03125, 0.00000, -0.06250, 0.00000, 0.00000, 0.00000, -0.06250, -0.06250, -0.03125, 0.00000, 0.00000, 0.00000, 0.03125, 0.00000, -0.06250, 0.00000, 0.03125, 0.00000, 0.06250, 0.00000, 0.06250, 0.03125, 0.06250, 0.03125, 0.03125, -0.03125, -0.03125, 0.00000, -0.03125, 0.03125, -0.03125, 0.03125, -0.06250, 0.03125, 0.06250, 0.03125, 0.03125, 0.00000, 0.00000, 0.00000, -0.03125, 0.00000, 0.00000, 0.03125, -0.03125, 0.03125, -0.03125, 0.00000, 0.00000, 0.00000, 0.06250, -0.03125, 0.00000, 0.00000, -0.03125, 0.03125, 0.03125, -0.06250, 0.00000, 0.00000, 0.00000, 0.03125, 0.00000, -0.03125, 0.03125, 0.00000, 0.00000, 0.00000, 0.00000, 0.00000, 0.00000, 0.03125, -0.03125, 0.00000, 0.00000, 0.00000, 0.00000, 0.00000, 0.06250, 0.03125, 0.00000, 0.00000, 0.00000, 0.00000, 0.06250, 0.00000, 0.00000, 0.03125, 0.00000, 0.03125, 0.00000, 0.00000, 0.00000, 0.00000, 0.00000, 0.00000, 0.03125, 0.00000, 0.00000, 0.00000, 0.00000, 0.00000, 0.00000, 0.00000, 0.00000, 0.03125, 0.00000, 0.00000, 0.00000, 0.00000, 0.12500, -0.03125, 0.00000, 0.00000, 0.03125, 0.03125, 0.03125, 0.00000, 0.03125, 0.03125, 0.00000, 0.06250, 0.03125, 0.00000, -0.03125, 0.00000, 0.03125, 0.03125, -0.06250, 0.00000, 0.09375, 0.03125, 0.03125, 0.00000, 0.03125, 0.00000, -0.03125, 0.00000, -0.03125, -0.03125, 0.06250, 0.00000, -0.03125, 0.00000, 0.03125, 0.03125, 0.00000, 0.06250, 0.00000, 0.03125, 0.03125, 0.06250, 0.03125, -0.06250, 0.00000, 0.00000, 0.00000, 0.00000, 0.00000, 0.03125, 0.09375, 0.03125, -0.03125, 0.03125, 0.00000, -0.03125, 0.03125, -0.03125, -0.03125, 0.00000, 0.00000, -0.03125, 0.00000, -0.03125, 0.00000, 0.00000, 0.00000, 0.00000, 0.00000, 0.03125, 0.00000, 0.00000, 0.03125, 0.03125, 0.00000, 0.03125, -0.06250, 0.00000, 0.00000, 0.00000, 0.00000, 0.00000, 0.00000, 0.00000, -0.06250, 0.00000, 0.00000, 0.03125, 0.00000, 0.00000, 0.03125, 0.00000, -0.03125, 0.00000, -0.03125, 0.00000, 0.00000, 0.00000, 0.00000, 0.03125, 0.00000, -0.03125, 0.00000, 0.00000, -0.03125, 0.03125, -0.03125, -0.03125, -0.03125, 0.00000, 0.00000, 0.00000, 0.03125, 0.00000, -0.06250, 0.00000, -0.06250, 0.00000, 0.00000, 0.00000, 0.00000, 0.03125, 0.00000, 0.00000, 0.00000, 0.00000, 0.00000, 0.00000, -0.06250, 0.00000, 0.00000, 0.00000, -0.03125, -0.03125, 0.00000, 0.00000, 0.00000, 0.00000, 0.00000, -0.03125, 0.00000, 0.00000, 0.00000, -0.03125, 0.03125, 0.00000, -0.03125, 0.00000, -0.03125, 0.00000, 0.03125, 0.00000, 0.03125, -0.09375, 0.00000, 0.00000, 0.06250, -0.03125, 0.00000, 0.00000, 0.09375, 0.00000, 0.00000, -0.03125, 0.00000, 0.00000, 0.00000, 0.00000, -0.03125, 0.00000, -0.03125, 0.00000, 0.03125, 0.00000, 0.00000, 0.00000, 0.00000, 0.03125, 0.00000, 0.03125, -0.03125, 0.00000, -0.03125, -0.03125, -0.09375, 0.00000, 0.00000, -0.03125, -0.03125, 0.00000, 0.03125, 0.00000, -0.03125, 0.00000, 0.03125, 0.00000, -0.03125, 0.00000, 0.00000, 0.00000, 0.00000, -0.03125, 0.00000, 0.00000, 0.03125, 0.00000, 0.03125, 0.00000, -0.06250, 0.03125, -0.03125, 0.03125, 0.00000, 0.00000, 0.03125, 0.00000, 0.03125, 0.00000, 0.00000, -0.03125, 0.00000, 0.00000, 0.03125, 0.00000, -0.03125, 0.00000, 0.00000, 0.00000, 0.00000, 0.00000, 0.00000, 0.00000, 0.03125, 0.03125, 0.00000, -0.03125, -0.03125, 0.00000, 0.00000, 0.03125, 0.00000, 0.00000, 0.00000, 0.00000, -0.06250, 0.03125, 0.03125, 0.00000, 0.00000, -0.03125, -0.06250, 0.03125, 0.00000, 0.00000, 0.00000, 0.00000, 0.18750, -0.03125, 0.00000, 0.06250, 0.03125, -0.09375, 0.06250, 0.03125, 0.03125, 0.03125, 0.00000, -0.03125, 0.03125, -0.03125, 0.00000, 0.00000, 0.00000, 0.03125, -0.03125, 0.03125, -0.06250, 0.00000, 0.03125, 0.03125, -0.03125, -0.03125, 0.00000, 0.00000, 0.00000, 0.00000, 0.03125, 0.00000, 0.00000, 0.00000, 0.00000, 0.00000, 0.06250, 0.00000, 0.03125, 0.00000, 0.00000, 0.00000, 0.03125, -0.03125, -0.06250, -0.03125, -0.03125, 0.00000, 0.00000, 0.00000, 0.03125, 0.03125, -0.06250, 0.00000, 0.00000, 0.00000, 0.00000, 0.00000, 0.00000, 0.00000, 0.00000, 0.00000, 0.00000, 0.00000, -0.18750, 0.00000, 0.00000, 0.00000, 0.00000, 0.03125, 0.00000, 0.00000, 0.00000, 0.00000, -0.03125, 0.00000, -0.03125, 0.00000, 0.00000, -0.03125, 0.00000, 0.00000, -0.03125, 0.00000, 0.06250, 0.00000, 0.00000, -0.03125, -0.06250, 0.03125, 0.00000, 0.03125, 0.00000, 0.00000, 0.00000, 0.03125, -0.03125, 0.00000, 0.03125, -0.03125, 0.00000, 0.03125, 0.00000, 0.03125, 0.00000, 0.03125, 0.00000, -0.06250, 0.03125, 0.00000, 0.00000, 0.00000, 0.00000, 0.03125, -0.03125, 0.00000, 0.00000, 0.00000, 0.00000, -0.03125, 0.00000, 0.00000, 0.03125, 0.00000, -0.03125, -0.03125, 0.03125, 0.00000, -0.06250, -0.03125, 0.03125, 0.03125, 0.03125, 0.03125, 0.00000, 0.03125, 0.00000, 0.00000, 0.00000, -0.03125, 0.00000, 0.00000, -0.03125, 0.03125, -0.03125, 0.03125, -0.03125, 0.00000, -0.06250, 0.00000, 0.00000, 0.00000, 0.03125, 0.03125, -0.06250, 0.00000, -0.03125, 0.00000, -0.03125, -0.03125, -0.12500, 0.00000, 0.00000, 0.00000, 0.00000, -0.09375, 0.03125, 0.00000, 0.00000, 0.00000, -0.03125, 0.00000, 0.00000, 0.00000, 0.03125, 0.00000, 0.03125, 0.00000, -0.03125, 0.00000, -0.06250, 0.03125, 0.06250, 0.00000, 0.06250, -0.03125, -0.03125, 0.00000, 0.03125, -0.03125, -0.03125, 0.00000, 0.00000, -0.06250, 0.00000, 0.03125, 0.03125, -0.03125, 0.03125, 0.00000, 0.03125, 0.03125, 0.00000, 0.00000, 0.00000, -0.03125, 0.00000, -0.03125, -0.03125, 0.00000, -0.15625, 0.00000, 0.03125, 0.00000, 0.00000, 0.03125, 0.00000, 0.00000, -0.03125, 0.00000, -0.03125, -0.03125, 0.00000, 0.00000, 0.09375, 0.00000, 0.00000, 0.03125, 0.00000, 0.00000, 0.00000, 0.03125, 0.03125, 0.00000, -0.03125, 0.00000, 0.03125, 0.00000, -0.03125, -0.03125, 0.00000, 0.00000, -0.06250, 0.03125, 0.00000, 0.06250, 0.03125, -0.03125, 0.09375, 0.03125, -0.03125, -0.03125, 0.00000, -0.03125, 0.03125, 0.03125, -0.03125, -0.03125, 0.00000, 0.00000, -0.03125, 0.09375, 0.00000, 0.00000, 0.03125, 0.03125, 0.03125, 0.00000, -0.03125, 0.00000, 0.00000, 0.03125, 0.03125, 0.03125, 0.06250, 0.03125, -0.06250, 0.00000, 0.00000, 0.00000, 0.03125, -0.03125, -0.03125, -0.03125, -0.03125, 0.00000, 0.00000, 0.00000, -0.12500, 0.00000, 0.00000, 0.03125, 0.00000, 0.00000, -0.03125, 0.00000, 0.00000, 0.00000, -0.03125, 0.00000, -0.03125, 0.00000, 0.00000, 0.00000, 0.03125, 0.00000, 0.06250, 0.00000, 0.00000, 0.00000, 0.00000, 0.00000, 0.03125, -0.06250, -0.06250, 0.03125, 0.00000, 0.00000, 0.00000, -0.03125, 0.06250, -0.03125, 0.00000, 0.00000, -0.03125, 0.00000, 0.00000, 0.03125, 0.00000, 0.03125, -0.03125, -0.03125, 0.03125, 0.00000, 0.00000, 0.03125, 0.03125, 0.00000, 0.00000, 0.00000, -0.09375, 0.03125, 0.06250, 0.00000, 0.09375, -0.03125, -0.03125, -0.03125, 0.00000, 0.00000, 0.03125, 0.00000, -0.03125, 0.03125, 0.00000, 0.00000, 0.03125, -0.03125, 0.00000, 0.03125, 0.00000, 0.03125, 0.00000, 0.03125, -0.03125, 0.00000, 0.00000, 0.00000, 0.03125, 0.03125, -0.03125, 0.00000, 0.00000, 0.00000, 0.00000, 0.00000, 0.03125, 0.03125, 0.00000, 0.03125, -0.03125, 0.00000, 0.00000, 0.00000, -0.06250, 0.03125, 0.00000, -0.03125, 0.00000, -0.03125, 0.00000, 0.03125, 0.03125, 0.00000, 0.00000, 0.00000, -0.03125, 0.00000, 0.00000, 0.00000, 0.00000, 0.00000, 0.06250, 0.00000, 0.03125, 0.00000, -0.03125, -0.03125, 0.00000, 0.03125, 0.00000, 0.06250, -0.03125, -0.03125, -0.03125, 0.03125, -0.03125, 0.00000, 0.00000, -0.03125, -0.03125, -0.03125, 0.00000, 0.00000, 0.00000, 0.00000, 0.03125, 0.00000, 0.03125, 0.00000, 0.03125, 0.00000, 0.00000, 0.00000, -0.21875, 0.00000, 0.00000, 0.00000, 0.00000, 0.03125, 0.03125, 0.06250, -0.03125, 0.03125, 0.00000, -0.03125, 0.00000, -0.03125, -0.03125, -0.03125, -0.03125, -0.06250, 0.00000, 0.03125, 0.00000, 0.03125, 0.00000, 0.00000, 0.00000, 0.00000, 0.00000, 0.00000, 0.00000, -0.03125, 0.00000, 0.00000, -0.03125, 0.00000, -0.09375, 0.00000, 0.00000, 0.00000, 0.00000, 0.00000, 0.00000, 0.00000, -0.03125, -0.06250, 0.00000, 0.00000, 0.03125, 0.00000, 0.00000, 0.00000, -0.03125, -0.03125, -0.03125, 0.00000, 0.00000, 0.00000, -0.06250, -0.03125, 0.00000, 0.00000, 0.00000, -0.03125, 0.03125, 0.00000, 0.06250, 0.00000, 0.03125, 0.00000, 0.03125, 0.00000, 0.06250, -0.06250, 0.03125, 0.00000, 0.03125, -0.03125, 0.00000, 0.03125, 0.03125, 0.00000, 0.00000, 0.03125, 0.00000, -0.03125, 0.00000, 0.03125, 0.03125, 0.00000, 0.00000, -0.03125, 0.00000, 0.00000, 0.00000, 0.00000, 0.00000, 0.00000, -0.03125, 0.00000, 0.03125, 0.00000, 0.00000, 0.00000, 0.00000, 0.00000, 0.00000, 0.03125, 0.00000, 0.00000, -0.03125, 0.00000, 0.03125, 0.00000, 0.00000, -0.03125, 0.03125, -0.06250, 0.03125, 0.00000, 0.00000, 0.03125, 0.00000, 0.00000, -0.06250, 0.00000, -0.03125, 0.00000, 0.03125, 0.00000, -0.06250, 0.03125, 0.00000, -0.03125, 0.00000, 0.00000, 0.00000, 0.00000, 0.00000, 0.00000, 0.00000, 0.00000, -0.06250, 0.00000, 0.03125, 0.00000, 0.00000, 0.00000, 0.00000, 0.03125, 0.00000, 0.00000, 0.00000, 0.00000, -0.03125, 0.00000, 0.03125, 0.00000, 0.00000, 0.00000, 0.00000, 0.00000, 0.03125, 0.00000, 0.03125, 0.00000, 0.03125, 0.00000, 0.09375, -0.03125, -0.03125, 0.00000, -0.03125, -0.03125, 0.06250, 0.03125, 0.06250, -0.03125, 0.00000, 0.03125, 0.00000, 0.03125, -0.03125, 0.03125, 0.00000, 0.00000, 0.00000, 0.00000, 0.00000, -0.03125, 0.00000, 0.03125, 0.03125, 0.00000, 0.00000, 0.03125, 0.00000, 0.03125, 0.03125, -0.03125, 0.00000, 0.03125, 0.00000, 0.00000, -0.03125, 0.00000, 0.00000, 0.03125, 0.00000, -0.03125, 0.00000, -0.03125, 0.03125, 0.00000, -0.06250, 0.00000, 0.06250, 0.03125, 0.03125, -0.06250, 0.00000, 0.00000, 0.00000, 0.00000, 0.00000, 0.00000, 0.00000, 0.03125, 0.03125, 0.00000, -0.03125, 0.00000, 0.00000, -0.03125, -0.03125, 0.03125, -0.06250, 0.00000, 0.00000, 0.03125, 0.12500, -0.03125, 0.00000, -0.03125, 0.00000, -0.03125, -0.03125, 0.03125, 0.03125, 0.03125, 0.03125, -0.03125, 0.03125, -0.03125, -0.03125, 0.00000, 0.03125, 0.03125, -0.18750, 0.03125, 0.03125, 0.00000, 0.03125, -0.03125, 0.00000, 0.03125, 0.06250, 0.03125, -0.03125, 0.00000, 0.03125, 0.03125, 0.00000, 0.00000, 0.00000, 0.06250, 0.00000, 0.00000, 0.00000, 0.00000, 0.00000, 0.03125, 0.03125, -0.03125, -0.03125, 0.00000, 0.00000, 0.00000, 0.00000, 0.00000, 0.00000, 0.00000, 0.00000, 0.00000, 0.00000, 0.00000, 0.00000, 0.00000, -0.03125, 0.00000, 0.00000, 0.00000, 0.00000, -0.03125, -0.06250, -0.03125, 0.00000, 0.00000, 0.00000, 0.00000, 0.00000, 0.00000, 0.00000, 0.00000, 0.00000, -0.03125, 0.00000, 0.00000, 0.00000, -0.03125, 0.00000, 0.00000, 0.00000, -0.03125, -0.03125, 0.03125, 0.00000, 0.00000, 0.03125, 0.00000, 0.00000, 0.03125, -0.03125, -0.03125, 0.00000, -0.03125, -0.03125, -0.03125, 0.00000, 0.03125, 0.00000, -0.03125, 0.03125, 0.00000, 0.00000, 0.00000, -0.03125, -0.06250, 0.03125, 0.00000, -0.03125, -0.03125, 0.03125, 0.03125, -0.03125, 0.00000, 0.03125, 0.03125, 0.03125, -0.03125, 0.03125, 0.00000, 0.00000, 0.00000, -0.03125, -0.03125, 0.03125, 0.00000, -0.06250, -0.03125, 0.00000, 0.00000, 0.00000, 0.06250, 0.00000, 0.00000, 0.03125, 0.03125, 0.00000, 0.00000, -0.03125, 0.00000, -0.03125, 0.00000, 0.00000, 0.00000, 0.06250, 0.03125, 0.00000, 0.00000, 0.00000, -0.03125, 0.03125, 0.00000, -0.03125, 0.00000, 0.00000, 0.00000, 0.03125, 0.00000, 0.00000, 0.00000, 0.00000, 0.00000, -0.03125, 0.00000, -0.03125, 0.00000, 0.03125, 0.00000, 0.00000, 0.00000, 0.00000, 0.00000, -0.03125, 0.00000, 0.03125, 0.00000, 0.00000, 0.00000, -0.06250, -0.03125, 0.00000, 0.00000, 0.00000, 0.00000, -0.03125, 0.00000, -0.03125, 0.00000, -0.03125, 0.00000, -0.03125, 0.00000, 0.00000, 0.00000, 0.00000, -0.03125, 0.00000, 0.00000, 0.00000, 0.00000, -0.03125, -0.03125, 0.00000, 0.00000, 0.00000, 0.00000, 0.03125, 0.00000, 0.03125, -0.03125, -0.03125, 0.00000, 0.00000, 0.00000, 0.00000, 0.03125, 0.00000, 0.00000, 0.03125, 0.00000, 0.00000, 0.03125, 0.00000, 0.00000, 0.00000, 0.00000, -0.03125, 0.00000, 0.00000, 0.00000, 0.00000, 0.00000, -0.03125, 0.00000, 0.03125, 0.00000, 0.03125, 0.00000, 0.03125, -0.03125, 0.03125, 0.00000, -0.03125, 0.00000, 0.00000, 0.00000, 0.00000, -0.06250, -0.03125, 0.00000, 0.00000, 0.00000, -0.03125, 0.00000, 0.00000, 0.00000, 0.00000, 0.00000, 0.03125, -0.09375, -0.03125, 0.00000, 0.00000, 0.00000, -0.03125, 0.00000, -0.03125, 0.03125, 0.03125, 0.00000, 0.00000, 0.00000, 0.12500, 0.03125, -0.12500, 0.00000, -0.03125, 0.00000, -0.03125, -0.03125, -0.03125, 0.00000, 0.00000, -0.03125, 0.00000, -0.06250, 0.03125, 0.00000, 0.00000, -0.03125, 0.03125, -0.09375, 0.03125, 0.00000, 0.03125, 0.00000, 0.03125, 0.00000, 0.00000, 0.00000, 0.00000, 0.00000, 0.03125, 0.00000, 0.03125, 0.00000, 0.00000, 0.03125, 0.00000, 0.00000, 0.00000, 0.00000, 0.00000, 0.00000, 0.00000, 0.00000, 0.03125, -0.06250, 0.06250, 0.00000, 0.00000, 0.00000, 0.03125, 0.03125, 0.03125, 0.00000, -0.03125, 0.00000, -0.03125, -0.03125, 0.03125, -0.03125, 0.00000, 0.00000, 0.00000, 0.03125, 0.00000, 0.00000, -0.03125, 0.00000, 0.00000, 0.00000, 0.03125, 0.00000, 0.00000, 0.03125, 0.00000, 0.00000, 0.00000, -0.03125, -0.09375, -0.06250, 0.00000, -0.03125, 0.03125, -0.09375, 0.03125, 0.00000, 0.06250, 0.03125, 0.00000, 0.00000, 0.00000, 0.00000, 0.00000, 0.03125, 0.03125, -0.03125, 0.00000, 0.03125, -0.03125, 0.00000, 0.03125, 0.00000, -0.03125, 0.00000, 0.00000, 0.00000, 0.00000, 0.00000, 0.03125, 0.03125, 0.03125, 0.00000, 0.00000, 0.00000, 0.00000, -0.03125, 0.00000, 0.00000, 0.00000, 0.00000, 0.03125, 0.03125, 0.00000, 0.00000, 0.00000, 0.00000, 0.00000, 0.00000, -0.03125, 0.00000, -0.06250, 0.00000, 0.00000, 0.00000, 0.00000, 0.00000, -0.06250, 0.00000, 0.00000, 0.00000, 0.00000, 0.00000, 0.00000, 0.00000, 0.00000, -0.03125, 0.00000, 0.00000, 0.00000, 0.00000, 0.00000, 0.00000, -0.03125, 0.00000, 0.03125, 0.00000, 0.03125, 0.00000, 0.00000, 0.00000, 0.00000, 0.00000, 0.03125, 0.03125, 0.03125, 0.00000, -0.03125, -0.03125, -0.03125, 0.00000, 0.00000, 0.00000, 0.03125, 0.00000, -0.06250, -0.03125, 0.00000, 0.00000, 0.00000, 0.00000, 0.06250, 0.03125, 0.06250, 0.03125, 0.00000, -0.03125, -0.06250, -0.03125, 0.00000, 0.00000, 0.00000, 0.03125, 0.06250, 0.00000, 0.03125, 0.00000, 0.03125, -0.03125, 0.03125, -0.03125, -0.03125, -0.03125, -0.03125, -0.03125, 0.00000, 0.00000, 0.03125, 0.00000, 0.03125, 0.00000, 0.03125, -0.06250, 0.03125, 0.03125, 0.00000, 0.00000, 0.00000, 0.03125, 0.00000, 0.00000, 0.00000, 0.03125, 0.00000, 0.03125, -0.03125, 0.00000, -0.06250, 0.00000, 0.00000, 0.03125, 0.00000, -0.03125, -0.03125, 0.00000, 0.00000, 0.00000, -0.03125, 0.00000, 0.00000, 0.00000, 0.00000, 0.00000, 0.00000, 0.03125, 0.03125, 0.00000, 0.03125, 0.00000, -0.06250, -0.03125, 0.00000, 0.00000, 0.00000, 0.00000, 0.03125, 0.00000, 0.03125, 0.00000, 0.00000, 0.00000, 0.00000, 0.00000, 0.06250, -0.03125, 0.00000, 0.03125, 0.00000, -0.03125, 0.00000, 0.00000, -0.12500, -0.03125, -0.03125, 0.00000, 0.03125, -0.03125, 0.00000, 0.00000, 0.03125, 0.00000, 0.03125, -0.03125, -0.03125, -0.03125, -0.03125, 0.00000, 0.00000, 0.00000, -0.18750, 0.03125, 0.06250, 0.00000, 0.00000, 0.03125, 0.00000, 0.00000, 0.00000, 0.00000, -0.03125, 0.00000, 0.00000, 0.00000, -0.03125, -0.06250, 0.00000, 0.00000, 0.00000, -0.06250, 0.03125, 0.03125, 0.00000, 0.03125, -0.03125, 0.00000, 0.00000, 0.00000, 0.00000, 0.00000, 0.00000, 0.03125, 0.06250, 0.03125, -0.06250, 0.00000, 0.03125, 0.00000, 0.03125, -0.03125, -0.03125, 0.00000, -0.03125, -0.03125, 0.00000, -0.03125, 0.00000, -0.03125, 0.00000, 0.00000, 0.03125, 0.00000, 0.03125, 0.00000, 0.00000, 0.00000, 0.00000, 0.00000, 0.00000, 0.00000, -0.03125, 0.00000, -0.03125, 0.00000, 0.06250, 0.00000, -0.06250, 0.00000, 0.00000, 0.00000, 0.00000, 0.00000, 0.00000, 0.00000, 0.00000, 0.00000, 0.03125, -0.06250, 0.00000, 0.00000, 0.00000, 0.03125, 0.00000, 0.00000, 0.00000, 0.00000, 0.03125, 0.00000, 0.00000, 0.03125, 0.03125, 0.00000, -0.03125, 0.00000, 0.03125, 0.00000, -0.06250, 0.00000, -0.03125, 0.00000, 0.00000, 0.03125, 0.03125, -0.06250, -0.03125, 0.00000, 0.00000, 0.00000, 0.06250, -0.03125, -0.09375, -0.03125, 0.00000, 0.00000, 0.00000, 0.00000, 0.03125, 0.00000, 0.03125, 0.00000, -0.03125, -0.06250, 0.06250, -0.03125, 0.00000, 0.00000, 0.06250, 0.03125, 0.00000, 0.03125, -0.03125, 0.00000, 0.00000, -0.03125, -0.03125, -0.03125, -0.03125, 0.00000, -0.03125, 0.00000, 0.03125, 0.00000, -0.06250, 0.00000, 0.03125, 0.03125, 0.00000, 0.00000, 0.00000, 0.03125, 0.00000, 0.03125, -0.03125, -0.03125, 0.00000, 0.00000, 0.00000, 0.03125, 0.03125, 0.00000, 0.00000, 0.00000, -0.03125, 0.00000, 0.00000, 0.00000, 0.00000, -0.03125, 0.00000, 0.00000, 0.00000, 0.00000, 0.03125, 0.03125, 0.03125, -0.03125, 0.00000, -0.03125, 0.00000, 0.00000, 0.00000, 0.00000, 0.00000, 0.00000, 0.00000, 0.00000, 0.00000, -0.03125, 0.00000, 0.03125, 0.03125, 0.00000, 0.03125, 0.03125, 0.00000, 0.00000, -0.03125, 0.00000, -0.06250, -0.03125, 0.00000, 0.00000, -0.03125, 0.00000, 0.00000, -0.03125, 0.06250, 0.00000, 0.00000, 0.00000, 0.00000, -0.03125, -0.03125, 0.00000, -0.03125, -0.03125, 0.00000, -0.03125, 0.00000, -0.03125, 0.00000, 0.00000, 0.09375, -0.03125, 0.00000, 0.00000, 0.06250, -0.03125, -0.03125, 0.00000, -0.09375, -0.03125, 0.03125, -0.03125, -0.06250, -0.03125, -0.03125, 0.06250, 0.00000, 0.00000, 0.00000, 0.06250, -0.03125, 0.06250, 0.03125, 0.00000, 0.00000, 0.00000, 0.00000, -0.03125, -0.03125, 0.00000, -0.03125, 0.00000, -0.06250, 0.00000, 0.06250, 0.00000, -0.09375, 0.00000, 0.00000, 0.00000, 0.00000, 0.03125, 0.00000, 0.00000, 0.00000, -0.03125, 0.00000, -0.03125, 0.03125, 0.00000, 0.00000, 0.03125, 0.03125, -0.03125, 0.00000, 0.00000, 0.06250, 0.00000, 0.00000, 0.00000, 0.00000, 0.00000, 0.00000, 0.00000, 0.03125, 0.03125, -0.18750, 0.00000, -0.03125, 0.00000, 0.00000, 0.00000, -0.03125, 0.00000, -0.03125, 0.03125, 0.00000, -0.03125, -0.03125, 0.00000, 0.06250, 0.00000, 0.00000, -0.03125, 0.00000, 0.00000, -0.06250, 0.00000, 0.00000, 0.00000, -0.03125, 0.03125, 0.00000, 0.00000, -0.03125, 0.03125, 0.00000, 0.00000, 0.03125, 0.00000, 0.06250, 0.00000, 0.00000, -0.03125, -0.06250, 0.00000, 0.00000, 0.00000, 0.00000, 0.00000, 0.03125, 0.03125, 0.09375, -0.03125, 0.00000, 0.00000, 0.00000, 0.00000, 0.03125, 0.00000, 0.00000, 0.00000, 0.03125, 0.00000, -0.03125, 0.00000, 0.00000, 0.00000, 0.03125, 0.03125, 0.00000, 0.03125, 0.03125, 0.00000, 0.00000, 0.00000, 0.00000, 0.00000, 0.00000, 0.00000, 0.00000, -0.03125, 0.00000, 0.00000, 0.12500, 0.00000, 0.00000, 0.03125, 0.00000, 0.00000, 0.00000, 0.00000, 0.00000, 0.00000, -0.03125, 0.00000, 0.03125, 0.00000, 0.00000, 0.00000, 0.00000, 0.00000, 0.03125, 0.00000, -0.03125, 0.00000, 0.03125, 0.00000, 0.00000, 0.03125, -0.03125, 0.00000, 0.00000, -0.03125, 0.03125, -0.03125, -0.12500, 0.00000, 0.03125, -0.03125, 0.03125, -0.03125, 0.03125, 0.00000, 0.06250, 0.03125, -0.03125, 0.00000, -0.03125, 0.00000, -0.03125, 0.03125, 0.03125, 0.03125, 0.06250, 0.03125, -0.03125, 0.03125, 0.03125, -0.03125, 0.03125, 0.03125, 0.00000, 0.00000, 0.00000, 0.00000, 0.06250, 0.00000, 0.06250, 0.00000, 0.00000, -0.03125, 0.03125, -0.03125, -0.03125, 0.00000, 0.00000, 0.00000, -0.03125, 0.00000, 0.00000, 0.00000, -0.03125, -0.03125, 0.00000, 0.03125, 0.00000, 0.00000, 0.09375, -0.03125, 0.00000, 0.00000, -0.06250, 0.00000, -0.03125, 0.03125, 0.00000, 0.00000, 0.00000, 0.06250, 0.00000, 0.00000, 0.00000, 0.03125, -0.03125, 0.06250, 0.03125, 0.00000, -0.03125, 0.03125, 0.00000, 0.00000, -0.03125, -0.09375, 0.00000, 0.03125, 0.00000, 0.03125, 0.03125, 0.03125, -0.03125, 0.00000, 0.03125, 0.00000, -0.03125, 0.00000, -0.03125, 0.03125, 0.00000, 0.00000, 0.00000, 0.00000, 0.09375, 0.00000, 0.03125, 0.00000, 0.00000, -0.06250, 0.03125, 0.00000, 0.03125, 0.03125, -0.03125, 0.03125, 0.03125, 0.00000, -0.03125, 0.00000, 0.00000, 0.03125, 0.03125, 0.03125, -0.06250, -0.03125, 0.00000, 0.03125, 0.00000, 0.00000, 0.00000, 0.00000, 0.00000, 0.00000, 0.00000, 0.00000, 0.03125, 0.00000, 0.00000, 0.00000, 0.00000, -0.03125, -0.03125, 0.00000, 0.00000, 0.03125, -0.03125, 0.03125, 0.03125, 0.00000, 0.00000, 0.00000, 0.00000, 0.00000, 0.00000, 0.03125, 0.03125, -0.03125, 0.00000, 0.03125, -0.03125, 0.00000, 0.00000, 0.03125, 0.00000, 0.00000, 0.00000, 0.00000, 0.03125, -0.03125, 0.00000, 0.03125, 0.03125, 0.00000, 0.00000, 0.00000, 0.00000, 0.00000, 0.00000, 0.03125, -0.03125, -0.06250, -0.03125, 0.03125, 0.00000, 0.03125, 0.00000, 0.03125, -0.03125, 0.03125, 0.03125, 0.00000, 0.00000, 0.00000, 0.00000, 0.00000, 0.00000, -0.03125, 0.03125, 0.03125, 0.09375, 0.03125, 0.03125, -0.03125, 0.03125, 0.00000, 0.00000, 0.03125, -0.03125, 0.00000, -0.03125, 0.03125, 0.00000, -0.03125, -0.03125, 0.00000, 0.00000, 0.03125, -0.06250, 0.00000, 0.03125, 0.00000, 0.00000, -0.06250, 0.00000, -0.03125, 0.00000, 0.00000, 0.00000, 0.00000, 0.06250, -0.03125, -0.09375, 0.03125, 0.00000, -0.03125, 0.03125, 0.03125, 0.00000, 0.00000, 0.03125, 0.00000, 0.00000, 0.00000, -0.03125, 0.00000, 0.00000, 0.00000, 0.03125, 0.00000, -0.06250, 0.00000, -0.03125, 0.00000, 0.00000, 0.00000, 0.00000, 0.00000, -0.06250, 0.00000, 0.00000, 0.00000, 0.00000, -0.03125, 0.00000, 0.03125, 0.00000, 0.00000, 0.03125, 0.00000, 0.00000, 0.00000, 0.00000, 0.00000, -0.03125, 0.00000, 0.00000, 0.00000, 0.00000, 0.00000, 0.03125, 0.03125, -0.06250, 0.00000, -0.09375, 0.00000, 0.00000, 0.03125, 0.03125, 0.03125, 0.03125, 0.00000, 0.00000, 0.00000, 0.00000, -0.03125, -0.06250, 0.00000, 0.00000, 0.00000, 0.00000, -0.03125, 0.00000, 0.00000, 0.00000, 0.00000, 0.00000, 0.00000, 0.00000, 0.00000, 0.00000, 0.00000, 0.03125, 0.00000, -0.09375, 0.00000, -0.03125, 0.00000, 0.00000, 0.00000, 0.00000, 0.06250, -0.03125, 0.00000, 0.03125, -0.03125, -0.03125, -0.06250, 0.09375, 0.00000, 0.00000, 0.00000, 0.00000, -0.03125, 0.00000, 0.00000, 0.03125, 0.00000, 0.00000, 0.03125, 0.03125, 0.00000, 0.03125, 0.00000, 0.03125, 0.03125, -0.03125, 0.00000, 0.06250, -0.03125, -0.03125, 0.00000, -0.03125, -0.03125, -0.03125, -0.03125, -0.03125, -0.03125, 0.00000, 0.03125, 0.00000, 0.00000, 0.03125, 0.03125, 0.00000, 0.12500, 0.00000, 0.00000, 0.03125, 0.00000, 0.03125, 0.00000, 0.03125, 0.00000, -0.03125, 0.00000, -0.06250, -0.03125, 0.12500, -0.03125, -0.03125, 0.00000, 0.03125, 0.00000, 0.00000, 0.00000, 0.00000, 0.00000, -0.03125, 0.00000, 0.06250, -0.03125, 0.06250, 0.00000, 0.00000, -0.03125, -0.03125, 0.03125, -0.03125, 0.00000, 0.06250, 0.00000, 0.00000, 0.03125, 0.00000, 0.00000, 0.00000, 0.03125, 0.03125, 0.03125, -0.06250, 0.00000, -0.03125, 0.00000, 0.03125, 0.00000, -0.06250, 0.00000, 0.03125, 0.03125, 0.03125, 0.00000, 0.03125, 0.00000, -0.03125, -0.06250, 0.00000, 0.03125, 0.00000, 0.03125, 0.03125, 0.00000, 0.00000, 0.00000, 0.00000, 0.00000, -0.03125, -0.06250, -0.03125, 0.00000, 0.06250, 0.03125, 0.00000, 0.00000, 0.06250, 0.00000, 0.03125, 0.00000, 0.03125, 0.00000, 0.00000, 0.00000, 0.00000, 0.00000, 0.06250, 0.00000, -0.03125, 0.00000, 0.00000, 0.00000, 0.03125, -0.03125, 0.03125, 0.00000, 0.00000, 0.03125, 0.00000, -0.06250, -0.03125, 0.03125, 0.00000, 0.03125, 0.03125, 0.03125, 0.06250, 0.03125, -0.06250, 0.00000, 0.00000, 0.03125, 0.00000, -0.03125, 0.00000, 0.00000, 0.00000, 0.00000, 0.03125, -0.03125, 0.00000, 0.00000, 0.00000, 0.03125, 0.00000, -0.03125, 0.03125, 0.00000, 0.00000, 0.00000, 0.00000, 0.00000, 0.03125, 0.00000, 0.00000, 0.00000, 0.03125, 0.00000, -0.06250, 0.03125, 0.03125, 0.00000, 0.00000, 0.00000, 0.00000, -0.03125, -0.06250, 0.00000, -0.03125, 0.00000, 0.00000, 0.00000, -0.03125, -0.03125, 0.00000, 0.00000, 0.00000, 0.00000, 0.00000, 0.03125, 0.00000, 0.00000, 0.00000, -0.03125, 0.03125, 0.00000, -0.03125, 0.00000, 0.03125, 0.03125, 0.06250, 0.00000, 0.06250, 0.00000, -0.03125, 0.00000, -0.03125, -0.03125, 0.00000, -0.03125, -0.06250, -0.03125, 0.00000, 0.03125, 0.00000, 0.00000, 0.03125, -0.03125, 0.03125, -0.03125, 0.00000, 0.03125, -0.06250, 0.00000, -0.03125, 0.00000, 0.00000, 0.00000, -0.03125, 0.00000, 0.00000, 0.03125, 0.00000, 0.00000, -0.06250, 0.00000, 0.00000, 0.00000, 0.00000, 0.03125, -0.03125, 0.00000, 0.00000, 0.03125, 0.00000, -0.06250, 0.09375, 0.00000, 0.00000, 0.00000, 0.00000, -0.03125, 0.00000, 0.00000, 0.00000, 0.00000, -0.03125, 0.00000, 0.00000, 0.03125, 0.03125, 0.00000, 0.03125, 0.03125, -0.06250, 0.00000, -0.06250, -0.03125, -0.03125, -0.03125, -0.09375, -0.03125, 0.06250, 0.03125, 0.00000, 0.00000, 0.00000, -0.06250, -0.09375, -0.03125, -0.03125, 0.00000, 0.03125, -0.03125, -0.03125, 0.00000, 0.03125, -0.03125, 0.03125, -0.03125, -0.06250, 0.00000, -0.03125, 0.03125, 0.12500, 0.00000, 0.00000, 0.00000, 0.03125, -0.03125, 0.03125, 0.03125, 0.00000, 0.00000, -0.03125, 0.00000, -0.03125, -0.03125, 0.03125, -0.03125, -0.06250, -0.03125, 0.00000, 0.09375, 0.00000, 0.00000, 0.00000, 0.03125, 0.00000, -0.03125, 0.00000, 0.00000, 0.00000, -0.03125, 0.00000, 0.00000, 0.03125, 0.06250, -0.03125, 0.00000, 0.00000, 0.00000, 0.00000, 0.00000, 0.03125, -0.03125, -0.03125, 0.00000, 0.00000, 0.00000, 0.00000, -0.03125, -0.09375, 0.00000, 0.00000, 0.00000, 0.03125, 0.03125, 0.03125, 0.00000, 0.00000, 0.00000, 0.00000, 0.00000, -0.03125, 0.00000, 0.00000, 0.03125, 0.06250, 0.03125, 0.00000, 0.03125, -0.03125, 0.00000, 0.00000, 0.00000, 0.03125, 0.00000, -0.03125, 0.00000, -0.03125, 0.00000, 0.03125, 0.00000, 0.06250, 0.00000, 0.00000, 0.00000, 0.00000, 0.00000, -0.03125, 0.00000, 0.03125, 0.00000, 0.00000, 0.00000, 0.00000, 0.00000, -0.03125, 0.00000, 0.03125, 0.00000, -0.06250, 0.00000, -0.03125, 0.03125, 0.03125, -0.03125, 0.03125, 0.00000, -0.06250, 0.00000, 0.00000, 0.00000, 0.03125, -0.03125, -0.12500, -0.03125, 0.00000, 0.03125, 0.03125, -0.03125, 0.00000, 0.00000, 0.03125, 0.00000, -0.03125, 0.03125, -0.06250, -0.06250, 0.00000, 0.00000, 0.03125, 0.00000, -0.03125, 0.00000, -0.06250, 0.00000, -0.03125, 0.00000, 0.03125, -0.03125, 0.00000, 0.00000, 0.00000, 0.00000, 0.06250, -0.03125, 0.00000, -0.03125, 0.00000, 0.00000, 0.00000, 0.03125, 0.00000, 0.00000, 0.00000, 0.03125, 0.00000, 0.00000, 0.00000, 0.00000, -0.03125, 0.03125, 0.06250, 0.00000, 0.00000, 0.03125, -0.03125, 0.00000, 0.03125, 0.00000, 0.03125, 0.00000, 0.00000, 0.00000, -0.03125, 0.00000, 0.03125, -0.03125, 0.06250, 0.00000, 0.00000, -0.03125, 0.00000, 0.00000, 0.00000, 0.00000, -0.03125, 0.00000, 0.00000, 0.03125, 0.00000, -0.03125, 0.03125, 0.03125, 0.03125, -0.03125, 0.00000, 0.00000, -0.03125, -0.03125, 0.03125, 0.00000, -0.06250, 0.00000, 0.00000, 0.00000, 0.03125, 0.00000, 0.00000, 0.00000, 0.06250, 0.00000, 0.00000, -0.06250, -0.03125, -0.06250, 0.00000, 0.00000, -0.03125, 0.00000, 0.00000, 0.03125, 0.00000, 0.00000, 0.03125, 0.00000, 0.00000, 0.00000, -0.09375, -0.03125, -0.03125, -0.03125, -0.03125, 0.00000, -0.09375, 0.00000, -0.03125, 0.00000, 0.00000, -0.03125, 0.03125, 0.03125, -0.03125, -0.03125, -0.03125, 0.00000, -0.03125, 0.00000, 0.06250, 0.03125, -0.03125, 0.00000, 0.03125, 0.00000, 0.06250, 0.00000, -0.03125, 0.03125, 0.00000, -0.03125, 0.00000, 0.00000, 0.00000, 0.00000, 0.00000, 0.00000, 0.00000, 0.00000, 0.00000, 0.03125, -0.03125, -0.06250, 0.00000, 0.03125, 0.09375, 0.00000, 0.00000, 0.03125, 0.00000, 0.00000, 0.00000, 0.00000, 0.06250, 0.00000, -0.03125, 0.00000, 0.03125, 0.03125, 0.00000, 0.00000, 0.03125, 0.03125, -0.03125, 0.00000, -0.03125, 0.00000, 0.06250, -0.03125, 0.00000, 0.00000, 0.00000, 0.00000, 0.06250, 0.00000, 0.00000, -0.03125, -0.09375, -0.06250, 0.00000, -0.06250, 0.00000, -0.03125, -0.03125, 0.00000, 0.03125, 0.00000, -0.03125, 0.00000, 0.00000, 0.03125, -0.03125, 0.00000, 0.06250, 0.03125, 0.06250, 0.03125, 0.00000, 0.00000, 0.03125, -0.03125, -0.06250, 0.03125, -0.03125, 0.03125, 0.00000, 0.00000, -0.03125, -0.03125, 0.03125, -0.03125, 0.00000, -0.03125, 0.03125, -0.03125, 0.00000, 0.00000, -0.03125, 0.03125, 0.00000, 0.03125, 0.00000, 0.00000, -0.03125, -0.03125, 0.00000, 0.00000, 0.00000, 0.00000, 0.00000, 0.00000, 0.00000, 0.03125, 0.00000, 0.00000, 0.00000, 0.00000, 0.00000, 0.00000, 0.00000, 0.00000, 0.09375, 0.00000, 0.00000, 0.03125, 0.00000, 0.00000, 0.00000, 0.00000, -0.03125, 0.00000, -0.03125, 0.00000, 0.03125, 0.00000, 0.00000, 0.00000, 0.03125, 0.03125, 0.03125, 0.00000, -0.06250, 0.00000, 0.03125, -0.03125, 0.00000, 0.00000, -0.06250, 0.00000, 0.00000, -0.03125, 0.00000, -0.06250, -0.03125, -0.03125, 0.00000, 0.00000, 0.03125, 0.00000, 0.00000, 0.03125, 0.06250, 0.00000, -0.03125, -0.06250, -0.03125, 0.00000, 0.00000, 0.03125, 0.09375, 0.03125, 0.00000, 0.00000, 0.00000, 0.00000, 0.00000, -0.03125, 0.03125, -0.03125, 0.00000, 0.03125, 0.00000, 0.00000, -0.03125, 0.00000, 0.00000, 0.03125, 0.00000, 0.03125, 0.03125, 0.00000, 0.03125, 0.00000, 0.00000, 0.00000, -0.03125, 0.00000, 0.03125, -0.03125, 0.00000, 0.00000, 0.00000, 0.00000, 0.03125, 0.03125, 0.03125, 0.00000, 0.06250, 0.00000, -0.03125, 0.00000, -0.03125, 0.03125, 0.00000, 0.00000, 0.00000, -0.03125, -0.03125, -0.03125, 0.00000, -0.06250, 0.00000, -0.06250, 0.00000, 0.00000, 0.03125, 0.00000, 0.00000, 0.00000, -0.06250, -0.06250, 0.00000, 0.03125, 0.00000, 0.03125, -0.03125, 0.03125, 0.03125, 0.00000, 0.03125, -0.03125, 0.00000, 0.00000, -0.03125, 0.00000, 0.00000, 0.03125, 0.03125, -0.03125, -0.03125, 0.00000, 0.03125, 0.00000, 0.03125, 0.00000, 0.03125, 0.00000, -0.03125, 0.00000, 0.00000, -0.06250, 0.00000, 0.00000, 0.00000, 0.00000, 0.03125, 0.03125, 0.00000, 0.00000, 0.03125, 0.00000, 0.00000, 0.00000, 0.00000, 0.00000, -0.03125, 0.00000, 0.00000, 0.00000, -0.03125, 0.00000, 0.06250, 0.03125, 0.00000, 0.00000, 0.00000, 0.00000, 0.03125, 0.00000, 0.00000, 0.00000, -0.03125, 0.03125, 0.00000, 0.00000, 0.03125, 0.00000, 0.00000, 0.00000, 0.03125, 0.00000, 0.00000, 0.03125, 0.03125, -0.03125, 0.03125, 0.00000, 0.00000, 0.03125, 0.00000, -0.03125, 0.00000, -0.03125, -0.03125, 0.00000, 0.00000, 0.03125, 0.00000, 0.00000, -0.03125, 0.00000, -0.03125, 0.00000, 0.00000, 0.00000, -0.03125, -0.03125, 0.00000, 0.00000, 0.00000, 0.03125, -0.06250, 0.00000, -0.06250, 0.03125, 0.00000, -0.03125, 0.03125, 0.00000, 0.00000, 0.03125, 0.00000, 0.00000, 0.00000, -0.03125, 0.00000, 0.00000, 0.03125, 0.03125, 0.03125, 0.00000, 0.00000, 0.00000, 0.03125, 0.03125, -0.03125, 0.00000, -0.03125, 0.00000, -0.03125, 0.03125, 0.09375, 0.03125, 0.06250, 0.03125, 0.00000, 0.03125, 0.00000, -0.03125, 0.00000, 0.00000, -0.03125, 0.00000, -0.03125, 0.00000, 0.03125, -0.03125, -0.03125, 0.03125, 0.00000, -0.03125, 0.00000, 0.03125, 0.00000, 0.00000, 0.03125, 0.00000, 0.00000, 0.03125, 0.00000, 0.00000, 0.00000, -0.03125, 0.00000, 0.00000, -0.03125, 0.00000, -0.03125, 0.00000, 0.00000, -0.03125, 0.03125, 0.00000, -0.03125, 0.00000, 0.00000, 0.00000, -0.03125, 0.00000, 0.03125, 0.00000, 0.00000, 0.00000, 0.00000, 0.06250, 0.00000, 0.00000, 0.00000, 0.00000, -0.03125, 0.00000, 0.00000, 0.00000, 0.00000, 0.00000, 0.03125, 0.03125, -0.03125, 0.00000, 0.00000, 0.00000, 0.00000, 0.03125, 0.00000, 0.00000, 0.00000, 0.00000, 0.00000, 0.00000, 0.00000, 0.00000, 0.06250, 0.00000, 0.00000, 0.00000, 0.00000, -0.03125, 0.00000, 0.00000, 0.00000, 0.00000, -0.03125, 0.00000, 0.00000, 0.00000, 0.00000, 0.00000, 0.03125, -0.03125, -0.06250, 0.00000, 0.00000, 0.03125, 0.00000, 0.00000, 0.00000, 0.03125, -0.03125, 0.00000, -0.03125, 0.00000, 0.03125, -0.03125, 0.00000, 0.00000, 0.00000, 0.00000, 0.00000, 0.00000, 0.00000, 0.00000, 0.00000, 0.00000, -0.03125, 0.03125, 0.00000, -0.03125, -0.03125, 0.00000, 0.00000, 0.03125, 0.03125, 0.00000, 0.00000, 0.03125, -0.03125, -0.03125, -0.03125, -0.03125, 0.00000, 0.00000, -0.03125, 0.00000, 0.03125, -0.03125, 0.03125, 0.00000, 0.00000, 0.00000, 0.00000, 0.06250, 0.00000, 0.00000, 0.03125, -0.03125, 0.03125, -0.03125, 0.00000, 0.00000, 0.00000, 0.00000, 0.09375, 0.03125, 0.06250, 0.03125, 0.06250, 0.00000, 0.03125, -0.03125, 0.00000, 0.00000, -0.03125, 0.00000, 0.00000, 0.00000, 0.03125, -0.03125, 0.00000, 0.03125, 0.00000, 0.00000, 0.03125, 0.03125, 0.00000, 0.00000, 0.03125, 0.03125, 0.00000, 0.00000, -0.03125, 0.00000, 0.00000, 0.03125, 0.00000, 0.00000, 0.06250, 0.00000, -0.03125, 0.00000, 0.03125, 0.00000, 0.00000, -0.03125, 0.00000, 0.00000, 0.00000, 0.00000, 0.00000, -0.06250, 0.06250, -0.03125, 0.00000, 0.03125, 0.03125, -0.06250, -0.03125, 0.00000, 0.00000, 0.00000, -0.03125, 0.00000, 0.00000, -0.03125, 0.00000, 0.00000, 0.00000, 0.00000, 0.00000, 0.03125, 0.00000, 0.03125, 0.03125, -0.03125, 0.03125, -0.06250, 0.00000, -0.03125, 0.00000, 0.00000, 0.03125, -0.03125, -0.03125, 0.00000, 0.00000, 0.03125, 0.00000, -0.03125, 0.00000, 0.00000, 0.03125, 0.00000, 0.00000, 0.03125, -0.06250, 0.00000, -0.03125, 0.03125, 0.00000, 0.03125, 0.09375, 0.03125, -0.03125, 0.00000, 0.00000, 0.00000, 0.00000, 0.00000, 0.00000, 0.00000, 0.00000, 0.00000, -0.03125, 0.00000, 0.00000, 0.00000, 0.00000, 0.00000, 0.00000, 0.03125, 0.00000, 0.00000, 0.00000, 0.00000, -0.03125, 0.00000, -0.03125, 0.00000, 0.00000, 0.00000, 0.03125, 0.00000, 0.03125, 0.00000, 0.03125, 0.03125, 0.00000, 0.00000, 0.00000, -0.03125, -0.03125, 0.03125, 0.00000, 0.00000, 0.03125, 0.00000, 0.06250, 0.00000, 0.00000, 0.03125, 0.00000, 0.03125, 0.06250, 0.00000, 0.06250, 0.03125, 0.00000, -0.03125, -0.06250, 0.00000, -0.03125, 0.00000, 0.06250, 0.03125, 0.03125, 0.00000, -0.03125, 0.00000, 0.03125, -0.03125, -0.03125, -0.06250, 0.00000, 0.00000, 0.00000, -0.03125, 0.00000, 0.00000, -0.03125, 0.00000, 0.03125, 0.00000, 0.00000, 0.00000, 0.00000, 0.03125, -0.03125, -0.03125, 0.00000, -0.03125, -0.03125, -0.03125, 0.00000, 0.00000, 0.06250, 0.03125, 0.03125, 0.03125, -0.03125, -0.03125, 0.00000, 0.00000, 0.00000, -0.03125, -0.03125, 0.00000, -0.03125, 0.00000, -0.03125, -0.03125, 0.09375, 0.03125, 0.00000, 0.03125, 0.00000, 0.00000, 0.03125, 0.00000, 0.00000, 0.00000, -0.03125, 0.00000, 0.00000, 0.03125, 0.03125, 0.00000, 0.03125, 0.00000, 0.00000, 0.00000, -0.03125, -0.03125, 0.03125, -0.03125, 0.03125, -0.03125, 0.00000, 0.00000, 0.03125, -0.03125, -0.06250, -0.03125, -0.03125, -0.03125, 0.00000, -0.06250, -0.03125, -0.09375, 0.00000, 0.00000, -0.03125, 0.00000, 0.00000, -0.03125, 0.00000, 0.00000, 0.00000, -0.03125, -0.06250, 0.00000, -0.09375, 0.00000, 0.00000, -0.03125, 0.00000, 0.00000, 0.00000, 0.00000, 0.00000, 0.03125, -0.03125, 0.00000, 0.00000, 0.00000, 0.00000, -0.03125, -0.03125, -0.03125, 0.03125, 0.00000, -0.03125, 0.03125, 0.00000, 0.00000, 0.00000, -0.03125, -0.03125, -0.03125, -0.03125, 0.00000, 0.03125, 0.06250, -0.03125, 0.00000, 0.03125, 0.03125, 0.03125, -0.03125, 0.03125, -0.06250, -0.06250, 0.00000, 0.00000, 0.00000, 0.00000, -0.03125, 0.03125, -0.03125, 0.00000, -0.03125, 0.00000, 0.03125, 0.03125, 0.00000, 0.03125, 0.00000, 0.00000, 0.00000, 0.00000, 0.00000, 0.00000, 0.03125, 0.06250, 0.03125, 0.03125, 0.00000, -0.03125, 0.00000, 0.00000, -0.03125, 0.00000, -0.03125, 0.00000, 0.00000, -0.03125, 0.00000, 0.00000, 0.00000, 0.03125, 0.00000, 0.00000, 0.03125, -0.03125, 0.00000, -0.03125, 0.00000, 0.03125, 0.00000, -0.03125, -0.06250, 0.00000, 0.00000, -0.03125, 0.00000, 0.03125, -0.03125, 0.06250, 0.00000, 0.03125, 0.00000, 0.00000, 0.00000, 0.03125, 0.00000, 0.00000, 0.00000, -0.03125, 0.00000, 0.00000, -0.03125, 0.06250, 0.00000, 0.00000, -0.03125, 0.03125, -0.03125, 0.00000, 0.00000, 0.03125, 0.00000, -0.03125, 0.03125, -0.06250, 0.00000, 0.00000, 0.03125, 0.03125, 0.00000, 0.00000, 0.03125, -0.06250, 0.03125, 0.00000, 0.00000, 0.03125, 0.00000, -0.06250, 0.03125, -0.03125, -0.03125, -0.03125, -0.03125, 0.00000, -0.03125, 0.03125, -0.03125, -0.03125, -0.06250, -0.03125, 0.00000, 0.00000, 0.00000, -0.03125, 0.03125, 0.00000, 0.00000, -0.03125, 0.03125, 0.03125, 0.00000, 0.06250, 0.03125, 0.03125, 0.00000, 0.00000, 0.00000, 0.03125, -0.03125, -0.03125, 0.03125, -0.06250, 0.00000, 0.03125, -0.03125, 0.09375, -0.03125, 0.00000, -0.03125, 0.00000, -0.03125, 0.00000, 0.03125, -0.03125, 0.00000, -0.03125, 0.03125, -0.03125, -0.03125, 0.03125, 0.00000, 0.03125, -0.03125, 0.03125, 0.00000, -0.03125, -0.03125, -0.03125, 0.03125, -0.06250, 0.03125, 0.00000, 0.00000, 0.00000, -0.03125, -0.03125, -0.06250, 0.09375, 0.00000, 0.00000, -0.09375, 0.00000, -0.06250, -0.03125, 0.00000, -0.03125, -0.03125, 0.00000, 0.03125, 0.00000, 0.00000, 0.03125, -0.03125, 0.00000, -0.03125, -0.18750, 0.00000, -0.09375, -0.03125, -0.03125, -0.03125, -0.06250, 0.03125, -0.03125, -0.03125, -0.06250, -0.03125, -0.03125, 0.00000, -0.03125, -0.03125, 0.00000, -0.09375, 0.00000, -0.03125, 0.00000, 0.00000, -0.03125, 0.00000, 0.00000, -0.03125, -0.03125, 0.00000, 0.00000, 0.00000, -0.06250, -0.03125, 0.00000, -0.03125, 0.00000, 0.00000, 0.00000, 0.00000, 0.00000, 0.06250, 0.03125, 0.03125, -0.03125, -0.03125, 0.00000, 0.06250, 0.06250, 0.00000, -0.03125, 0.06250, -0.03125, 0.06250, -0.03125, 0.00000, 0.06250, 0.00000, -0.03125, 0.00000, 0.03125, 0.00000, 0.03125, 0.00000, 0.03125, 0.00000, 0.15625, 0.00000, -0.03125, 0.00000, 0.03125, -0.03125, -0.03125, 0.00000, 0.00000, 0.03125, 0.00000, -0.03125, 0.06250, -0.06250, 0.03125, 0.00000, 0.00000, -0.03125, 0.00000, -0.06250, -0.03125, 0.00000, -0.03125, 0.00000, -0.03125, 0.00000, -0.03125, -0.03125, 0.00000, 0.00000, 0.06250, 0.00000, 0.00000, 0.00000, -0.03125, 0.00000, 0.03125, 0.00000, -0.03125, -0.03125, 0.00000, 0.00000, 0.00000, 0.00000, -0.03125, 0.00000, 0.06250, 0.00000, 0.00000, -0.06250, 0.03125, 0.00000, 0.03125, 0.00000, -0.03125, 0.00000, 0.00000, 0.03125, -0.03125, 0.00000, 0.00000, 0.00000, 0.00000, -0.03125, -0.03125, 0.00000, 0.00000, 0.00000, 0.00000, 0.00000, 0.00000, 0.00000, 0.00000, 0.00000, 0.00000, 0.00000, 0.00000, 0.00000, 0.15625, 0.00000, 0.00000, 0.03125, 0.00000, 0.06250, -0.03125, 0.00000, -0.03125, 0.00000, -0.03125, 0.03125, 0.03125, 0.00000, 0.00000, 0.00000, 0.00000, 0.00000, 0.09375, 0.00000, 0.00000, 0.00000, -0.03125, 0.00000, 0.03125, 0.00000, -0.03125, 0.00000, -0.03125, -0.03125, 0.06250, -0.03125, -0.06250, 0.00000, 0.00000, -0.03125, 0.00000, 0.00000, 0.00000, 0.00000, 0.00000, 0.00000, -0.03125, -0.03125, 0.00000, 0.00000, -0.03125, 0.03125, 0.06250, 0.03125, -0.03125, 0.03125, 0.06250, 0.00000, 0.00000, 0.00000, 0.06250, -0.03125, 0.00000, 0.00000, 0.00000, 0.00000, 0.00000, -0.03125, 0.03125, 0.00000, 0.00000, 0.03125, 0.00000, 0.06250, 0.00000, 0.00000, 0.03125, 0.03125, 0.00000, 0.03125, -0.06250, 0.03125, -0.03125, -0.03125, 0.00000, 0.00000, 0.03125, 0.00000, 0.00000, 0.00000, 0.03125, -0.03125, -0.06250, -0.03125, 0.00000, 0.03125, 0.00000, 0.00000, 0.00000, 0.00000, 0.00000, -0.06250, 0.00000, -0.09375, 0.00000, -0.06250, 0.03125, 0.00000, -0.06250, 0.03125, 0.00000, 0.00000, 0.00000, 0.00000, 0.03125, 0.00000, 0.00000, 0.00000, -0.12500, 0.03125, 0.00000, 0.03125, 0.00000, 0.00000, 0.00000, -0.06250, 0.03125, 0.06250, -0.03125, 0.03125, 0.00000, -0.03125, 0.03125, 0.03125, 0.00000, 0.00000, 0.03125, -0.03125, 0.00000, 0.00000, 0.03125, 0.00000, -0.03125, 0.00000, 0.03125, 0.00000, 0.00000, 0.00000, 0.06250, 0.03125, 0.06250, 0.00000, 0.00000, 0.00000, 0.00000, 0.03125, 0.00000, 0.00000, 0.00000, 0.00000, -0.03125, 0.00000, -0.06250, -0.03125, 0.00000, -0.03125, 0.00000, 0.00000, 0.03125, -0.03125, 0.00000, 0.00000, 0.00000, 0.00000, 0.00000, -0.03125, 0.03125, 0.00000, 0.00000, 0.00000, 0.03125, 0.00000, 0.00000, 0.00000, 0.00000, 0.00000, 0.00000, 0.00000, -0.03125, 0.00000, 0.00000, 0.03125, 0.00000, -0.03125, 0.00000, -0.03125, 0.00000, -0.06250, 0.00000, -0.03125, 0.00000, -0.03125, 0.00000, 0.00000, -0.03125, 0.00000, -0.03125, 0.00000, -0.03125, -0.03125, 0.00000, 0.00000, 0.00000, 0.03125, -0.03125, 0.00000, 0.00000, 0.03125, 0.03125, 0.00000, 0.03125, -0.03125, 0.00000, 0.03125, 0.00000, 0.00000, 0.03125, -0.06250, 0.06250, 0.00000, 0.03125, -0.03125, 0.03125, -0.06250, 0.03125, 0.00000, 0.03125, 0.06250, -0.03125, 0.00000, 0.03125, 0.00000, -0.03125, 0.03125, 0.12500, 0.03125, 0.03125, 0.00000, 0.00000, 0.00000, 0.00000, 0.00000, 0.00000, 0.00000, -0.03125, -0.03125, 0.00000, -0.03125, 0.03125, 0.00000, -0.06250, 0.00000, 0.00000, 0.03125, 0.00000, 0.00000, 0.00000, 0.00000, 0.03125, 0.00000, 0.00000, 0.00000, 0.00000, -0.03125, 0.00000, 0.00000, 0.00000, -0.03125, 0.06250, 0.00000, 0.00000, 0.00000, 0.00000, 0.00000, 0.00000, 0.00000, -0.09375, 0.00000, -0.03125, 0.00000, 0.03125, 0.00000, 0.00000, 0.00000, 0.00000, 0.00000, 0.00000, 0.06250, 0.00000, 0.00000, 0.00000, 0.00000, -0.03125, -0.03125, 0.03125, 0.00000, 0.03125, 0.00000, 0.03125, 0.00000, 0.00000, 0.03125, -0.03125, 0.00000, 0.00000, 0.00000, 0.00000, -0.03125, 0.00000, 0.00000, -0.03125, 0.00000, 0.00000, 0.03125, 0.00000, 0.00000, 0.00000, -0.03125, -0.03125, 0.00000, 0.00000, 0.00000, 0.03125, 0.00000, 0.00000, -0.03125, 0.03125, 0.00000, 0.00000, 0.00000, 0.03125, 0.00000, 0.03125, 0.00000, 0.00000, 0.00000, 0.00000, 0.00000, 0.00000, 0.00000, -0.03125, 0.00000, 0.03125, 0.00000, -0.06250, -0.03125, 0.03125, 0.00000, 0.00000, 0.03125, 0.00000, -0.03125, -0.03125, 0.00000, 0.00000, 0.00000, 0.00000, -0.03125, -0.03125, 0.00000, 0.00000, 0.00000, 0.00000, 0.03125, 0.09375, 0.00000, 0.00000, 0.06250, 0.03125, -0.03125, 0.00000, -0.06250, -0.03125, 0.00000, -0.06250, -0.03125, -0.03125, 0.00000, -0.06250, 0.03125, -0.03125, -0.03125, 0.00000, 0.00000, 0.03125, 0.00000, 0.00000, -0.03125, 0.03125, -0.03125, -0.03125, 0.00000, 0.00000, 0.00000, -0.03125, 0.03125, 0.00000, 0.00000, 0.00000, 0.00000, 0.00000, 0.00000, 0.00000, 0.00000, -0.03125, 0.00000, 0.00000, 0.00000, 0.03125, 0.03125, 0.03125, -0.03125, 0.00000, 0.00000, 0.00000, 0.06250, 0.03125, 0.00000, 0.03125, 0.03125, 0.00000, 0.00000, -0.03125, 0.00000, 0.00000, 0.03125, 0.00000, 0.00000, 0.06250, 0.00000, -0.06250, -0.03125, 0.03125, -0.03125, -0.06250, -0.03125, 0.03125, 0.03125, 0.00000, -0.03125, 0.00000, -0.09375, -0.09375, 0.00000, 0.00000, -0.03125, 0.03125, 0.00000, -0.06250, 0.00000, -0.03125, 0.00000, 0.00000, -0.06250, -0.06250, -0.03125, 0.00000, 0.00000, 0.03125, 0.03125, -0.06250, 0.00000, 0.06250, 0.00000, 0.00000, -0.03125, 0.03125, -0.03125, 0.00000, 0.00000, 0.00000, 0.00000, 0.03125, 0.00000, 0.09375, 0.00000, 0.00000, 0.00000, -0.03125, -0.03125, -0.03125, 0.00000, 0.03125, 0.00000, 0.00000, 0.03125, -0.03125, -0.03125, -0.03125, 0.03125, 0.00000, 0.00000, 0.06250, -0.03125, -0.03125, 0.00000, 0.00000, 0.00000, -0.03125, 0.00000, 0.03125, 0.00000, -0.03125, 0.00000, 0.00000, 0.00000, 0.03125, 0.00000, 0.00000, 0.00000, -0.03125, 0.00000, 0.00000, 0.00000, 0.00000, 0.00000, -0.03125, 0.00000, 0.06250, 0.00000, 0.00000, 0.00000, 0.03125, 0.00000, 0.06250, 0.00000, 0.06250, 0.03125, -0.03125, -0.03125, 0.03125, 0.00000, -0.06250, 0.00000, 0.00000, 0.00000, 0.00000, 0.00000, -0.03125, 0.00000, 0.00000, 0.03125, 0.03125, 0.03125, 0.03125, 0.00000, 0.06250, 0.00000, 0.00000, -0.03125, 0.00000, -0.03125, -0.03125, 0.03125, 0.00000, 0.00000, 0.00000, 0.03125, -0.03125, 0.00000, 0.03125, 0.00000, 0.03125, 0.00000, 0.00000, 0.03125, 0.00000, -0.03125, 0.03125, -0.06250, -0.06250, -0.03125, 0.03125, -0.06250, 0.00000, -0.09375, -0.03125, 0.00000, -0.03125, 0.00000, -0.03125, -0.03125, 0.03125, 0.00000, 0.00000, -0.03125, 0.03125, 0.00000, -0.03125, 0.03125, 0.06250, 0.00000, 0.00000, 0.00000, 0.00000, 0.00000, -0.06250, 0.00000, 0.00000, 0.03125, -0.03125, -0.03125, 0.06250, 0.00000, 0.00000, 0.03125, 0.03125, 0.03125, 0.00000, 0.00000, 0.03125, 0.00000, -0.03125, 0.03125, 0.03125, 0.03125, 0.00000, 0.00000, 0.03125, 0.03125, 0.09375, 0.03125, -0.09375, 0.00000, -0.06250, -0.03125, 0.00000, -0.03125, -0.03125, -0.03125, 0.00000, -0.06250, -0.03125, -0.03125, -0.21875, 0.00000, 0.00000, -0.03125, -0.03125, -0.03125, -0.03125, 0.00000, -0.03125, -0.03125, 0.00000, -0.03125, -0.06250, -0.06250, -0.03125, -0.03125, -0.03125, -0.03125, -0.12500, -0.03125, 0.06250, 0.00000, 0.00000, 0.00000, -0.06250, -0.03125, 0.00000, 0.00000, -0.03125, -0.03125, 0.03125, 0.03125, 0.03125, 0.00000, -0.03125, 0.03125, 0.03125, 0.00000, 0.00000, 0.03125, 0.00000, 0.00000, -0.03125, 0.00000, -0.03125, -0.03125, 0.03125, -0.03125, 0.00000, 0.06250, 0.09375, 0.03125, 0.09375, 0.00000, 0.03125, -0.03125, 0.06250, 0.00000, -0.03125, 0.00000, -0.03125, -0.03125, 0.00000, -0.03125, 0.00000, -0.03125, 0.00000, 0.03125, 0.03125, 0.03125, 0.00000, 0.00000, 0.06250, 0.03125, 0.03125, -0.03125, -0.03125, 0.00000, 0.00000, 0.00000, 0.06250, 0.00000, 0.03125, -0.03125, -0.03125, 0.00000, 0.00000, -0.03125, 0.00000, 0.00000, 0.00000, 0.00000, 0.03125, 0.00000, 0.00000, -0.03125, -0.18750, 0.00000, 0.00000, 0.00000, -0.03125, 0.00000, -0.06250, 0.00000, 0.00000, 0.00000, 0.00000, 0.03125, 0.00000, 0.00000, 0.03125, 0.00000, 0.00000, 0.00000, -0.03125, 0.00000, 0.03125, 0.03125, -0.03125, 0.00000, 0.00000, 0.00000, 0.00000, 0.00000, 0.00000, 0.00000, 0.03125, -0.03125, 0.00000, 0.00000, -0.03125, 0.06250, -0.03125, 0.03125, 0.00000, 0.00000, 0.00000, 0.00000, 0.00000, 0.00000, -0.06250, -0.03125, 0.00000, 0.00000, 0.06250, 0.00000, -0.03125, 0.03125, 0.06250, -0.03125, 0.00000, -0.03125, 0.00000, 0.00000, -0.03125, 0.00000, 0.00000, -0.03125, 0.06250, -0.03125, -0.09375, -0.03125, 0.00000, 0.03125, 0.00000, 0.06250, 0.03125, 0.00000, 0.06250, 0.00000, 0.00000, 0.00000, 0.03125, -0.03125, 0.00000, -0.03125, 0.03125, 0.03125, 0.09375, 0.00000, 0.00000, 0.00000, 0.00000, 0.00000, -0.03125, 0.00000, 0.03125, 0.00000, -0.03125, -0.03125, 0.03125, 0.00000, -0.06250, 0.00000, 0.00000, 0.06250, 0.00000, -0.03125, -0.03125, 0.00000, 0.03125, 0.00000, 0.03125, 0.00000, 0.00000, -0.03125, 0.00000, 0.03125, 0.03125, 0.00000, 0.03125, 0.00000, 0.03125, 0.00000, -0.06250, 0.00000, -0.06250, 0.00000, 0.00000, 0.06250, -0.03125, 0.00000, 0.00000, 0.00000, 0.00000, 0.00000, -0.06250, 0.00000, -0.03125, -0.03125, -0.03125, 0.00000, 0.03125, -0.03125, 0.03125, 0.00000, 0.00000, 0.00000, 0.00000, 0.00000, 0.09375, 0.00000, 0.00000, 0.00000, 0.12500, -0.03125, -0.03125, -0.03125, 0.03125, 0.00000, 0.00000, 0.00000, -0.03125, -0.03125, 0.00000, -0.03125, 0.09375, -0.03125, 0.00000, 0.09375, 0.03125, 0.00000, -0.03125, 0.03125, 0.06250, 0.00000, 0.00000, -0.03125, 0.03125, -0.03125, -0.03125, 0.00000, 0.00000, 0.03125, 0.12500, 0.03125, -0.12500, 0.00000, -0.03125, 0.00000, -0.03125, 0.00000, 0.00000, 0.00000, 0.03125, -0.03125, 0.03125, -0.06250, 0.03125, 0.00000, 0.00000, 0.00000, 0.00000, -0.03125, -0.03125, 0.00000, 0.03125, -0.03125, 0.00000, 0.00000, 0.00000, 0.03125, 0.03125, 0.00000, 0.00000, 0.00000, -0.15625, -0.03125, 0.09375, 0.00000, -0.03125, 0.00000, 0.00000, -0.03125, -0.03125, 0.00000, -0.03125, 0.00000, 0.06250, -0.03125, 0.00000, 0.00000, 0.00000, 0.09375, 0.03125, 0.06250, 0.00000, 0.00000, 0.00000, -0.03125, 0.00000, -0.06250, 0.00000, 0.00000, -0.03125, 0.00000, 0.06250, 0.00000, 0.03125, -0.03125, 0.09375, 0.03125, -0.03125, -0.03125, -0.03125, 0.00000, 0.00000, 0.00000, -0.03125, 0.00000, 0.03125, -0.03125, 0.00000, -0.03125, 0.00000, 0.06250, 0.03125, 0.03125, -0.03125, 0.00000, 0.03125, 0.00000, 0.03125, 0.00000, 0.03125, 0.00000, -0.03125, 0.00000, 0.06250, 0.03125, 0.06250, 0.00000, -0.03125, 0.00000, 0.00000, -0.03125, 0.00000, 0.06250, 0.00000, 0.00000, 0.00000, 0.00000, 0.00000, 0.00000, 0.03125, 0.00000, 0.00000, 0.03125, -0.03125, 0.03125, -0.03125, 0.00000, 0.06250, 0.00000, 0.00000, -0.03125, 0.00000, 0.03125, 0.00000, 0.00000, 0.03125, 0.00000, 0.00000, 0.00000, 0.00000, 0.00000, -0.03125, 0.00000, -0.03125, -0.03125, -0.03125, 0.00000, -0.03125, -0.03125, 0.00000, 0.00000, -0.15625, 0.03125, 0.00000, 0.03125, 0.00000, 0.06250, 0.00000, 0.00000, 0.00000, -0.03125, 0.03125, 0.00000, 0.00000, 0.00000, 0.00000, 0.00000, 0.03125, 0.03125, 0.03125, 0.00000, 0.03125, 0.00000, -0.03125, -0.03125, 0.00000, -0.03125, 0.00000, 0.00000, 0.00000, -0.03125, 0.03125, 0.03125, -0.03125, 0.00000, -0.03125, 0.00000, 0.03125, -0.03125, 0.00000, 0.00000, 0.03125, 0.00000, 0.03125, 0.03125, -0.06250, 0.03125, -0.03125, 0.03125, 0.03125, 0.03125, 0.00000, -0.03125, 0.12500, 0.03125, -0.06250, 0.00000, -0.06250, -0.06250, -0.09375, 0.00000, -0.03125, 0.00000, 0.00000, -0.03125, -0.03125, -0.03125, -0.03125, 0.06250, 0.00000, 0.00000, 0.00000, 0.00000, 0.06250, 0.00000, 0.03125, -0.03125, -0.06250, 0.00000, -0.03125, 0.00000, 0.09375, 0.06250, 0.06250, 0.00000, 0.12500, 0.00000, -0.06250, 0.00000, -0.03125, 0.00000, 0.00000, 0.00000, 0.00000, 0.00000, 0.03125, 0.03125, -0.03125, -0.03125, 0.00000, 0.06250, -0.03125, -0.03125, 0.03125, 0.00000, 0.00000, 0.03125, 0.03125, 0.00000, 0.03125, 0.00000, 0.00000, 0.00000, 0.06250, 0.00000, 0.06250, 0.00000, -0.03125, 0.00000, 0.00000, 0.00000, 0.00000, 0.03125, 0.00000, 0.00000, 0.00000, 0.00000, -0.03125, 0.00000, 0.00000, 0.00000, 0.00000, 0.00000, 0.00000, 0.03125, 0.03125, 0.00000, 0.00000, 0.00000, 0.00000, 0.00000, 0.03125, 0.00000, 0.03125, 0.00000, 0.00000, 0.03125, -0.03125, 0.00000, 0.03125, 0.03125, -0.03125, 0.03125, 0.00000, -0.03125, 0.00000, 0.00000, 0.00000, 0.00000, 0.00000, -0.06250, -0.09375, 0.00000, 0.00000, 0.06250, 0.06250, 0.03125, -0.03125, 0.00000, 0.00000, 0.00000, 0.00000, -0.06250, 0.00000, 0.00000, -0.03125, 0.03125, 0.09375, 0.03125, 0.00000, 0.00000, 0.12500, 0.00000, -0.06250, -0.06250, -0.03125, 0.00000, -0.06250, 0.00000, -0.06250, -0.03125, 0.06250, 0.03125, 0.00000, 0.00000, 0.03125, 0.09375, 0.00000, 0.09375, 0.00000, 0.00000, 0.06250, 0.03125, 0.03125, -0.03125, 0.00000, -0.03125, 0.00000, 0.00000, 0.06250, 0.03125, 0.06250, 0.00000, 0.00000, 0.00000, 0.00000, -0.03125, 0.03125, 0.00000, -0.03125, 0.00000, 0.00000, -0.03125, 0.03125, -0.06250, -0.06250, -0.03125, 0.00000, 0.03125, 0.00000, 0.03125, -0.03125, 0.00000, 0.03125, 0.03125, 0.00000, -0.03125, -0.06250, -0.03125, 0.00000, -0.03125, 0.00000, 0.00000, 0.00000, 0.03125, -0.09375, 0.00000, 0.00000, 0.03125, 0.00000, 0.00000, -0.06250, 0.00000, 0.03125, 0.00000, 0.03125, -0.03125, 0.03125, -0.03125, 0.00000, 0.03125, 0.00000, -0.03125, 0.00000, 0.00000, 0.00000, 0.03125, 0.00000, 0.03125, 0.03125, 0.00000, 0.03125, 0.00000, 0.03125, 0.00000, -0.09375, 0.00000, -0.09375, 0.00000, 0.00000, 0.00000, -0.03125, 0.03125, 0.00000, 0.00000, 0.03125, 0.00000, 0.00000, -0.03125, 0.06250, -0.03125, 0.00000, -0.03125, -0.03125, 0.00000, 0.00000, 0.00000, 0.00000, 0.00000, 0.00000, 0.00000, 0.00000, 0.00000, 0.00000, 0.00000, 0.00000, 0.03125, -0.12500, -0.03125, 0.00000, 0.03125, 0.00000, -0.03125, 0.00000, -0.06250, 0.03125, 0.00000, -0.03125, 0.00000, 0.00000, -0.03125, 0.03125, 0.00000, 0.00000, 0.00000, 0.00000, 0.00000, 0.00000, 0.00000, 0.00000, 0.00000, 0.00000, -0.03125, 0.00000, 0.00000, 0.00000, 0.00000, 0.00000, 0.00000, 0.06250, 0.00000, 0.09375, -0.03125, 0.03125, -0.03125, 0.09375, -0.03125, 0.00000, -0.03125, 0.00000, -0.03125, 0.03125, 0.03125, -0.09375, 0.00000, 0.03125, 0.09375, 0.00000, 0.12500, -0.03125, 0.00000, 0.06250, 0.03125, 0.03125, 0.00000, 0.00000, 0.00000, 0.00000, 0.00000, 0.06250, -0.03125, 0.15625, -0.03125, -0.03125, 0.00000, 0.03125, 0.00000, 0.00000, 0.00000, 0.00000, -0.03125, 0.00000, 0.00000, 0.00000, -0.06250, -0.03125, -0.03125, 0.00000, 0.06250, 0.00000, 0.06250, 0.00000, 0.00000, 0.00000, 0.03125, 0.00000, 0.03125, 0.00000, -0.03125, 0.03125, 0.06250, 0.03125, 0.00000, -0.03125, 0.00000, 0.00000, 0.00000, -0.03125, -0.03125, -0.03125, 0.03125, 0.03125, 0.00000, 0.00000, -0.03125, 0.03125, -0.03125, 0.09375, -0.03125, -0.03125, 0.09375, 0.00000, -0.03125, 0.00000, 0.00000, 0.03125, 0.00000, 0.00000, 0.00000, -0.03125, 0.00000, 0.00000, 0.00000, 0.06250, 0.00000, 0.00000, 0.00000, 0.00000, 0.00000, 0.00000, -0.03125, 0.03125, -0.03125, 0.00000, 0.03125, 0.00000, 0.00000, 0.06250, -0.03125, -0.06250, 0.03125, -0.03125, 0.03125, 0.00000, -0.03125, -0.03125, 0.00000, 0.03125, -0.03125, 0.03125, -0.03125, 0.03125, 0.00000, -0.03125, -0.03125, 0.06250, 0.03125, 0.06250, 0.03125, -0.09375, 0.00000, 0.00000, 0.00000, 0.00000, 0.00000, 0.00000, 0.00000, 0.03125, 0.00000, 0.03125, -0.03125, 0.06250, 0.00000, 0.00000, 0.00000, 0.00000, 0.00000, 0.00000, 0.00000, 0.00000, 0.00000, 0.00000, -0.03125, 0.00000, -0.06250, 0.00000, 0.00000, 0.03125, 0.00000, -0.09375, 0.00000, 0.09375, 0.00000, 0.00000, -0.03125, 0.03125, 0.03125, -0.03125, 0.00000, -0.03125, 0.00000, 0.06250, 0.03125, 0.06250, 0.00000, 0.00000, 0.06250, -0.03125, 0.00000, 0.00000, 0.00000, 0.00000, 0.00000, 0.03125, -0.06250, 0.00000, 0.00000, 0.00000, 0.03125, 0.00000, 0.00000, 0.06250, 0.00000, 0.15625, 0.03125, -0.06250, 0.00000, 0.00000, 0.00000, 0.00000, -0.03125, -0.03125, -0.03125, 0.06250, 0.00000, -0.12500, 0.00000, 0.00000, 0.06250, 0.03125, 0.00000, 0.00000, 0.00000, 0.06250, 0.00000, 0.00000, -0.03125, 0.03125, -0.03125, 0.00000, 0.00000, 0.06250, 0.03125, 0.06250, -0.03125, -0.06250, 0.00000, -0.03125, 0.03125, 0.00000, -0.03125, -0.09375, 0.00000, -0.03125, 0.00000, 0.00000, -0.03125, 0.09375, 0.00000, 0.00000, 0.00000, 0.00000, 0.00000, 0.00000, 0.00000, 0.00000, -0.03125, 0.00000, 0.00000, 0.00000, 0.03125, 0.00000, 0.00000, 0.00000, 0.00000, 0.00000, 0.00000, -0.06250, 0.06250, -0.06250, 0.00000, 0.00000, -0.03125, -0.03125, 0.03125, -0.03125, -0.03125, 0.03125, -0.06250, 0.00000, 0.00000, -0.06250, 0.00000, 0.00000, -0.12500, 0.03125, 0.00000, 0.03125, -0.03125, 0.03125, -0.09375, -0.03125, 0.00000, -0.06250, 0.00000, 0.12500, 0.03125, -0.12500, 0.00000, 0.00000, 0.00000, 0.00000, 0.03125, -0.03125, 0.03125, 0.00000, 0.00000, 0.00000, 0.03125, 0.00000, 0.00000, 0.15625, -0.03125, 0.00000, 0.00000, 0.00000, 0.03125, 0.00000, 0.03125, 0.06250, 0.00000, 0.03125, 0.00000, 0.00000, 0.03125, -0.03125, 0.03125, 0.03125, 0.00000, 0.00000, 0.00000, 0.03125, 0.03125, 0.03125, 0.00000, 0.06250, 0.00000, -0.03125, 0.00000, -0.03125, -0.03125, 0.03125, -0.06250, -0.06250, -0.03125, 0.00000, 0.03125, 0.03125, 0.00000, -0.03125, 0.00000, 0.06250, -0.03125, 0.03125, 0.03125, 0.00000, 0.00000, 0.00000, 0.03125, 0.12500, 0.06250, 0.03125, 0.00000, 0.00000, 0.00000, 0.00000, 0.00000, 0.00000, 0.00000, 0.00000, 0.00000, -0.03125, 0.00000, -0.03125, -0.03125, 0.09375, 0.03125, 0.00000, 0.00000, 0.00000, 0.03125, 0.00000, 0.00000, 0.00000, -0.03125, 0.00000, -0.06250, 0.00000, 0.00000, 0.00000, 0.00000, 0.00000, -0.03125, 0.00000, -0.03125, -0.06250, 0.00000, 0.00000, 0.00000, 0.00000, 0.00000, -0.03125, 0.00000, 0.00000, 0.00000, -0.03125, -0.03125, -0.09375, 0.00000, -0.03125, 0.00000, -0.03125, 0.00000, 0.03125, 0.00000, -0.03125, 0.00000, 0.00000, -0.03125, 0.00000, -0.03125, 0.00000, 0.00000, 0.00000, 0.00000, -0.09375, 0.00000, -0.09375, 0.00000, -0.03125, 0.00000, 0.00000, -0.03125, 0.00000, 0.00000, -0.03125, -0.03125, 0.00000, -0.06250, -0.15625, 0.00000, 0.00000, 0.00000, 0.06250, 0.00000, 0.03125, 0.00000, 0.06250, 0.03125, 0.00000, -0.03125, -0.03125, 0.00000, 0.00000, 0.00000, 0.09375, 0.03125, -0.06250, 0.00000, -0.09375, 0.00000, 0.03125, 0.00000, -0.03125, 0.00000, 0.00000, 0.00000, -0.03125, 0.00000, 0.03125, -0.06250, -0.03125, -0.03125, 0.00000, -0.06250, 0.00000, -0.06250, 0.00000, 0.00000, -0.03125, 0.00000, 0.00000, -0.03125, 0.00000, -0.06250, 0.00000, 0.00000, -0.06250, -0.03125, 0.00000, 0.00000, -0.06250, 0.00000, -0.03125, 0.00000, -0.06250, 0.03125, 0.03125, 0.00000, 0.00000, 0.00000, -0.06250, 0.00000, -0.06250, 0.00000, 0.00000, -0.09375, -0.03125, -0.09375, 0.00000, 0.00000, -0.06250, -0.03125, 0.00000, -0.03125, 0.00000, 0.00000, 0.00000, 0.00000, -0.03125, -0.03125, -0.15625, 0.00000, -0.18750, 0.03125, -0.03125, 0.03125, -0.06250, 0.00000, 0.03125, 0.06250, -0.06250, -0.03125, 0.03125, -0.12500, -0.06250, -0.03125, 0.00000, -0.03125, 0.00000, -0.09375, 0.00000, 0.00000, 0.06250, 0.03125, 0.00000, 0.00000, 0.00000, -0.03125, 0.00000, 0.03125, 0.21875, 0.09375, -0.15625, 0.03125, -0.03125, 0.00000, -0.03125, 0.00000, -0.06250, 0.00000, 0.03125, 0.00000, 0.00000, -0.03125, 0.03125, 0.00000, -0.06250, 0.00000, 0.00000, 0.03125, 0.00000, 0.06250, -0.03125, 0.00000, 0.03125, -0.03125, 0.00000, 0.00000, 0.03125, 0.03125, 0.00000, 0.00000, 0.00000, 0.00000, 0.12500, 0.00000, -0.09375, 0.00000, 0.00000, -0.03125, 0.00000, 0.00000, 0.00000, 0.03125, 0.00000, -0.03125, 0.00000, -0.03125, 0.03125, -0.03125, 0.00000, -0.06250, 0.03125, -0.03125, 0.00000, 0.00000, -0.03125, 0.00000, 0.00000, -0.03125, -0.03125, -0.03125, 0.00000, -0.03125, -0.03125, -0.03125, -0.06250, 0.00000, -0.03125, 0.03125, -0.03125, 0.00000, -0.03125, -0.03125, -0.03125, 0.00000, -0.03125, -0.03125, -0.03125, 0.00000, 0.09375, -0.03125, 0.00000, 0.00000, 0.00000, -0.06250, 0.03125, 0.00000, -0.03125, 0.00000, 0.00000, -0.03125, -0.03125, -0.03125, -0.03125, 0.00000, -0.03125, -0.03125, -0.03125, 0.03125, 0.00000, 0.00000, -0.03125, 0.00000, -0.03125, 0.06250, 0.00000, 0.00000, 0.00000, 0.00000, 0.00000, 0.00000, 0.12500, 0.03125, 0.00000, 0.03125, 0.00000, 0.03125, 0.00000, 0.00000, 0.03125, 0.00000, 0.00000, -0.03125, 0.00000, 0.00000, 0.00000, 0.00000, 0.00000, 0.00000, 0.00000, 0.00000, -0.12500, 0.00000, 0.00000, 0.00000, -0.06250, -0.03125, -0.06250, 0.00000, 0.00000, -0.03125, 0.03125, 0.00000, -0.03125, -0.03125, 0.00000, -0.06250, 0.00000, -0.03125, 0.00000, 0.00000, 0.03125, 0.00000, 0.00000, -0.06250, -0.06250, -0.03125, 0.00000, -0.03125, 0.03125, 0.00000, -0.03125, 0.00000, 0.00000, 0.00000, 0.00000, -0.03125, 0.00000, -0.03125, 0.03125, -0.03125, 0.00000, 0.00000, 0.03125, 0.03125, -0.03125, 0.00000, 0.00000, 0.03125, 0.00000, -0.09375, 0.03125, 0.00000, 0.00000, 0.00000, 0.03125, -0.06250, 0.00000, 0.00000, 0.03125, 0.00000, -0.03125, 0.00000, 0.00000, 0.00000, -0.06250, 0.00000, -0.03125, -0.03125, -0.06250, 0.00000, -0.03125, 0.00000, -0.03125, 0.00000, 0.00000, -0.03125, -0.09375, 0.00000, 0.00000, -0.09375, 0.03125, -0.12500, 0.03125, 0.00000, -0.03125, -0.03125, -0.03125, 0.00000, 0.00000, 0.00000, 0.00000, -0.03125, -0.03125, 0.00000, -0.15625, 0.03125, 0.00000, 0.00000, 0.00000, 0.00000, 0.00000, 0.00000, 0.00000, -0.03125, 0.00000, 0.00000, 0.03125, 0.03125, -0.06250, 0.00000, 0.00000, 0.00000, 0.00000, -0.06250, -0.06250, 0.00000, 0.03125, 0.00000, 0.00000, -0.06250, 0.03125, 0.00000, 0.00000, 0.00000, 0.00000, 0.00000, 0.03125, -0.03125, 0.00000, 0.00000, 0.00000, 0.00000, -0.03125, 0.00000, -0.03125, 0.00000, 0.00000, 0.00000, 0.00000, 0.00000, 0.00000, 0.00000, 0.00000, 0.03125, 0.00000, 0.06250, 0.03125, 0.00000, 0.03125, 0.00000, 0.00000, 0.00000, 0.03125, 0.00000, 0.00000, 0.00000, 0.00000, 0.00000, 0.09375, 0.00000, -0.09375, 0.00000, -0.03125, 0.03125, 0.00000, 0.00000, 0.00000, 0.03125, -0.03125, 0.00000, -0.03125, -0.03125, 0.06250, -0.06250, 0.00000, 0.00000, 0.00000, -0.03125, -0.03125, 0.00000, -0.06250, 0.00000, 0.00000, 0.00000, 0.06250, 0.00000, 0.00000, 0.00000, -0.03125, 0.00000, -0.15625, 0.00000, -0.03125, 0.03125, 0.00000, 0.00000, -0.03125, 0.03125, 0.00000, 0.03125, -0.03125, 0.00000, 0.06250, -0.03125, -0.03125, 0.00000, 0.00000, 0.00000, 0.00000, -0.06250, -0.03125, 0.00000, -0.03125, 0.03125, 0.00000, -0.06250, -0.06250, -0.03125, 0.00000, 0.03125, 0.09375, 0.03125, -0.03125, 0.00000, -0.03125, 0.03125, 0.00000, 0.00000, 0.00000, -0.03125, 0.00000, 0.03125, 0.00000, -0.03125, 0.03125, -0.06250, -0.12500, 0.00000, 0.03125, -0.03125, 0.00000, -0.03125, 0.00000, 0.00000, 0.03125, 0.00000, 0.00000, -0.03125, 0.00000, -0.03125, 0.00000, 0.03125, 0.03125, 0.00000, 0.06250, 0.00000, -0.03125, 0.00000, 0.00000, 0.00000, 0.00000, 0.03125, -0.09375, 0.00000, -0.03125, 0.00000, 0.00000, 0.00000, 0.03125, 0.03125, 0.00000, 0.06250, 0.00000, 0.03125, -0.03125, 0.00000, 0.00000, 0.00000, 0.00000, 0.00000, 0.00000, 0.03125, 0.03125, 0.00000, 0.06250, 0.03125, -0.03125, 0.00000, -0.03125, 0.00000, -0.03125, -0.03125, -0.03125, 0.03125, 0.00000, 0.00000, 0.00000, 0.00000, 0.00000, 0.00000, -0.03125, 0.00000, 0.00000, -0.03125, -0.03125, 0.03125, 0.06250, 0.00000, 0.00000, 0.00000, 0.00000, 0.00000, 0.03125, 0.00000, 0.00000, 0.00000, 0.00000, -0.03125, 0.00000, 0.00000, -0.03125, 0.03125, 0.00000, 0.00000, -0.03125, -0.03125, -0.03125, 0.00000, 0.03125, 0.00000, 0.03125, 0.00000, 0.09375, 0.00000, 0.00000, 0.03125, 0.03125, 0.06250, 0.00000, 0.00000, 0.00000, 0.00000, 0.00000, -0.03125, 0.03125, 0.00000, 0.00000, 0.00000, 0.00000, 0.03125, 0.12500, 0.00000, 0.00000, 0.00000, -0.03125, -0.03125, 0.09375, -0.06250, 0.00000, 0.00000, 0.00000, 0.00000, 0.06250, -0.03125, -0.15625, 0.00000, -0.03125, 0.00000, 0.03125, 0.03125, 0.00000, 0.00000, 0.15625, -0.03125, 0.03125, 0.00000, 0.00000, 0.00000, 0.00000, 0.00000, 0.18750, 0.09375, -0.03125, 0.00000, 0.00000, 0.00000, 0.03125, 0.00000, 0.00000, 0.00000, 0.00000, 0.00000, -0.03125, 0.00000, 0.03125, 0.00000, -0.09375, 0.00000, 0.00000, 0.03125, 0.00000, 0.03125, 0.00000, 0.00000, 0.06250, 0.00000, 0.00000, 0.00000, 0.03125, -0.06250, -0.03125, 0.03125, 0.00000, 0.00000, 0.06250, 0.03125, -0.12500, 0.00000, -0.03125, 0.00000, -0.03125, 0.00000, -0.03125, 0.03125, -0.03125, 0.00000, 0.00000, 0.00000, 0.03125, -0.03125, 0.00000, -0.03125, 0.00000, -0.09375, 0.03125, 0.00000, -0.03125, -0.03125, 0.03125, -0.03125, 0.00000, -0.03125, 0.00000, 0.00000, -0.03125, 0.03125, -0.12500, 0.00000, 0.00000, 0.00000, 0.00000, 0.00000, 0.03125, -0.03125, 0.00000, 0.00000, 0.00000, 0.00000, 0.00000, 0.00000, -0.03125, 0.03125, 0.00000, -0.03125, 0.00000, 0.00000, 0.00000, 0.00000, 0.03125, 0.00000, 0.00000, 0.03125, 0.03125, 0.00000, -0.03125, -0.03125, -0.03125, 0.00000, 0.00000, 0.00000, -0.03125, 0.00000, 0.00000, 0.00000, 0.00000, 0.03125, 0.00000, 0.00000, 0.00000, 0.00000, 0.00000, 0.00000, -0.06250, 0.00000, 0.00000, 0.00000, 0.00000, 0.00000, -0.06250, 0.00000, 0.00000, 0.00000, 0.00000, -0.03125, -0.03125, 0.00000, 0.00000, 0.00000, 0.03125, 0.00000, -0.03125, 0.00000, 0.03125, 0.00000, 0.00000, 0.00000, 0.00000, 0.03125, 0.00000, 0.00000, 0.00000, 0.00000, 0.06250, 0.03125, 0.00000, -0.03125, 0.00000, 0.03125, 0.00000, 0.03125, 0.06250, 0.00000, 0.03125, 0.03125, 0.03125, 0.00000, 0.00000, -0.03125, 0.00000, -0.03125, 0.00000, 0.00000, -0.03125, 0.00000, -0.15625, 0.03125, -0.03125, -0.03125, -0.03125, 0.00000, -0.03125, 0.00000, -0.03125, -0.03125, 0.03125, -0.06250, -0.12500, -0.03125, 0.00000, 0.00000, 0.00000, 0.00000, -0.03125, 0.00000, -0.03125, 0.00000, 0.00000, -0.03125, -0.06250, -0.03125, -0.03125, 0.00000, 0.03125, 0.00000, -0.12500, 0.00000, 0.00000, 0.00000, 0.00000, -0.03125, -0.03125, 0.00000, -0.03125, 0.00000, -0.03125, 0.03125, 0.03125, 0.00000, -0.12500, 0.00000, 0.00000, 0.03125, 0.00000, -0.03125, 0.00000, 0.00000, 0.00000, -0.03125, 0.00000, 0.00000, 0.03125, 0.00000, -0.03125, 0.00000, 0.00000, 0.03125, 0.12500, 0.00000, -0.06250, 0.00000, -0.03125, -0.03125, -0.03125, -0.06250, 0.00000, 0.00000, -0.03125, -0.03125, -0.03125, -0.03125, -0.09375, 0.03125, 0.00000, -0.12500, -0.03125, -0.12500, -0.03125, 0.00000, -0.09375, 0.00000, -0.06250, 0.03125, -0.03125, 0.00000, 0.03125, -0.03125, -0.09375, -0.03125, -0.15625, 0.00000, 0.03125, 0.00000, 0.00000, 0.00000, -0.03125, 0.00000, -0.03125, 0.00000, 0.00000, -0.03125, 0.00000, 0.03125, 0.12500, -0.03125, 0.00000, 0.03125, 0.00000, 0.03125, 0.00000, 0.03125, 0.00000, 0.00000, 0.03125, 0.00000, 0.00000, 0.00000, 0.00000, 0.03125, 0.03125, 0.00000, 0.06250, 0.00000, 0.00000, 0.03125, 0.03125, -0.03125, 0.06250, -0.03125, -0.03125, 0.00000, -0.03125, -0.03125, 0.03125, -0.03125, 0.03125, 0.00000, 0.00000, 0.00000, 0.03125, -0.03125, 0.00000, 0.00000, 0.06250, 0.00000, 0.00000, 0.00000, 0.03125, -0.03125, 0.00000, 0.03125, 0.03125, 0.03125, -0.03125, 0.00000, 0.00000, 0.00000, 0.00000, -0.03125, -0.03125, 0.00000, 0.00000, 0.00000, -0.03125, 0.00000, 0.00000, 0.00000, 0.03125, 0.00000, 0.00000, 0.03125, 0.00000, 0.03125, -0.03125, 0.00000, 0.00000, -0.03125, 0.00000, -0.03125, 0.00000, 0.00000, 0.00000, 0.00000, 0.00000, -0.03125, 0.09375, 0.00000, -0.09375, -0.03125, -0.03125, 0.00000, 0.00000, 0.00000, -0.03125, 0.00000, 0.00000, 0.00000, -0.03125, -0.03125, -0.06250, -0.03125, 0.00000, 0.00000, 0.00000, -0.03125, 0.00000, 0.00000, -0.06250, 0.00000, 0.00000, 0.00000, 0.00000, -0.06250, 0.00000, -0.03125, -0.09375, -0.03125, 0.00000, 0.03125, -0.15625, 0.00000, 0.00000, 0.00000, -0.03125, 0.00000, -0.06250, 0.03125, -0.03125, -0.03125, 0.00000, -0.03125, -0.03125, 0.00000, 0.03125, -0.03125, 0.00000, 0.00000, 0.00000, 0.00000, -0.03125, 0.03125, -0.06250, 0.00000, -0.03125, -0.03125, 0.00000, 0.03125, -0.03125, 0.00000, -0.09375, 0.03125, -0.09375, -0.03125, 0.00000, 0.00000, -0.06250, 0.00000, 0.00000, -0.03125, -0.06250, -0.03125, -0.03125, -0.03125, 0.00000, -0.03125, 0.00000, -0.09375, -0.03125, 0.03125, -0.03125, 0.00000, -0.03125, 0.00000, 0.00000, -0.03125, -0.03125, 0.00000, 0.00000, -0.03125, -0.06250, -0.03125, -0.12500, 0.00000, -0.12500, -0.03125, -0.03125, 0.00000, -0.06250, -0.03125, 0.00000, -0.06250, 0.00000, -0.03125, -0.09375, -0.06250, -0.06250, 0.00000, 0.00000, -0.12500, -0.03125, -0.03125, 0.00000, 0.00000, -0.12500, -0.03125, 0.00000, 0.00000, 0.00000, 0.00000, 0.00000, -0.03125, -0.09375, 0.00000, -0.15625, -0.03125, -0.21875, 0.00000, -0.03125, 0.00000, -0.06250, -0.06250, 0.00000, 0.03125, -0.03125, -0.03125, -0.03125, -0.12500, -0.12500, -0.06250, 0.03125, -0.12500, -0.03125, -0.06250, 0.00000, 0.00000, -0.12500, 0.00000, -0.06250, -0.06250, -0.03125, -0.03125, 0.03125, 0.00000, 0.03125, 0.00000, -0.15625, 0.03125, 0.06250, 0.00000, -0.03125, 0.00000, -0.06250, 0.03125, 0.00000, 0.00000, -0.03125, 0.00000, 0.00000, 0.09375, 0.00000, 0.00000, 0.00000, 0.06250, -0.03125, 0.09375, -0.03125, 0.00000, 0.03125, -0.03125, -0.03125, -0.03125, 0.03125, 0.03125, 0.00000, -0.03125, 0.00000, 0.00000, 0.31250, 0.00000, -0.12500, 0.00000, 0.00000, 0.00000, -0.03125, -0.03125, 0.06250, 0.00000, 0.00000, -0.03125, -0.03125, -0.09375, 0.00000, -0.03125, 0.03125, -0.09375, -0.03125, -0.09375, -0.03125, 0.00000, -0.06250, 0.00000, 0.00000, -0.06250, 0.00000, -0.03125, 0.00000, -0.03125, -0.09375, -0.06250, -0.09375, 0.00000, -0.09375, 0.00000, 0.00000, 0.03125, -0.06250, -0.03125, 0.03125, 0.00000, 0.00000, 0.00000, -0.03125, 0.00000, 0.00000, -0.03125, 0.00000, -0.09375, 0.00000, -0.06250, 0.00000, 0.00000, -0.06250, 0.00000, 0.00000, 0.00000, 0.03125, 0.00000, 0.00000, -0.03125, -0.09375, -0.03125, -0.03125, 0.03125, 0.00000, 0.00000, 0.00000, 0.00000, 0.00000, -0.06250, -0.03125, 0.00000, -0.03125, 0.00000, -0.03125, 0.00000, 0.03125, 0.03125, 0.00000, 0.03125, 0.03125, 0.06250, -0.03125, 0.00000, 0.03125, 0.00000, 0.00000, 0.00000, 0.00000, 0.03125, 0.00000, 0.00000, 0.00000, 0.00000, 0.03125, 0.00000, -0.15625, 0.00000, -0.03125, -0.03125, -0.06250, -0.03125, -0.06250, 0.00000, -0.03125, -0.03125, 0.03125, -0.09375, -0.15625, 0.00000, 0.00000, -0.03125, 0.00000, 0.00000, -0.03125, 0.00000, -0.03125, 0.03125, -0.03125, 0.00000, 0.00000, -0.03125, 0.03125, 0.00000, 0.00000, 0.03125, -0.06250, -0.03125, 0.03125, 0.00000, 0.00000, -0.03125, 0.03125, 0.00000, -0.03125, -0.03125, 0.00000, -0.03125, 0.03125, 0.00000, -0.12500, 0.03125, 0.00000, -0.03125, 0.00000, -0.06250, 0.00000, 0.00000, 0.00000, 0.03125, 0.00000, 0.00000, 0.03125, 0.00000, 0.03125, 0.00000, -0.06250, -0.03125, 0.00000, 0.00000, -0.09375, -0.03125, 0.00000, -0.03125, -0.03125, 0.00000, 0.00000, 0.00000, -0.03125, -0.03125, -0.03125, -0.03125, -0.15625, 0.00000, 0.03125, -0.18750, -0.03125, -0.09375, 0.03125, 0.00000, -0.12500, 0.00000, -0.03125, -0.03125, 0.00000, 0.00000, 0.00000, 0.03125, -0.15625, -0.06250, -0.25000, 0.00000, -0.03125, -0.03125, 0.00000, 0.00000, -0.03125, 0.00000, -0.06250, 0.00000, 0.00000, 0.00000, 0.00000, -0.03125, -0.06250, -0.03125, 0.00000, -0.03125, 0.00000, -0.06250, 0.00000, 0.00000, -0.03125, 0.03125, -0.03125, 0.03125, 0.03125, 0.00000, 0.00000, 0.00000, -0.03125, -0.03125, -0.15625, 0.00000, 0.03125, 0.00000, 0.00000, 0.03125, -0.03125, -0.03125, 0.00000, 0.00000, -0.03125, 0.00000, -0.06250, 0.00000, 0.03125, 0.00000, 0.00000, 0.00000, 0.00000, -0.03125, 0.00000, 0.00000, 0.03125, 0.00000, -0.03125, 0.06250, -0.03125, 0.00000, 0.00000, 0.00000, 0.00000, 0.00000, 0.00000, 0.03125, -0.09375, 0.00000, 0.00000, 0.00000, 0.00000, -0.03125, 0.00000, 0.00000, -0.03125, 0.00000, -0.03125, -0.06250, -0.03125, -0.03125, 0.03125, -0.06250, 0.00000, -0.03125, 0.00000, 0.00000, -0.09375, 0.00000, 0.00000, -0.03125, -0.03125, 0.00000, 0.03125, 0.00000, -0.09375, -0.06250, -0.12500, 0.00000, -0.12500, 0.03125, 0.00000, -0.03125, 0.00000, -0.03125, -0.06250, 0.00000, 0.00000, -0.03125, 0.06250, -0.06250, -0.03125, 0.00000, 0.00000, -0.09375, 0.00000, 0.00000, -0.03125, 0.00000, -0.03125, 0.03125, -0.06250, 0.03125, -0.06250, -0.03125, 0.03125, 0.00000, -0.06250, 0.00000, -0.09375, -0.03125, 0.00000, 0.00000, 0.00000, -0.03125, 0.00000, 0.00000, 0.00000, 0.00000, -0.03125, 0.00000, 0.00000, -0.03125, -0.09375, 0.00000, 0.00000, 0.00000, 0.00000, 0.00000, -0.03125, 0.00000, 0.03125, -0.03125, 0.00000, 0.03125, 0.00000, -0.03125, 0.00000, 0.03125, 0.00000, -0.03125, 0.00000, -0.03125, 0.00000, 0.00000, 0.00000, 0.00000, 0.00000, 0.00000, 0.00000, 0.00000, -0.03125, 0.00000, 0.00000, -0.03125, 0.03125, 0.00000, 0.00000, 0.09375, 0.00000, 0.03125, 0.03125, 0.00000, 0.03125, 0.00000, -0.03125, 0.03125, 0.00000, 0.00000, 0.03125, 0.00000, 0.03125, 0.06250, 0.03125, 0.00000, 0.00000, 0.00000, 0.00000, -0.03125, -0.03125, 0.03125, 0.03125, 0.00000, 0.00000, 0.00000, 0.00000, 0.00000, 0.06250, 0.00000, 0.00000, 0.03125, 0.00000, 0.00000, 0.00000, 0.00000, 0.00000, -0.03125, -0.03125, -0.03125, 0.03125, 0.00000, 0.00000, 0.00000, 0.03125, 0.00000, 0.12500, 0.00000, 0.00000, 0.00000, 0.00000, 0.00000, -0.03125, -0.09375, 0.00000, 0.00000, 0.00000, -0.03125, -0.06250, 0.00000, 0.06250, 0.00000, 0.00000, 0.03125, 0.00000, 0.00000, -0.03125, 0.00000, 0.00000, -0.03125, -0.03125, -0.03125, -0.03125, 0.00000, 0.00000, 0.00000, 0.03125, 0.00000, 0.15625, 0.03125, -0.06250, 0.03125, 0.00000, 0.00000, 0.03125, 0.00000, -0.03125, 0.03125, 0.00000, -0.03125, 0.00000, 0.00000, -0.09375, 0.00000, 0.00000, -0.06250, 0.00000, -0.03125, 0.00000, 0.00000, 0.06250, -0.03125, 0.03125, -0.06250, -0.03125, 0.03125, 0.00000, 0.00000, -0.03125, 0.00000, -0.06250, 0.00000, 0.03125, 0.00000, 0.00000, -0.03125, -0.03125, 0.00000, 0.00000, 0.00000, 0.00000, 0.00000, -0.03125, 0.03125, -0.06250, 0.00000, 0.00000, 0.03125, -0.03125, 0.06250, 0.00000, 0.00000, 0.06250, 0.00000, 0.00000, -0.03125, -0.03125, -0.03125, 0.00000, 0.03125, 0.00000, 0.00000, 0.09375, 0.00000, -0.09375, -0.03125, 0.00000, 0.03125, -0.06250, 0.00000, 0.00000, 0.00000, -0.03125, -0.03125, -0.06250, -0.03125, -0.03125, -0.06250, 0.00000, -0.12500, 0.00000, -0.06250, -0.03125, 0.00000, -0.06250, 0.00000, -0.03125, -0.03125, -0.03125, 0.00000, 0.03125, -0.03125, -0.09375, 0.00000, -0.06250, -0.03125, 0.00000, -0.03125, 0.00000, 0.00000, 0.03125, -0.06250, 0.00000, -0.03125, -0.03125, 0.00000, -0.03125, 0.03125, 0.00000, 0.00000, 0.03125, -0.06250, 0.00000, -0.03125, -0.03125, 0.00000, 0.00000, 0.00000, 0.00000, -0.06250, 0.00000, 0.00000, 0.00000, 0.00000, -0.06250, -0.03125, -0.06250, -0.03125, -0.03125, 0.00000, 0.00000, 0.00000, -0.03125, -0.03125, 0.00000, 0.00000, -0.03125, 0.00000, 0.00000, 0.03125, 0.03125, 0.00000, 0.00000, 0.00000, 0.00000, 0.03125, 0.00000, 0.00000, 0.00000, 0.00000, 0.00000, 0.00000, 0.03125, 0.00000, 0.00000, 0.00000, 0.00000, 0.00000, 0.09375, 0.00000, 0.00000, 0.03125, 0.00000, 0.03125, 0.00000, 0.00000, 0.00000, 0.00000, -0.03125, 0.00000, -0.03125, 0.06250, -0.03125, -0.03125, 0.00000, -0.03125, -0.03125, 0.06250, 0.03125, 0.00000, 0.00000, 0.00000, -0.03125, 0.00000, 0.03125, 0.00000, -0.03125, 0.00000, -0.06250, 0.00000, 0.03125, 0.00000, -0.15625, 0.00000, -0.03125, -0.03125, -0.03125, -0.06250, -0.03125, 0.00000, -0.03125, -0.03125, 0.00000, 0.00000, -0.18750, 0.00000, 0.03125, -0.09375, 0.00000, -0.09375, -0.03125, 0.00000, -0.12500, 0.00000, -0.03125, 0.00000, -0.09375, 0.00000, 0.00000, 0.00000, -0.09375, -0.06250, -0.12500, 0.00000, 0.03125, 0.00000, 0.00000, 0.00000, 0.03125, 0.00000, 0.00000, 0.00000, 0.00000, 0.00000, -0.06250, 0.00000, -0.03125, 0.03125, 0.00000, 0.03125, 0.03125, 0.00000, -0.03125, 0.00000, 0.03125, -0.03125, -0.03125, 0.03125, 0.00000, 0.03125, 0.00000, 0.00000, 0.00000, 0.03125, 0.12500, 0.00000, -0.15625, 0.00000, -0.03125, -0.03125, 0.00000, -0.03125, -0.06250, -0.06250, 0.00000, -0.06250, -0.09375, -0.09375, -0.12500, 0.00000, 0.00000, -0.06250, 0.00000, -0.09375, -0.03125, -0.03125, -0.12500, -0.03125, 0.00000, 0.03125, -0.06250, -0.03125, 0.00000, -0.03125, -0.06250, -0.09375, -0.09375, -0.03125, 0.00000, 0.03125, -0.03125, 0.00000, -0.03125, 0.00000, 0.00000, 0.03125, 0.00000, 0.03125, 0.00000, 0.03125, 0.03125, -0.06250, 0.00000, 0.00000, 0.00000, 0.03125, 0.00000, 0.00000, 0.03125, 0.00000, -0.03125, 0.00000, 0.03125, 0.00000, 0.00000, 0.00000, 0.00000, 0.03125, 0.09375, 0.03125};
#endif

#endif
