//Numpy array shape [3, 3, 16, 16]
//Min -0.375000000000
//Max 0.437500000000
//Number of zeros 263

#ifndef W8_H_
#define W8_H_

#ifndef __SYNTHESIS__
weight8_t w8[2304];
#else
weight8_t w8[2304] = {-0.06250, 0.09375, 0.03125, -0.31250, 0.00000, 0.00000, -0.03125, 0.00000, 0.03125, -0.06250, -0.03125, -0.03125, 0.00000, -0.12500, 0.00000, 0.00000, -0.09375, -0.03125, 0.00000, -0.12500, 0.03125, -0.15625, -0.06250, -0.09375, 0.06250, -0.06250, 0.06250, -0.21875, -0.06250, -0.21875, 0.06250, 0.00000, 0.03125, -0.09375, -0.03125, 0.06250, 0.00000, -0.03125, 0.03125, 0.03125, 0.00000, -0.03125, 0.12500, 0.03125, 0.00000, 0.00000, -0.09375, -0.03125, 0.03125, -0.03125, 0.03125, -0.09375, -0.09375, -0.03125, -0.09375, 0.00000, 0.00000, 0.09375, 0.03125, -0.09375, 0.00000, -0.06250, 0.00000, 0.03125, 0.06250, -0.03125, 0.00000, -0.09375, -0.03125, 0.03125, -0.03125, 0.00000, 0.06250, 0.00000, 0.15625, -0.03125, 0.00000, -0.09375, -0.03125, 0.09375, 0.00000, -0.06250, -0.09375, 0.12500, -0.12500, 0.09375, 0.09375, -0.03125, -0.06250, 0.00000, -0.06250, 0.09375, 0.09375, -0.15625, 0.12500, -0.09375, -0.03125, -0.03125, 0.09375, 0.09375, -0.06250, 0.15625, 0.00000, -0.03125, -0.09375, -0.03125, 0.03125, 0.06250, 0.06250, 0.06250, 0.06250, -0.03125, -0.03125, 0.21875, -0.03125, -0.09375, 0.09375, 0.00000, 0.09375, -0.03125, -0.03125, 0.00000, 0.03125, -0.03125, 0.06250, 0.15625, 0.00000, 0.00000, -0.03125, 0.00000, -0.06250, -0.15625, -0.06250, -0.06250, 0.03125, 0.00000, -0.12500, -0.06250, -0.12500, -0.03125, 0.03125, 0.03125, 0.06250, 0.03125, -0.06250, 0.00000, 0.09375, 0.00000, 0.03125, -0.12500, 0.06250, 0.00000, -0.06250, -0.03125, 0.03125, 0.03125, 0.03125, -0.09375, -0.03125, -0.03125, 0.06250, -0.06250, 0.03125, -0.03125, 0.06250, 0.06250, -0.06250, -0.03125, 0.00000, -0.03125, 0.00000, 0.03125, -0.03125, -0.09375, -0.03125, 0.03125, -0.09375, -0.03125, 0.09375, 0.03125, -0.06250, 0.12500, 0.12500, -0.03125, -0.09375, 0.03125, 0.00000, -0.12500, -0.03125, 0.00000, -0.06250, 0.00000, -0.03125, 0.06250, 0.06250, 0.03125, 0.00000, 0.06250, 0.12500, 0.03125, 0.03125, -0.06250, -0.12500, 0.03125, -0.03125, -0.15625, 0.06250, 0.00000, -0.03125, -0.12500, 0.00000, -0.06250, 0.03125, 0.06250, 0.00000, 0.00000, 0.03125, 0.06250, 0.03125, -0.09375, -0.03125, -0.09375, -0.09375, 0.06250, 0.00000, -0.18750, 0.06250, -0.12500, 0.00000, -0.06250, 0.03125, -0.03125, 0.00000, -0.03125, -0.15625, 0.03125, 0.00000, -0.09375, 0.00000, -0.03125, 0.03125, -0.03125, -0.03125, -0.09375, -0.09375, 0.00000, -0.09375, -0.03125, 0.03125, 0.12500, -0.06250, 0.12500, 0.09375, 0.06250, 0.03125, -0.06250, -0.03125, -0.06250, 0.03125, -0.09375, -0.06250, -0.03125, 0.03125, -0.03125, -0.03125, 0.00000, -0.09375, -0.15625, -0.03125, -0.03125, -0.03125, 0.00000, 0.00000, 0.09375, 0.03125, 0.00000, -0.09375, -0.12500, 0.09375, -0.06250, 0.00000, 0.00000, 0.03125, 0.00000, -0.09375, 0.06250, 0.00000, -0.03125, 0.00000, -0.09375, 0.00000, 0.09375, 0.03125, 0.06250, 0.06250, -0.03125, -0.09375, 0.00000, 0.03125, 0.12500, -0.06250, 0.00000, 0.09375, 0.06250, 0.00000, 0.06250, 0.03125, -0.03125, 0.06250, -0.03125, -0.09375, 0.00000, 0.00000, -0.09375, 0.00000, 0.06250, -0.06250, -0.12500, 0.00000, 0.03125, 0.00000, -0.06250, 0.00000, -0.18750, 0.06250, -0.09375, -0.09375, 0.03125, -0.03125, -0.03125, 0.09375, -0.09375, -0.03125, 0.03125, -0.09375, 0.03125, -0.03125, 0.18750, -0.03125, 0.03125, -0.06250, 0.03125, 0.00000, -0.03125, -0.03125, 0.09375, 0.03125, 0.00000, 0.15625, -0.18750, 0.06250, 0.00000, 0.00000, 0.03125, -0.03125, 0.09375, -0.06250, 0.12500, 0.09375, 0.03125, -0.09375, 0.00000, -0.03125, 0.18750, 0.06250, -0.06250, 0.12500, -0.03125, 0.06250, -0.09375, -0.06250, 0.31250, -0.06250, -0.03125, 0.03125, 0.00000, 0.00000, 0.00000, 0.18750, 0.06250, 0.09375, 0.09375, 0.06250, -0.03125, -0.03125, -0.03125, -0.09375, -0.03125, -0.06250, -0.03125, -0.03125, -0.06250, -0.15625, -0.09375, 0.03125, 0.00000, 0.00000, 0.12500, 0.03125, -0.03125, -0.03125, 0.06250, 0.03125, -0.03125, 0.06250, -0.06250, 0.06250, -0.03125, 0.00000, 0.12500, -0.09375, -0.09375, 0.00000, -0.09375, 0.12500, -0.03125, -0.03125, -0.12500, -0.03125, -0.09375, -0.03125, 0.03125, 0.03125, 0.03125, 0.00000, 0.00000, 0.00000, 0.00000, 0.00000, -0.15625, -0.03125, -0.06250, -0.09375, -0.18750, 0.03125, 0.00000, 0.06250, 0.03125, -0.06250, 0.00000, 0.06250, 0.03125, -0.06250, 0.09375, -0.03125, -0.03125, 0.03125, 0.06250, 0.00000, -0.12500, -0.03125, 0.21875, 0.00000, 0.06250, -0.06250, 0.03125, -0.06250, -0.03125, -0.03125, 0.03125, 0.00000, -0.09375, 0.06250, 0.00000, 0.00000, -0.03125, -0.06250, -0.06250, -0.06250, 0.00000, -0.12500, 0.03125, 0.03125, 0.00000, 0.06250, 0.00000, 0.00000, -0.09375, 0.06250, -0.03125, -0.09375, -0.21875, -0.09375, -0.06250, 0.00000, -0.06250, 0.00000, 0.00000, -0.03125, -0.03125, -0.09375, 0.06250, 0.00000, -0.18750, -0.03125, -0.03125, 0.09375, 0.09375, 0.00000, 0.03125, -0.12500, -0.09375, 0.00000, 0.00000, -0.06250, 0.03125, 0.12500, 0.09375, 0.03125, -0.06250, 0.03125, 0.00000, -0.03125, 0.00000, -0.09375, -0.06250, -0.12500, -0.15625, -0.03125, 0.03125, -0.06250, -0.03125, -0.21875, -0.06250, 0.03125, 0.06250, -0.09375, 0.00000, 0.03125, 0.06250, -0.12500, -0.03125, 0.03125, -0.06250, -0.06250, -0.03125, 0.00000, -0.09375, 0.06250, -0.18750, 0.06250, 0.06250, -0.06250, -0.03125, -0.03125, 0.00000, 0.03125, 0.09375, 0.06250, 0.00000, 0.09375, -0.03125, 0.03125, 0.03125, 0.03125, 0.03125, 0.03125, 0.00000, -0.06250, 0.00000, 0.00000, -0.15625, 0.00000, 0.03125, 0.00000, -0.06250, 0.09375, 0.00000, -0.03125, -0.03125, -0.03125, -0.09375, 0.00000, 0.12500, -0.03125, 0.03125, -0.06250, -0.09375, 0.00000, -0.15625, -0.06250, 0.00000, 0.09375, 0.03125, 0.00000, -0.09375, 0.03125, 0.00000, 0.03125, -0.06250, -0.06250, 0.00000, 0.03125, 0.15625, -0.03125, 0.18750, 0.03125, 0.06250, -0.03125, 0.00000, 0.03125, 0.12500, -0.03125, 0.00000, 0.06250, -0.28125, 0.06250, 0.03125, -0.03125, 0.21875, 0.00000, -0.12500, -0.15625, 0.09375, 0.00000, -0.03125, 0.06250, 0.15625, 0.00000, 0.00000, 0.03125, 0.00000, -0.03125, -0.06250, -0.06250, -0.03125, -0.09375, 0.06250, -0.03125, 0.09375, 0.00000, 0.03125, 0.00000, 0.06250, 0.25000, -0.12500, 0.00000, -0.09375, 0.09375, -0.03125, -0.03125, -0.03125, 0.09375, -0.06250, -0.06250, -0.12500, 0.09375, -0.03125, 0.00000, -0.06250, -0.06250, 0.00000, 0.03125, -0.12500, 0.06250, 0.00000, -0.03125, 0.12500, 0.03125, 0.06250, -0.12500, 0.12500, 0.03125, -0.03125, -0.09375, 0.06250, -0.03125, 0.03125, 0.06250, -0.15625, -0.03125, -0.06250, -0.03125, 0.03125, 0.00000, -0.06250, 0.06250, 0.00000, -0.06250, 0.00000, -0.03125, -0.06250, -0.03125, 0.06250, 0.00000, 0.00000, -0.03125, -0.03125, -0.03125, 0.00000, 0.03125, -0.06250, -0.09375, -0.03125, 0.06250, 0.06250, -0.06250, 0.06250, 0.03125, -0.03125, 0.00000, -0.09375, -0.06250, -0.03125, -0.06250, -0.03125, 0.03125, -0.09375, -0.03125, 0.09375, 0.00000, 0.00000, 0.03125, 0.15625, 0.06250, 0.06250, 0.00000, -0.09375, 0.00000, 0.03125, 0.03125, 0.06250, -0.03125, -0.06250, -0.06250, 0.09375, -0.06250, 0.00000, 0.03125, 0.00000, -0.09375, 0.06250, 0.00000, -0.06250, 0.00000, 0.06250, 0.00000, -0.12500, 0.00000, -0.15625, 0.06250, -0.06250, -0.03125, -0.03125, -0.09375, 0.00000, -0.06250, 0.00000, 0.03125, 0.06250, 0.00000, 0.00000, -0.06250, -0.03125, -0.09375, 0.15625, 0.03125, -0.06250, 0.09375, 0.03125, 0.06250, 0.12500, 0.15625, -0.06250, 0.03125, -0.12500, 0.06250, 0.00000, 0.00000, -0.18750, 0.00000, -0.15625, 0.00000, -0.12500, 0.00000, -0.09375, 0.00000, 0.03125, -0.06250, -0.21875, -0.06250, 0.12500, 0.03125, -0.06250, -0.03125, -0.12500, -0.03125, -0.12500, 0.06250, 0.06250, -0.03125, -0.09375, 0.06250, 0.03125, -0.03125, -0.15625, -0.09375, -0.21875, -0.09375, 0.06250, 0.00000, 0.03125, -0.03125, 0.06250, 0.00000, -0.03125, -0.06250, 0.03125, -0.03125, 0.06250, 0.03125, -0.03125, 0.00000, -0.03125, 0.00000, -0.03125, 0.00000, -0.09375, -0.03125, 0.00000, -0.06250, 0.00000, -0.03125, 0.03125, 0.00000, 0.00000, -0.06250, -0.09375, -0.03125, 0.03125, -0.03125, -0.06250, -0.06250, -0.03125, 0.03125, -0.15625, -0.03125, -0.03125, -0.06250, 0.03125, 0.00000, -0.06250, -0.03125, -0.03125, -0.03125, 0.03125, -0.09375, 0.00000, 0.00000, 0.00000, -0.06250, 0.18750, -0.06250, -0.12500, 0.06250, 0.00000, 0.03125, -0.06250, 0.03125, 0.09375, 0.09375, 0.09375, 0.06250, -0.09375, 0.03125, 0.03125, 0.03125, -0.15625, -0.06250, -0.09375, 0.12500, -0.03125, -0.09375, 0.03125, 0.03125, 0.15625, 0.03125, 0.00000, 0.12500, -0.06250, -0.06250, 0.06250, 0.03125, 0.15625, -0.06250, 0.12500, 0.09375, -0.06250, 0.00000, 0.00000, 0.03125, 0.09375, 0.03125, 0.15625, 0.03125, -0.03125, -0.12500, -0.15625, 0.03125, 0.06250, -0.03125, -0.06250, 0.00000, -0.06250, -0.09375, 0.03125, -0.09375, -0.09375, 0.03125, -0.06250, 0.06250, 0.00000, 0.03125, 0.15625, 0.00000, 0.15625, 0.00000, 0.00000, 0.03125, 0.00000, 0.00000, -0.03125, 0.00000, 0.03125, 0.00000, -0.03125, 0.15625, -0.06250, 0.00000, -0.06250, 0.06250, -0.09375, 0.09375, 0.00000, -0.09375, 0.00000, -0.03125, -0.06250, -0.06250, 0.00000, -0.03125, -0.03125, -0.06250, -0.06250, -0.06250, 0.06250, -0.09375, -0.09375, -0.06250, 0.06250, 0.09375, -0.03125, -0.03125, -0.06250, 0.00000, -0.03125, 0.00000, 0.00000, -0.03125, -0.06250, 0.00000, 0.00000, 0.00000, 0.09375, 0.03125, 0.00000, 0.06250, 0.03125, 0.03125, -0.06250, 0.00000, 0.06250, 0.03125, -0.09375, 0.03125, 0.00000, -0.06250, -0.09375, 0.06250, -0.12500, 0.06250, 0.06250, -0.06250, 0.00000, 0.03125, -0.06250, -0.09375, 0.03125, -0.03125, -0.03125, 0.00000, 0.00000, 0.00000, 0.03125, 0.03125, 0.00000, -0.06250, 0.03125, -0.09375, 0.00000, -0.03125, 0.00000, -0.12500, -0.06250, 0.00000, -0.09375, -0.03125, -0.03125, 0.00000, 0.06250, -0.03125, 0.12500, 0.09375, -0.06250, 0.12500, -0.03125, -0.03125, 0.09375, 0.09375, 0.03125, 0.09375, 0.12500, -0.06250, -0.06250, -0.09375, -0.03125, 0.00000, -0.21875, -0.06250, -0.06250, -0.03125, -0.06250, -0.12500, 0.00000, -0.06250, -0.15625, 0.03125, 0.06250, -0.03125, 0.00000, 0.00000, 0.09375, 0.00000, -0.18750, 0.09375, -0.09375, 0.12500, -0.03125, -0.09375, 0.00000, 0.09375, 0.03125, -0.03125, -0.09375, 0.03125, 0.03125, 0.03125, 0.09375, 0.00000, 0.00000, 0.06250, 0.00000, 0.03125, 0.03125, 0.00000, 0.03125, 0.03125, 0.06250, -0.03125, -0.09375, 0.03125, 0.00000, 0.06250, 0.03125, 0.00000, 0.00000, 0.03125, -0.03125, -0.12500, 0.00000, 0.00000, 0.03125, 0.03125, 0.00000, 0.00000, 0.18750, -0.03125, 0.00000, 0.09375, -0.15625, 0.00000, -0.12500, -0.03125, -0.03125, 0.00000, 0.06250, -0.06250, -0.03125, 0.12500, 0.06250, 0.03125, 0.06250, -0.09375, 0.00000, -0.06250, 0.12500, 0.03125, 0.09375, -0.06250, -0.06250, 0.06250, -0.03125, 0.00000, 0.06250, 0.09375, -0.03125, 0.00000, 0.18750, 0.06250, -0.09375, -0.06250, 0.12500, -0.03125, 0.00000, -0.09375, -0.03125, -0.03125, 0.03125, -0.03125, -0.03125, 0.06250, 0.03125, 0.06250, 0.15625, 0.06250, -0.12500, 0.03125, 0.06250, 0.00000, 0.25000, -0.06250, -0.03125, 0.06250, -0.03125, -0.12500, 0.03125, 0.00000, 0.09375, 0.09375, -0.03125, 0.00000, -0.06250, -0.12500, 0.00000, -0.03125, 0.00000, 0.03125, -0.15625, -0.06250, -0.03125, -0.09375, -0.03125, -0.15625, -0.03125, 0.06250, 0.03125, -0.03125, 0.03125, -0.03125, 0.03125, 0.03125, 0.21875, 0.00000, 0.15625, 0.12500, 0.00000, 0.00000, 0.06250, 0.09375, 0.09375, 0.03125, -0.03125, 0.12500, 0.00000, 0.06250, 0.03125, 0.00000, -0.06250, 0.03125, 0.03125, -0.09375, 0.00000, 0.03125, 0.03125, -0.06250, -0.03125, 0.00000, -0.12500, 0.00000, 0.00000, -0.03125, -0.03125, 0.03125, -0.03125, -0.03125, 0.03125, 0.00000, 0.03125, -0.03125, -0.12500, 0.00000, -0.03125, 0.00000, -0.21875, 0.00000, -0.03125, -0.09375, 0.06250, -0.03125, -0.03125, 0.00000, 0.06250, 0.00000, 0.06250, -0.03125, 0.06250, -0.03125, 0.12500, 0.00000, -0.09375, -0.06250, 0.03125, 0.03125, 0.00000, -0.03125, -0.06250, -0.03125, 0.03125, 0.03125, -0.03125, -0.03125, 0.03125, -0.03125, -0.03125, -0.03125, 0.00000, -0.06250, -0.06250, -0.03125, 0.03125, -0.06250, -0.06250, -0.09375, -0.09375, 0.09375, 0.00000, -0.15625, -0.03125, -0.12500, -0.06250, 0.00000, 0.03125, -0.03125, -0.06250, -0.06250, 0.03125, -0.06250, 0.15625, -0.06250, 0.03125, 0.00000, 0.00000, 0.03125, 0.03125, 0.15625, 0.18750, 0.06250, 0.06250, 0.00000, -0.06250, -0.03125, -0.03125, -0.09375, -0.06250, -0.09375, -0.12500, 0.03125, -0.09375, -0.09375, -0.06250, -0.09375, -0.15625, 0.03125, 0.18750, -0.09375, 0.06250, -0.03125, -0.03125, -0.09375, 0.12500, 0.00000, 0.03125, 0.06250, -0.12500, 0.00000, 0.09375, -0.03125, -0.06250, 0.06250, 0.06250, 0.00000, 0.03125, 0.00000, -0.09375, 0.00000, 0.06250, -0.09375, -0.09375, -0.06250, 0.00000, 0.06250, 0.03125, -0.03125, 0.00000, 0.06250, -0.03125, 0.03125, 0.00000, 0.03125, 0.00000, 0.00000, -0.12500, -0.09375, -0.03125, 0.00000, 0.00000, 0.03125, -0.09375, 0.03125, -0.03125, 0.00000, 0.09375, 0.00000, 0.00000, 0.03125, -0.03125, 0.00000, -0.06250, 0.00000, 0.00000, -0.12500, 0.06250, 0.06250, -0.03125, 0.00000, -0.06250, 0.03125, -0.12500, -0.03125, 0.06250, 0.06250, 0.09375, -0.12500, 0.09375, -0.09375, 0.09375, 0.06250, -0.03125, -0.03125, 0.00000, 0.06250, -0.03125, 0.12500, 0.12500, -0.03125, -0.03125, 0.03125, 0.12500, 0.03125, 0.06250, -0.03125, 0.03125, 0.06250, -0.03125, -0.12500, 0.03125, -0.06250, -0.09375, 0.06250, -0.09375, 0.00000, -0.03125, 0.00000, -0.03125, -0.03125, 0.34375, -0.03125, -0.12500, -0.06250, -0.03125, -0.09375, 0.12500, 0.12500, 0.00000, 0.09375, 0.18750, 0.00000, -0.03125, -0.09375, -0.12500, 0.06250, 0.09375, -0.09375, -0.06250, 0.00000, -0.03125, -0.03125, -0.03125, -0.03125, -0.15625, 0.03125, 0.03125, -0.06250, 0.03125, -0.06250, -0.03125, -0.03125, -0.12500, -0.03125, 0.06250, -0.06250, 0.00000, 0.06250, 0.06250, 0.09375, 0.03125, -0.03125, -0.06250, 0.00000, 0.00000, -0.03125, 0.00000, -0.03125, -0.03125, 0.09375, 0.00000, -0.03125, 0.03125, -0.06250, -0.03125, 0.00000, 0.09375, 0.03125, -0.06250, -0.03125, 0.00000, -0.03125, -0.06250, -0.06250, -0.03125, -0.06250, -0.09375, 0.00000, 0.00000, 0.09375, -0.06250, 0.03125, 0.00000, 0.06250, -0.06250, -0.03125, 0.06250, 0.00000, 0.12500, 0.00000, 0.15625, -0.06250, -0.03125, -0.09375, 0.00000, 0.06250, 0.03125, 0.09375, 0.00000, 0.00000, -0.03125, 0.03125, 0.03125, 0.06250, -0.12500, 0.00000, -0.06250, 0.00000, 0.00000, 0.00000, 0.06250, 0.06250, 0.06250, 0.03125, 0.06250, -0.03125, 0.00000, -0.06250, -0.03125, 0.03125, -0.21875, -0.06250, -0.03125, 0.00000, -0.03125, -0.12500, 0.00000, -0.03125, 0.00000, -0.12500, -0.03125, 0.00000, -0.03125, 0.00000, 0.00000, -0.09375, 0.12500, -0.12500, 0.06250, 0.06250, 0.03125, 0.06250, 0.00000, 0.03125, 0.06250, 0.18750, -0.06250, 0.09375, 0.18750, 0.12500, -0.06250, -0.09375, 0.09375, 0.09375, 0.00000, 0.03125, -0.12500, -0.06250, -0.06250, 0.00000, 0.03125, 0.09375, -0.12500, 0.00000, -0.15625, 0.00000, 0.03125, -0.06250, -0.15625, -0.03125, 0.00000, 0.12500, -0.09375, 0.03125, -0.06250, -0.03125, 0.06250, 0.12500, -0.12500, -0.03125, -0.34375, -0.06250, 0.00000, -0.09375, 0.00000, 0.03125, 0.00000, -0.06250, 0.06250, 0.06250, 0.00000, 0.03125, 0.03125, 0.06250, 0.09375, 0.00000, -0.09375, 0.03125, 0.00000, 0.00000, 0.03125, -0.03125, -0.06250, 0.06250, -0.12500, -0.03125, 0.00000, -0.09375, -0.06250, 0.03125, 0.00000, 0.00000, -0.03125, 0.00000, 0.00000, 0.06250, 0.03125, -0.03125, -0.09375, 0.03125, -0.06250, -0.03125, 0.06250, 0.03125, -0.03125, 0.12500, -0.09375, 0.00000, -0.18750, -0.06250, 0.06250, -0.03125, 0.18750, -0.03125, 0.03125, -0.09375, 0.00000, 0.09375, 0.00000, 0.00000, 0.00000, -0.12500, 0.03125, 0.09375, 0.06250, 0.03125, 0.03125, 0.00000, 0.09375, -0.03125, 0.06250, 0.03125, 0.03125, 0.00000, -0.03125, -0.09375, 0.00000, 0.06250, 0.06250, 0.03125, -0.06250, 0.03125, -0.03125, 0.06250, 0.00000, 0.06250, 0.12500, 0.00000, -0.06250, 0.00000, -0.06250, 0.00000, 0.18750, -0.03125, 0.12500, 0.03125, 0.18750, -0.03125, -0.03125, -0.03125, -0.15625, 0.00000, 0.09375, 0.00000, -0.03125, -0.09375, -0.06250, -0.12500, 0.06250, -0.09375, 0.03125, -0.03125, 0.12500, 0.09375, 0.03125, 0.03125, 0.00000, -0.06250, 0.03125, 0.09375, 0.09375, 0.03125, 0.00000, 0.00000, 0.00000, 0.03125, 0.06250, 0.03125, -0.09375, 0.00000, -0.03125, 0.00000, 0.09375, -0.09375, -0.03125, 0.00000, 0.06250, -0.03125, 0.03125, 0.06250, 0.03125, -0.03125, 0.00000, -0.03125, -0.12500, 0.09375, -0.09375, -0.03125, -0.12500, -0.06250, -0.15625, 0.00000, -0.09375, 0.00000, -0.03125, 0.00000, -0.12500, -0.09375, -0.03125, 0.00000, -0.15625, -0.03125, -0.03125, 0.00000, 0.15625, 0.03125, 0.03125, -0.03125, 0.09375, 0.03125, 0.03125, 0.00000, -0.03125, 0.00000, -0.06250, 0.03125, -0.06250, 0.03125, 0.00000, -0.03125, 0.12500, 0.00000, 0.03125, 0.00000, 0.03125, -0.03125, 0.00000, 0.06250, 0.03125, -0.03125, 0.00000, 0.00000, -0.06250, -0.03125, 0.03125, 0.00000, -0.09375, 0.00000, 0.00000, -0.03125, -0.09375, -0.03125, 0.00000, 0.00000, 0.00000, -0.06250, 0.03125, 0.00000, 0.06250, 0.03125, -0.06250, -0.03125, 0.00000, -0.15625, 0.15625, 0.03125, 0.00000, 0.12500, 0.00000, -0.03125, 0.09375, 0.12500, 0.15625, 0.09375, 0.34375, 0.12500, -0.03125, -0.06250, -0.12500, 0.09375, 0.00000, 0.00000, 0.00000, 0.03125, -0.06250, -0.03125, 0.00000, 0.12500, -0.15625, 0.03125, -0.12500, -0.03125, -0.03125, 0.00000, 0.06250, 0.00000, -0.09375, -0.03125, 0.03125, 0.06250, -0.03125, -0.03125, 0.03125, 0.00000, -0.03125, 0.00000, 0.12500, 0.00000, -0.03125, 0.00000, -0.06250, 0.03125, 0.00000, 0.06250, -0.09375, 0.09375, -0.03125, -0.06250, -0.06250, 0.03125, -0.03125, 0.06250, 0.03125, 0.03125, -0.06250, 0.00000, -0.09375, 0.03125, 0.00000, -0.06250, 0.00000, 0.03125, 0.00000, 0.00000, 0.00000, 0.03125, 0.00000, 0.00000, -0.06250, 0.00000, -0.03125, 0.03125, -0.06250, 0.00000, 0.03125, -0.09375, 0.03125, 0.03125, 0.06250, -0.06250, -0.03125, 0.00000, 0.00000, -0.06250, 0.00000, 0.03125, 0.00000, -0.12500, 0.15625, -0.12500, -0.06250, -0.06250, -0.12500, 0.06250, 0.00000, -0.06250, 0.06250, 0.12500, -0.03125, 0.12500, 0.37500, 0.03125, 0.00000, 0.06250, 0.00000, -0.06250, 0.03125, -0.06250, 0.06250, 0.06250, -0.03125, -0.06250, 0.12500, 0.00000, 0.12500, 0.06250, -0.06250, 0.06250, -0.06250, 0.00000, 0.06250, 0.00000, 0.21875, 0.06250, -0.03125, 0.00000, -0.06250, -0.06250, 0.15625, 0.06250, 0.15625, 0.12500, 0.25000, -0.03125, -0.06250, 0.03125, 0.03125, 0.06250, 0.09375, 0.03125, -0.03125, -0.03125, -0.06250, 0.06250, -0.03125, -0.03125, -0.12500, -0.03125, 0.12500, 0.09375, -0.03125, -0.09375, 0.06250, -0.09375, 0.15625, 0.00000, -0.06250, 0.12500, 0.00000, -0.09375, 0.00000, 0.09375, 0.06250, 0.09375, 0.03125, 0.06250, 0.00000, -0.06250, -0.03125, -0.06250, 0.03125, 0.06250, 0.03125, -0.12500, 0.03125, 0.06250, 0.09375, -0.12500, 0.00000, 0.03125, -0.12500, -0.06250, 0.00000, -0.03125, 0.03125, 0.03125, -0.21875, -0.06250, 0.00000, 0.03125, -0.06250, -0.06250, -0.06250, 0.12500, 0.06250, 0.00000, -0.09375, 0.00000, -0.06250, 0.00000, -0.09375, -0.03125, -0.03125, 0.03125, 0.03125, 0.00000, 0.03125, 0.03125, 0.06250, 0.00000, 0.12500, 0.00000, 0.03125, 0.03125, -0.06250, -0.03125, 0.12500, -0.06250, -0.03125, -0.03125, 0.03125, 0.03125, 0.00000, 0.00000, 0.00000, 0.09375, -0.06250, -0.06250, -0.06250, -0.06250, -0.03125, -0.06250, -0.03125, 0.03125, -0.03125, -0.12500, -0.12500, -0.03125, 0.00000, -0.03125, 0.06250, 0.09375, -0.03125, 0.00000, -0.03125, 0.03125, 0.00000, 0.06250, 0.00000, -0.06250, 0.06250, -0.12500, 0.00000, 0.00000, 0.00000, -0.03125, 0.12500, 0.09375, 0.12500, 0.09375, 0.12500, -0.03125, -0.03125, 0.00000, 0.00000, 0.03125, 0.00000, 0.06250, -0.06250, 0.03125, -0.06250, -0.06250, 0.03125, -0.12500, -0.06250, 0.00000, 0.03125, -0.06250, 0.00000, -0.03125, 0.03125, -0.06250, 0.00000, -0.03125, 0.00000, 0.03125, -0.12500, 0.03125, 0.06250, 0.12500, -0.12500, -0.03125, 0.25000, -0.03125, -0.06250, -0.03125, -0.03125, 0.06250, 0.03125, -0.09375, 0.03125, -0.03125, 0.00000, -0.09375, -0.03125, 0.00000, -0.06250, 0.00000, 0.03125, 0.09375, 0.06250, -0.06250, 0.00000, 0.03125, 0.03125, 0.00000, 0.00000, 0.00000, 0.00000, 0.03125, 0.06250, 0.06250, 0.03125, -0.03125, 0.00000, -0.03125, -0.03125, -0.06250, -0.06250, 0.00000, -0.18750, -0.03125, 0.00000, -0.03125, 0.00000, -0.03125, -0.03125, -0.06250, 0.03125, 0.00000, -0.06250, -0.12500, 0.00000, -0.03125, 0.06250, -0.09375, 0.18750, 0.00000, 0.00000, -0.03125, -0.03125, -0.03125, 0.09375, 0.03125, 0.00000, 0.06250, 0.12500, 0.03125, -0.03125, 0.00000, -0.03125, -0.09375, 0.03125, -0.15625, -0.06250, 0.06250, -0.03125, 0.00000, -0.03125, -0.03125, -0.03125, 0.09375, -0.06250, 0.00000, -0.09375, -0.03125, -0.03125, -0.06250, 0.03125, -0.03125, -0.03125, 0.00000, -0.06250, -0.03125, 0.00000, 0.00000, -0.03125, 0.00000, 0.06250, 0.00000, -0.06250, 0.00000, 0.06250, 0.00000, 0.00000, 0.06250, -0.03125, -0.09375, -0.06250, -0.12500, 0.00000, 0.00000, -0.03125, 0.00000, -0.09375, 0.09375, -0.03125, -0.09375, -0.03125, -0.03125, 0.00000, 0.00000, -0.06250, 0.06250, -0.03125, -0.03125, 0.00000, 0.00000, 0.03125, 0.06250, 0.18750, 0.06250, -0.03125, 0.06250, 0.09375, 0.03125, 0.06250, 0.00000, 0.00000, 0.03125, 0.03125, 0.06250, 0.03125, -0.03125, 0.00000, -0.03125, -0.15625, 0.00000, -0.03125, -0.12500, 0.09375, -0.09375, -0.15625, 0.00000, -0.09375, 0.09375, -0.03125, 0.00000, 0.03125, 0.03125, 0.00000, -0.03125, 0.06250, -0.12500, 0.00000, 0.00000, 0.09375, -0.03125, 0.18750, 0.00000, 0.09375, 0.03125, 0.00000, -0.06250, 0.09375, -0.09375, 0.09375, 0.00000, 0.06250, 0.00000, 0.00000, 0.00000, -0.03125, 0.06250, -0.03125, 0.00000, 0.03125, -0.03125, 0.06250, 0.00000, -0.03125, -0.06250, -0.03125, 0.03125, -0.06250, -0.03125, 0.00000, -0.03125, 0.03125, 0.00000, -0.09375, 0.00000, -0.09375, 0.03125, -0.03125, -0.09375, -0.06250, -0.03125, 0.03125, 0.00000, -0.06250, 0.09375, 0.00000, 0.09375, 0.03125, -0.09375, 0.15625, -0.06250, 0.09375, 0.00000, -0.03125, 0.03125, 0.00000, 0.00000, -0.03125, 0.12500, 0.06250, 0.06250, -0.03125};
#endif

#endif
